{"learner":{"attributes":{"scikit_learn":"{\"_estimator_type\": \"classifier\"}"},"feature_names":[],"feature_types":[],"gradient_booster":{"model":{"cats":{"enc":[],"feature_segments":[],"sorted_idx":[]},"gbtree_model_param":{"num_parallel_tree":"1","num_trees":"200"},"iteration_indptr":[0,1,2,3,4,5,6,7,8,9,10,11,12,13,14,15,16,17,18,19,20,21,22,23,24,25,26,27,28,29,30,31,32,33,34,35,36,37,38,39,40,41,42,43,44,45,46,47,48,49,50,51,52,53,54,55,56,57,58,59,60,61,62,63,64,65,66,67,68,69,70,71,72,73,74,75,76,77,78,79,80,81,82,83,84,85,86,87,88,89,90,91,92,93,94,95,96,97,98,99,100,101,102,103,104,105,106,107,108,109,110,111,112,113,114,115,116,117,118,119,120,121,122,123,124,125,126,127,128,129,130,131,132,133,134,135,136,137,138,139,140,141,142,143,144,145,146,147,148,149,150,151,152,153,154,155,156,157,158,159,160,161,162,163,164,165,166,167,168,169,170,171,172,173,174,175,176,177,178,179,180,181,182,183,184,185,186,187,188,189,190,191,192,193,194,195,196,197,198,199,200],"tree_info":[0,0,0,0,0,0,0,0,0,0,0,0,0,0,0,0,0,0,0,0,0,0,0,0,0,0,0,0,0,0,0,0,0,0,0,0,0,0,0,0,0,0,0,0,0,0,0,0,0,0,0,0,0,0,0,0,0,0,0,0,0,0,0,0,0,0,0,0,0,0,0,0,0,0,0,0,0,0,0,0,0,0,0,0,0,0,0,0,0,0,0,0,0,0,0,0,0,0,0,0,0,0,0,0,0,0,0,0,0,0,0,0,0,0,0,0,0,0,0,0,0,0,0,0,0,0,0,0,0,0,0,0,0,0,0,0,0,0,0,0,0,0,0,0,0,0,0,0,0,0,0,0,0,0,0,0,0,0,0,0,0,0,0,0,0,0,0,0,0,0,0,0,0,0,0,0,0,0,0,0,0,0,0,0,0,0,0,0,0,0,0,0,0,0,0,0,0,0,0,0],"trees":[{"base_weights":[3.667978E-8,-1.116883E0,1.3650794E0,-8.3333336E-2,2.5925929E-2,4.761906E-3,8.076923E-2],"categories":[],"categories_nodes":[],"categories_segments":[],"categories_sizes":[],"default_left":[0,0,0,0,0,0,0],"id":0,"left_children":[1,3,5,-1,-1,-1,-1],"loss_changes":[2.134488E1,7.7873964E0,1.8485956E0,0E0,0E0,0E0,0E0],"parents":[2147483647,0,0,1,1,2,2],"right_children":[2,4,6,-1,-1,-1,-1],"split_conditions":[-1.6750067E-1,1.609884E-3,-6.928784E-2,-8.3333336E-2,2.5925929E-2,4.761906E-3,8.076923E-2],"split_indices":[295,502,1,0,0,0,0],"split_type":[0,0,0,0,0,0,0],"sum_hessian":[1.2E1,6.7E0,5.3E0,5E0,1.7E0,1.1E0,4.2000003E0],"tree_param":{"num_deleted":"0","num_feature":"1536","num_nodes":"7","size_leaf_vector":"1"}},{"base_weights":[2.1618386E-3,-1.0697697E0,1.3118572E0,-7.99787E-2,2.5112445E-2,7.803549E-2,3.5536557E-3],"categories":[],"categories_nodes":[],"categories_segments":[],"categories_sizes":[],"default_left":[0,0,0,0,0,0,0],"id":1,"left_children":[1,3,5,-1,-1,-1,-1],"loss_changes":[1.9631947E1,7.2089615E0,1.8322248E0,0E0,0E0,0E0,0E0],"parents":[2147483647,0,0,1,1,2,2],"right_children":[2,4,6,-1,-1,-1,-1],"split_conditions":[-1.6750067E-1,1.609884E-3,-8.374189E-2,-7.99787E-2,2.5112445E-2,7.803549E-2,3.5536557E-3],"split_indices":[295,502,5,0,0,0,0],"split_type":[0,0,0,0,0,0,0],"sum_hessian":[1.1984196E1,6.691044E0,5.2931514E0,4.9913297E0,1.6997144E0,4.194132E0,1.0990196E0],"tree_param":{"num_deleted":"0","num_feature":"1536","num_nodes":"7","size_leaf_vector":"1"}},{"base_weights":[4.1058073E-3,-1.0269113E0,1.2629092E0,-7.696953E-2,2.4329484E-2,2.4033485E-3,7.553834E-2],"categories":[],"categories_nodes":[],"categories_segments":[],"categories_sizes":[],"default_left":[0,0,0,0,0,0,0],"id":2,"left_children":[1,3,5,-1,-1,-1,-1],"loss_changes":[1.8092344E1,6.6948633E0,1.8169231E0,0E0,0E0,0E0,0E0],"parents":[2147483647,0,0,1,1,2,2],"right_children":[2,4,6,-1,-1,-1,-1],"split_conditions":[-1.6750067E-1,1.609884E-3,-1.3469167E-1,-7.696953E-2,2.4329484E-2,2.4033485E-3,7.553834E-2],"split_indices":[295,502,44,0,0,0,0],"split_type":[0,0,0,0,0,0,0],"sum_hessian":[1.1941E1,6.665703E0,5.275297E0,4.9668093E0,1.6988934E0,1.0962243E0,4.1790724E0],"tree_param":{"num_deleted":"0","num_feature":"1536","num_nodes":"7","size_leaf_vector":"1"}},{"base_weights":[5.8549875E-3,-1.31019E0,9.3350714E-1,-1.9424014E-2,-7.1522765E-2,7.6869145E-2,-2.7872209E-2],"categories":[],"categories_nodes":[],"categories_segments":[],"categories_sizes":[],"default_left":[0,0,0,0,0,0,0],"id":3,"left_children":[1,3,5,-1,-1,-1,-1],"loss_changes":[1.6939863E1,8.043194E-2,8.181452E0,0E0,0E0,0E0,0E0],"parents":[2147483647,0,0,1,1,2,2],"right_children":[2,4,6,-1,-1,-1,-1],"split_conditions":[1.0328436E-1,-4.626446E-2,6.084441E-2,-1.9424014E-2,-7.1522765E-2,7.6869145E-2,-2.7872209E-2],"split_indices":[198,0,584,0,0,0,0],"split_type":[0,0,0,0,0,0,0],"sum_hessian":[1.1873837E1,4.73872E0,7.135117E0,1.0351967E0,3.7035234E0,5.0561123E0,2.0790048E0],"tree_param":{"num_deleted":"0","num_feature":"1536","num_nodes":"7","size_leaf_vector":"1"}},{"base_weights":[2.3464423E-3,-9.67804E-1,1.1862029E0,-7.242461E-2,2.2168892E-2,7.142077E-2,1.0827994E-3],"categories":[],"categories_nodes":[],"categories_segments":[],"categories_sizes":[],"default_left":[0,0,0,0,0,0,0],"id":4,"left_children":[1,3,5,-1,-1,-1,-1],"loss_changes":[1.5847239E1,5.7872868E0,1.7217302E0,0E0,0E0,0E0,0E0],"parents":[2147483647,0,0,1,1,2,2],"right_children":[2,4,6,-1,-1,-1,-1],"split_conditions":[-1.6750067E-1,1.609884E-3,-1.6083416E-1,-7.242461E-2,2.2168892E-2,7.142077E-2,1.0827994E-3],"split_indices":[295,502,71,0,0,0,0],"split_type":[0,0,0,0,0,0,0],"sum_hessian":[1.1798421E1,6.5847926E0,5.213628E0,4.8920007E0,1.6927922E0,4.1283865E0,1.0852416E0],"tree_param":{"num_deleted":"0","num_feature":"1536","num_nodes":"7","size_leaf_vector":"1"}},{"base_weights":[3.9575836E-3,-1.2331831E0,8.7386346E-1,-6.762362E-2,-1.7369105E-2,-2.7192866E-2,7.26286E-2],"categories":[],"categories_nodes":[],"categories_segments":[],"categories_sizes":[],"default_left":[0,0,0,0,0,0,0],"id":5,"left_children":[1,3,5,-1,-1,-1,-1],"loss_changes":[1.474042E1,1.2783813E-1,7.385835E0,0E0,0E0,0E0,0E0],"parents":[2147483647,0,0,1,1,2,2],"right_children":[2,4,6,-1,-1,-1,-1],"split_conditions":[1.0328436E-1,2.2479492E-1,-1.9167094E-1,-6.762362E-2,-1.7369105E-2,-2.7192866E-2,7.26286E-2],"split_indices":[198,17,563,0,0,0,0],"split_type":[0,0,0,0,0,0,0],"sum_hessian":[1.1695447E1,4.6561193E0,7.039327E0,3.6391995E0,1.0169199E0,2.057959E0,4.981368E0],"tree_param":{"num_deleted":"0","num_feature":"1536","num_nodes":"7","size_leaf_vector":"1"}},{"base_weights":[6.976757E-4,-9.1290754E-1,1.1158613E0,-6.856122E-2,2.0738497E-2,6.763869E-2,-1.1964267E-4],"categories":[],"categories_nodes":[],"categories_segments":[],"categories_sizes":[],"default_left":[0,0,0,0,0,0,0],"id":6,"left_children":[1,3,5,-1,-1,-1,-1],"loss_changes":[1.3843861E1,5.1139007E0,1.6242785E0,0E0,0E0,0E0,0E0],"parents":[2147483647,0,0,1,1,2,2],"right_children":[2,4,6,-1,-1,-1,-1],"split_conditions":[-1.6750067E-1,1.609884E-3,1.06044196E-1,-6.856122E-2,2.0738497E-2,6.763869E-2,-1.1964267E-4],"split_indices":[295,502,204,0,0,0,0],"split_type":[0,0,0,0,0,0,0],"sum_hessian":[1.1588279E1,6.4694815E0,5.118797E0,4.784919E0,1.6845627E0,4.0508647E0,1.0679321E0],"tree_param":{"num_deleted":"0","num_feature":"1536","num_nodes":"7","size_leaf_vector":"1"}},{"base_weights":[2.2039383E-3,-1.1666588E0,8.218321E-1,-6.399521E-2,-1.6330563E-2,6.9145724E-2,-2.6844248E-2],"categories":[],"categories_nodes":[],"categories_segments":[],"categories_sizes":[],"default_left":[0,0,0,0,0,0,0],"id":7,"left_children":[1,3,5,-1,-1,-1,-1],"loss_changes":[1.2893468E1,1.09767914E-1,6.772201E0,0E0,0E0,0E0,0E0],"parents":[2147483647,0,0,1,1,2,2],"right_children":[2,4,6,-1,-1,-1,-1],"split_conditions":[1.0328436E-1,2.2479492E-1,6.084441E-2,-6.399521E-2,-1.6330563E-2,6.9145724E-2,-2.6844248E-2],"split_indices":[198,17,584,0,0,0,0],"split_type":[0,0,0,0,0,0,0],"sum_hessian":[1.1457476E1,4.548092E0,6.9093833E0,3.5463984E0,1.0016937E0,4.8774366E0,2.0319467E0],"tree_param":{"num_deleted":"0","num_feature":"1536","num_nodes":"7","size_leaf_vector":"1"}},{"base_weights":[-9.0844155E-4,-8.6919373E-1,1.0585747E0,-6.692751E-2,1.646592E-2,-7.54365E-4,6.447401E-2],"categories":[],"categories_nodes":[],"categories_segments":[],"categories_sizes":[],"default_left":[0,0,0,0,0,0,0],"id":8,"left_children":[1,3,5,-1,-1,-1,-1],"loss_changes":[1.2259507E1,4.5605216E0,1.5076294E0,0E0,0E0,0E0,0E0],"parents":[2147483647,0,0,1,1,2,2],"right_children":[2,4,6,-1,-1,-1,-1],"split_conditions":[-1.6750067E-1,2.2169992E-1,4.7075108E-2,-6.692751E-2,1.646592E-2,-7.54365E-4,6.447401E-2],"split_indices":[295,275,621,0,0,0,0],"split_type":[0,0,0,0,0,0,0],"sum_hessian":[1.1326325E1,6.3235497E0,5.002775E0,4.4600716E0,1.8634781E0,1.0509129E0,3.9518623E0],"tree_param":{"num_deleted":"0","num_feature":"1536","num_nodes":"7","size_leaf_vector":"1"}},{"base_weights":[1.873434E-4,-5.5755984E-2,7.819285E-1,6.6034384E-2,-2.5561033E-2],"categories":[],"categories_nodes":[],"categories_segments":[],"categories_sizes":[],"default_left":[0,0,0,0,0],"id":9,"left_children":[1,-1,3,-1,-1],"loss_changes":[1.1500207E1,0E0,6.077724E0,0E0,0E0],"parents":[2147483647,0,0,2,2],"right_children":[2,-1,4,-1,-1],"split_conditions":[1.0328436E-1,-5.5755984E-2,1.9483572E-1,6.6034384E-2,-2.5561033E-2],"split_indices":[198,0,602,0,0],"split_type":[0,0,0,0,0],"sum_hessian":[1.1190033E1,4.435486E0,6.754547E0,4.753021E0,2.0015264E0],"tree_param":{"num_deleted":"0","num_feature":"1536","num_nodes":"5","size_leaf_vector":"1"}},{"base_weights":[-1.0086977E-3,-8.2405925E-1,1.0056207E0,-6.25444E-2,1.8571973E-2,6.1705E-2,-1.8123928E-3],"categories":[],"categories_nodes":[],"categories_segments":[],"categories_sizes":[],"default_left":[0,0,0,0,0,0,0],"id":10,"left_children":[1,3,5,-1,-1,-1,-1],"loss_changes":[1.080462E1,4.1253757E0,1.4412875E0,0E0,0E0,0E0,0E0],"parents":[2147483647,0,0,1,1,2,2],"right_children":[2,4,6,-1,-1,-1,-1],"split_conditions":[-1.6750067E-1,1.609884E-3,-4.102061E-2,-6.25444E-2,1.8571973E-2,6.1705E-2,-1.8123928E-3],"split_indices":[295,502,396,0,0,0,0],"split_type":[0,0,0,0,0,0,0],"sum_hessian":[1.1040852E1,6.174094E0,4.8667574E0,4.5155697E0,1.6585245E0,3.8401217E0,1.0266358E0],"tree_param":{"num_deleted":"0","num_feature":"1536","num_nodes":"7","size_leaf_vector":"1"}},{"base_weights":[3.1804453E-4,-5.2969016E-2,7.4066937E-1,6.3391834E-2,-2.5305012E-2],"categories":[],"categories_nodes":[],"categories_segments":[],"categories_sizes":[],"default_left":[0,0,0,0,0],"id":11,"left_children":[1,-1,3,-1,-1],"loss_changes":[1.0101931E1,0E0,5.623635E0,0E0,0E0],"parents":[2147483647,0,0,2,2],"right_children":[2,-1,4,-1,-1],"split_conditions":[1.0328436E-1,-5.2969016E-2,6.084441E-2,6.3391834E-2,-2.5305012E-2],"split_indices":[198,0,584,0,0],"split_type":[0,0,0,0,0],"sum_hessian":[1.0875968E1,4.295997E0,6.5799704E0,4.612701E0,1.9672697E0],"tree_param":{"num_deleted":"0","num_feature":"1536","num_nodes":"5","size_leaf_vector":"1"}},{"base_weights":[-8.7468926E-4,8.291289E-1,-9.1946566E-1,-2.4664637E-2,6.275027E-2,1.7142428E-2,-6.2134575E-2],"categories":[],"categories_nodes":[],"categories_segments":[],"categories_sizes":[],"default_left":[0,0,0,0,0,0,0],"id":12,"left_children":[1,3,5,-1,-1,-1,-1],"loss_changes":[9.693833E0,4.3810606E0,2.8882666E0,0E0,0E0,0E0,0E0],"parents":[2147483647,0,0,1,1,2,2],"right_children":[2,4,6,-1,-1,-1,-1],"split_conditions":[-1.254143E-1,-2.4895686E-1,-1.2944015E-2,-2.4664637E-2,6.275027E-2,1.7142428E-2,-6.2134575E-2],"split_indices":[274,252,41,0,0,0,0],"split_type":[0,0,0,0,0,0,0],"sum_hessian":[1.071443E1,5.6797843E0,5.034645E0,1.3450052E0,4.3347793E0,1.0139794E0,4.0206656E0],"tree_param":{"num_deleted":"0","num_feature":"1536","num_nodes":"7","size_leaf_vector":"1"}},{"base_weights":[-1.4274854E-3,-7.733946E-1,9.3995196E-1,-6.031474E-2,1.5254463E-2,5.8089774E-2,-2.2242705E-3],"categories":[],"categories_nodes":[],"categories_segments":[],"categories_sizes":[],"default_left":[0,0,0,0,0,0,0],"id":13,"left_children":[1,3,5,-1,-1,-1,-1],"loss_changes":[9.113229E0,3.584396E0,1.2857819E0,0E0,0E0,0E0,0E0],"parents":[2147483647,0,0,1,1,2,2],"right_children":[2,4,6,-1,-1,-1,-1],"split_conditions":[-1.6750067E-1,2.2169992E-1,-4.102061E-2,-6.031474E-2,1.5254463E-2,5.8089774E-2,-2.2242705E-3],"split_indices":[295,275,396,0,0,0,0],"split_type":[0,0,0,0,0,0,0],"sum_hessian":[1.0539995E1,5.889129E0,4.650866E0,4.117762E0,1.7713672E0,3.6485097E0,1.002356E0],"tree_param":{"num_deleted":"0","num_feature":"1536","num_nodes":"7","size_leaf_vector":"1"}},{"base_weights":[-4.612262E-4,-9.982661E-1,6.9705534E-1,-5.5292495E-2,-1.5813451E-2,5.5919945E-2,-3.1569835E-2],"categories":[],"categories_nodes":[],"categories_segments":[],"categories_sizes":[],"default_left":[0,0,0,0,0,0,0],"id":14,"left_children":[1,3,5,-1,-1,-1,-1],"loss_changes":[8.612564E0,2.3803234E-2,4.7830653E0,0E0,0E0,0E0,0E0],"parents":[2147483647,0,0,1,1,2,2],"right_children":[2,4,6,-1,-1,-1,-1],"split_conditions":[1.0328436E-1,2.5603678E-2,1.671601E-1,-5.5292495E-2,-1.5813451E-2,5.5919945E-2,-3.1569835E-2],"split_indices":[198,133,704,0,0,0,0],"split_type":[0,0,0,0,0,0,0],"sum_hessian":[1.0374833E1,4.0911818E0,6.2836514E0,2.9969332E0,1.0942484E0,4.8906183E0,1.393033E0],"tree_param":{"num_deleted":"0","num_feature":"1536","num_nodes":"7","size_leaf_vector":"1"}},{"base_weights":[-4.5512933E-3,7.801074E-1,-8.692217E-1,-2.3124741E-2,5.915734E-2,1.1202636E-2,-5.9154898E-2],"categories":[],"categories_nodes":[],"categories_segments":[],"categories_sizes":[],"default_left":[0,0,0,0,0,0,0],"id":15,"left_children":[1,3,5,-1,-1,-1,-1],"loss_changes":[8.284897E0,3.7548428E0,2.2577252E0,0E0,0E0,0E0,0E0],"parents":[2147483647,0,0,1,1,2,2],"right_children":[2,4,6,-1,-1,-1,-1],"split_conditions":[-1.254143E-1,-2.4895686E-1,1.7220376E-1,-2.3124741E-2,5.915734E-2,1.1202636E-2,-5.9154898E-2],"split_indices":[274,252,185,0,0,0,0],"split_type":[0,0,0,0,0,0,0],"sum_hessian":[1.0211696E1,5.404812E0,4.8068833E0,1.2875811E0,4.117231E0,1.1360475E0,3.6708357E0],"tree_param":{"num_deleted":"0","num_feature":"1536","num_nodes":"7","size_leaf_vector":"1"}},{"base_weights":[-5.44041E-3,-7.3371816E-1,8.855302E-1,-5.7167202E-2,1.39729995E-2,3.3142325E-4,5.4190826E-2],"categories":[],"categories_nodes":[],"categories_segments":[],"categories_sizes":[],"default_left":[0,0,0,0,0,0,0],"id":16,"left_children":[1,3,5,-1,-1,-1,-1],"loss_changes":[7.8104143E0,3.0665822E0,9.367733E-1,0E0,0E0,0E0,0E0],"parents":[2147483647,0,0,1,1,2,2],"right_children":[2,4,6,-1,-1,-1,-1],"split_conditions":[-1.6750067E-1,2.2169992E-1,-2.3894843E-2,-5.7167202E-2,1.39729995E-2,3.3142325E-4,5.4190826E-2],"split_indices":[295,275,556,0,0,0,0],"split_type":[0,0,0,0,0,0,0],"sum_hessian":[1.0035554E1,5.619049E0,4.416505E0,3.909837E0,1.7092122E0,1.0032113E0,3.4132934E0],"tree_param":{"num_deleted":"0","num_feature":"1536","num_nodes":"7","size_leaf_vector":"1"}},{"base_weights":[-4.246643E-3,7.4931294E-1,-8.321807E-1,-2.218136E-2,5.703798E-2,-5.6988757E-2,1.1360704E-2],"categories":[],"categories_nodes":[],"categories_segments":[],"categories_sizes":[],"default_left":[0,0,0,0,0,0,0],"id":17,"left_children":[1,3,5,-1,-1,-1,-1],"loss_changes":[7.400723E0,3.4073386E0,2.1000023E0,0E0,0E0,0E0,0E0],"parents":[2147483647,0,0,1,1,2,2],"right_children":[2,4,6,-1,-1,-1,-1],"split_conditions":[-1.254143E-1,-2.4895686E-1,3.2121295E-1,-2.218136E-2,5.703798E-2,-5.6988757E-2,1.1360704E-2],"split_indices":[274,252,6,0,0,0,0],"split_type":[0,0,0,0,0,0,0],"sum_hessian":[9.862615E0,5.2129297E0,4.649685E0,1.2549987E0,3.957931E0,3.54463E0,1.1050547E0],"tree_param":{"num_deleted":"0","num_feature":"1536","num_nodes":"7","size_leaf_vector":"1"}},{"base_weights":[-5.078816E-3,-9.315066E-1,6.4883673E-1,-1.374498E-2,-5.179446E-2,5.5863615E-2,-2.1794051E-2],"categories":[],"categories_nodes":[],"categories_segments":[],"categories_sizes":[],"default_left":[0,0,0,0,0,0,0],"id":18,"left_children":[1,3,5,-1,-1,-1,-1],"loss_changes":[7.0757236E0,4.6319485E-2,3.9684036E0,0E0,0E0,0E0,0E0],"parents":[2147483647,0,0,1,1,2,2],"right_children":[2,4,6,-1,-1,-1,-1],"split_conditions":[1.0328436E-1,2.82938E-1,6.084441E-2,-1.374498E-2,-5.179446E-2,5.5863615E-2,-2.1794051E-2],"split_indices":[198,435,584,0,0,0,0],"split_type":[0,0,0,0,0,0,0],"sum_hessian":[9.682188E0,3.8306499E0,5.8515377E0,1.0238448E0,2.8068051E0,4.065737E0,1.7858012E0],"tree_param":{"num_deleted":"0","num_feature":"1536","num_nodes":"7","size_leaf_vector":"1"}},{"base_weights":[-7.7952254E-3,-6.995582E-1,8.404222E-1,-5.4395676E-2,1.2749261E-2,3.011665E-3,5.202815E-2],"categories":[],"categories_nodes":[],"categories_segments":[],"categories_sizes":[],"default_left":[0,0,0,0,0,0,0],"id":19,"left_children":[1,3,5,-1,-1,-1,-1],"loss_changes":[6.7537675E0,2.6252875E0,7.453208E-1,0E0,0E0,0E0,0E0],"parents":[2147483647,0,0,1,1,2,2],"right_children":[2,4,6,-1,-1,-1,-1],"split_conditions":[-1.6750067E-1,2.2169992E-1,5.6217186E-2,-5.4395676E-2,1.2749261E-2,3.011665E-3,5.202815E-2],"split_indices":[295,275,621,0,0,0,0],"split_type":[0,0,0,0,0,0,0],"sum_hessian":[9.508192E0,5.333622E0,4.17457E0,3.6918674E0,1.6417546E0,1.1178648E0,3.056705E0],"tree_param":{"num_deleted":"0","num_feature":"1536","num_nodes":"7","size_leaf_vector":"1"}},{"base_weights":[-6.2882947E-3,7.1524876E-1,-7.959887E-1,-2.0789979E-2,5.440271E-2,1.0872004E-2,-5.4361023E-2],"categories":[],"categories_nodes":[],"categories_segments":[],"categories_sizes":[],"default_left":[0,0,0,0,0,0,0],"id":20,"left_children":[1,3,5,-1,-1,-1,-1],"loss_changes":[6.461666E0,2.9530628E0,1.8333106E0,0E0,0E0,0E0,0E0],"parents":[2147483647,0,0,1,1,2,2],"right_children":[2,4,6,-1,-1,-1,-1],"split_conditions":[-1.254143E-1,-2.4895686E-1,-3.8220923E-2,-2.0789979E-2,5.440271E-2,1.0872004E-2,-5.4361023E-2],"split_indices":[274,252,544,0,0,0,0],"split_type":[0,0,0,0,0,0,0],"sum_hessian":[9.341097E0,4.9304757E0,4.410621E0,1.193676E0,3.7367995E0,1.0411173E0,3.3695037E0],"tree_param":{"num_deleted":"0","num_feature":"1536","num_nodes":"7","size_leaf_vector":"1"}},{"base_weights":[-7.022427E-3,-4.4499755E-2,6.2040883E-1,5.3323578E-2,-2.0170273E-2],"categories":[],"categories_nodes":[],"categories_segments":[],"categories_sizes":[],"default_left":[0,0,0,0,0],"id":21,"left_children":[1,-1,3,-1,-1],"loss_changes":[6.1802993E0,0E0,3.4115255E0,0E0,0E0],"parents":[2147483647,0,0,2,2],"right_children":[2,-1,4,-1,-1],"split_conditions":[1.0328436E-1,-4.4499755E-2,6.084441E-2,5.3323578E-2,-2.0170273E-2],"split_indices":[198,0,584,0,0],"split_type":[0,0,0,0,0],"sum_hessian":[9.15901E0,3.6308732E0,5.5281367E0,3.821495E0,1.7066417E0],"tree_param":{"num_deleted":"0","num_feature":"1536","num_nodes":"5","size_leaf_vector":"1"}},{"base_weights":[-7.818546E-3,-6.6866904E-1,8.010734E-1,-5.1206924E-2,1.34064555E-2,4.989846E-2,1.913969E-3],"categories":[],"categories_nodes":[],"categories_segments":[],"categories_sizes":[],"default_left":[0,0,0,0,0,0,0],"id":22,"left_children":[1,3,5,-1,-1,-1,-1],"loss_changes":[5.872164E0,2.2857237E0,7.0429873E-1,0E0,0E0,0E0,0E0],"parents":[2147483647,0,0,1,1,2,2],"right_children":[2,4,6,-1,-1,-1,-1],"split_conditions":[-1.6750067E-1,1.609884E-3,2.007763E-1,-5.1206924E-2,1.34064555E-2,4.989846E-2,1.913969E-3],"split_indices":[295,502,185,0,0,0,0],"split_type":[0,0,0,0,0,0,0],"sum_hessian":[8.983059E0,5.0393505E0,3.943709E0,3.5855687E0,1.4537818E0,2.8895402E0,1.0541687E0],"tree_param":{"num_deleted":"0","num_feature":"1536","num_nodes":"7","size_leaf_vector":"1"}},{"base_weights":[-6.1995266E-3,6.8771553E-1,-7.6464534E-1,-1.9377416E-2,5.212567E-2,-5.1882017E-2,9.266696E-3],"categories":[],"categories_nodes":[],"categories_segments":[],"categories_sizes":[],"default_left":[0,0,0,0,0,0,0],"id":23,"left_children":[1,3,5,-1,-1,-1,-1],"loss_changes":[5.688722E0,2.5592449E0,1.530626E0,0E0,0E0,0E0,0E0],"parents":[2147483647,0,0,1,1,2,2],"right_children":[2,4,6,-1,-1,-1,-1],"split_conditions":[-1.254143E-1,-2.4895686E-1,1.4688624E-1,-1.9377416E-2,5.212567E-2,-5.1882017E-2,9.266696E-3],"split_indices":[274,252,328,0,0,0,0],"split_type":[0,0,0,0,0,0,0],"sum_hessian":[8.809792E0,4.649313E0,4.160479E0,1.1305918E0,3.518721E0,3.1600893E0,1.0003898E0],"tree_param":{"num_deleted":"0","num_feature":"1536","num_nodes":"7","size_leaf_vector":"1"}},{"base_weights":[-6.99247E-3,6.7132723E-1,-7.4663526E-1,-1.8928139E-2,5.116535E-2,-5.044928E-2,7.413993E-3],"categories":[],"categories_nodes":[],"categories_segments":[],"categories_sizes":[],"default_left":[0,0,0,0,0,0,0],"id":24,"left_children":[1,3,5,-1,-1,-1,-1],"loss_changes":[5.3330517E0,2.4383738E0,1.3424187E0,0E0,0E0,0E0,0E0],"parents":[2147483647,0,0,1,1,2,2],"right_children":[2,4,6,-1,-1,-1,-1],"split_conditions":[-1.254143E-1,-2.4895686E-1,-2.4925338E-1,-1.8928139E-2,5.116535E-2,-5.044928E-2,7.413993E-3],"split_indices":[274,252,24,0,0,0,0],"split_type":[0,0,0,0,0,0,0],"sum_hessian":[8.630611E0,4.55011E0,4.0805016E0,1.1234736E0,3.4266362E0,3.0568893E0,1.023612E0],"tree_param":{"num_deleted":"0","num_feature":"1536","num_nodes":"7","size_leaf_vector":"1"}},{"base_weights":[-7.877761E-3,-4.1740645E-2,5.8158416E-1,5.040588E-2,-1.8997295E-2],"categories":[],"categories_nodes":[],"categories_segments":[],"categories_sizes":[],"default_left":[0,0,0,0,0],"id":25,"left_children":[1,-1,3,-1,-1],"loss_changes":[5.0934267E0,0E0,2.8882482E0,0E0,0E0],"parents":[2147483647,0,0,2,2],"right_children":[2,-1,4,-1,-1],"split_conditions":[1.0328436E-1,-4.1740645E-2,6.084441E-2,5.040588E-2,-1.8997295E-2],"split_indices":[198,0,584,0,0],"split_type":[0,0,0,0,0],"sum_hessian":[8.453161E0,3.3447301E0,5.1084313E0,3.5051153E0,1.6033161E0],"tree_param":{"num_deleted":"0","num_feature":"1536","num_nodes":"5","size_leaf_vector":"1"}},{"base_weights":[-8.624905E-3,-6.3564384E-1,7.5376046E-1,-4.9186308E-2,1.0868665E-2,4.707971E-2,1.7173873E-3],"categories":[],"categories_nodes":[],"categories_segments":[],"categories_sizes":[],"default_left":[0,0,0,0,0,0,0],"id":26,"left_children":[1,3,5,-1,-1,-1,-1],"loss_changes":[4.9173336E0,1.8875661E0,5.956619E-1,0E0,0E0,0E0,0E0],"parents":[2147483647,0,0,1,1,2,2],"right_children":[2,4,6,-1,-1,-1,-1],"split_conditions":[-1.6750067E-1,2.2169992E-1,7.764089E-1,-4.9186308E-2,1.0868665E-2,4.707971E-2,1.7173873E-3],"split_indices":[295,275,1397,0,0,0,0],"split_type":[0,0,0,0,0,0,0],"sum_hessian":[8.284374E0,4.636971E0,3.6474037E0,3.184338E0,1.4526329E0,2.6473591E0,1.0000445E0],"tree_param":{"num_deleted":"0","num_feature":"1536","num_nodes":"7","size_leaf_vector":"1"}},{"base_weights":[-7.243702E-3,6.443255E-1,-7.1557075E-1,-1.7902298E-2,4.917889E-2,-4.8810683E-2,5.810989E-3],"categories":[],"categories_nodes":[],"categories_segments":[],"categories_sizes":[],"default_left":[0,0,0,0,0,0,0],"id":27,"left_children":[1,3,5,-1,-1,-1,-1],"loss_changes":[4.6733875E0,2.14772E0,1.1642509E0,0E0,0E0,0E0,0E0],"parents":[2147483647,0,0,1,1,2,2],"right_children":[2,4,6,-1,-1,-1,-1],"split_conditions":[-1.254143E-1,-2.4895686E-1,4.3929663E0,-1.7902298E-2,4.917889E-2,-4.8810683E-2,5.810989E-3],"split_indices":[274,252,1365,0,0,0,0],"split_type":[0,0,0,0,0,0,0],"sum_hessian":[8.126993E0,4.2801576E0,3.8468351E0,1.0683024E0,3.2118554E0,2.7968183E0,1.0500166E0],"tree_param":{"num_deleted":"0","num_feature":"1536","num_nodes":"7","size_leaf_vector":"1"}},{"base_weights":[-8.27575E-3,-4.0001776E-2,5.609109E-1,4.5407426E-2,-2.438517E-2],"categories":[],"categories_nodes":[],"categories_segments":[],"categories_sizes":[],"default_left":[0,0,0,0,0],"id":28,"left_children":[1,-1,3,-1,-1],"loss_changes":[4.487153E0,0E0,2.5552197E0,0E0,0E0],"parents":[2147483647,0,0,2,2],"right_children":[2,-1,4,-1,-1],"split_conditions":[1.0328436E-1,-4.0001776E-2,1.671601E-1,4.5407426E-2,-2.438517E-2],"split_indices":[198,0,704,0,0],"split_type":[0,0,0,0,0],"sum_hessian":[7.9611096E0,3.1599395E0,4.8011703E0,3.7074428E0,1.0937274E0],"tree_param":{"num_deleted":"0","num_feature":"1536","num_nodes":"5","size_leaf_vector":"1"}},{"base_weights":[-1.00886E-2,-6.1292714E-1,7.221491E-1,-4.6700012E-2,1.1036298E-2,4.474519E-2,3.226991E-3],"categories":[],"categories_nodes":[],"categories_segments":[],"categories_sizes":[],"default_left":[0,0,0,0,0,0,0],"id":29,"left_children":[1,3,5,-1,-1,-1,-1],"loss_changes":[4.328058E0,1.6431143E0,4.4592094E-1,0E0,0E0,0E0,0E0],"parents":[2147483647,0,0,1,1,2,2],"right_children":[2,4,6,-1,-1,-1,-1],"split_conditions":[-1.6750067E-1,1.609884E-3,4.6772756E-2,-4.6700012E-2,1.1036298E-2,4.474519E-2,3.226991E-3],"split_indices":[295,502,247,0,0,0,0],"split_type":[0,0,0,0,0,0,0],"sum_hessian":[7.802101E0,4.368517E0,3.4335845E0,3.066944E0,1.3015728E0,2.433466E0,1.0001184E0],"tree_param":{"num_deleted":"0","num_feature":"1536","num_nodes":"7","size_leaf_vector":"1"}},{"base_weights":[-8.403016E-3,6.216477E-1,-6.889146E-1,-1.6729431E-2,4.7327597E-2,5.3601963E-3,-4.695743E-2],"categories":[],"categories_nodes":[],"categories_segments":[],"categories_sizes":[],"default_left":[0,0,0,0,0,0,0],"id":30,"left_children":[1,3,5,-1,-1,-1,-1],"loss_changes":[4.1353073E0,1.8748323E0,1.0232296E0,0E0,0E0,0E0,0E0],"parents":[2147483647,0,0,1,1,2,2],"right_children":[2,4,6,-1,-1,-1,-1],"split_conditions":[-1.254143E-1,-2.4895686E-1,8.8811314E-1,-1.6729431E-2,4.7327597E-2,5.3601963E-3,-4.695743E-2],"split_indices":[274,252,1352,0,0,0,0],"split_type":[0,0,0,0,0,0,0],"sum_hessian":[7.646032E0,4.0151296E0,3.6309023E0,1.0106996E0,3.0044298E0,1.0050198E0,2.6258826E0],"tree_param":{"num_deleted":"0","num_feature":"1536","num_nodes":"7","size_leaf_vector":"1"}},{"base_weights":[-9.388228E-3,-5.957228E-1,7.005697E-1,-4.614746E-2,9.971117E-3,3.718153E-3,4.380561E-2],"categories":[],"categories_nodes":[],"categories_segments":[],"categories_sizes":[],"default_left":[0,0,0,0,0,0,0],"id":31,"left_children":[1,3,5,-1,-1,-1,-1],"loss_changes":[3.9504976E0,1.5341825E0,4.0738106E-1,0E0,0E0,0E0,0E0],"parents":[2147483647,0,0,1,1,2,2],"right_children":[2,4,6,-1,-1,-1,-1],"split_conditions":[-1.6750067E-1,2.2169992E-1,5.6722883E-2,-4.614746E-2,9.971117E-3,3.718153E-3,4.380561E-2],"split_indices":[295,275,621,0,0,0,0],"split_type":[0,0,0,0,0,0,0],"sum_hessian":[7.4875875E0,4.188952E0,3.2986355E0,2.8537974E0,1.3351545E0,1.0339346E0,2.2647007E0],"tree_param":{"num_deleted":"0","num_feature":"1536","num_nodes":"7","size_leaf_vector":"1"}},{"base_weights":[-7.778054E-3,-3.788286E-2,5.324654E-1,4.6353947E-2,-1.7179063E-2],"categories":[],"categories_nodes":[],"categories_segments":[],"categories_sizes":[],"default_left":[0,0,0,0,0],"id":32,"left_children":[1,-1,3,-1,-1],"loss_changes":[3.7846375E0,0E0,2.198617E0,0E0,0E0],"parents":[2147483647,0,0,2,2],"right_children":[2,-1,4,-1,-1],"split_conditions":[1.0328436E-1,-3.788286E-2,6.084441E-2,4.6353947E-2,-1.7179063E-2],"split_indices":[198,0,584,0,0],"split_type":[0,0,0,0,0],"sum_hessian":[7.3462515E0,2.907747E0,4.438504E0,3.0199296E0,1.4185746E0],"tree_param":{"num_deleted":"0","num_feature":"1536","num_nodes":"5","size_leaf_vector":"1"}},{"base_weights":[-8.481383E-3,6.0023105E-1,-6.650503E-1,4.531087E-2,-8.666501E-3,-4.485007E-2,1.9243102E-3],"categories":[],"categories_nodes":[],"categories_segments":[],"categories_sizes":[],"default_left":[0,0,0,0,0,0,0],"id":33,"left_children":[1,3,5,-1,-1,-1,-1],"loss_changes":[3.6746495E0,1.2881182E0,7.5534606E-1,0E0,0E0,0E0,0E0],"parents":[2147483647,0,0,1,1,2,2],"right_children":[2,4,6,-1,-1,-1,-1],"split_conditions":[-1.254143E-1,1.0088851E0,3.121006E-1,4.531087E-2,-8.666501E-3,-4.485007E-2,1.9243102E-3],"split_indices":[274,827,6,0,0,0,0],"split_type":[0,0,0,0,0,0,0],"sum_hessian":[7.1955953E0,3.7784023E0,3.4171927E0,2.5845728E0,1.1938297E0,2.3631048E0,1.0540879E0],"tree_param":{"num_deleted":"0","num_feature":"1536","num_nodes":"7","size_leaf_vector":"1"}},{"base_weights":[-8.942385E-3,-5.77728E-1,6.75644E-1,-4.400853E-2,9.878581E-3,4.1952386E-2,4.470854E-3],"categories":[],"categories_nodes":[],"categories_segments":[],"categories_sizes":[],"default_left":[0,0,0,0,0,0,0],"id":34,"left_children":[1,3,5,-1,-1,-1,-1],"loss_changes":[3.5301821E0,1.3330402E0,3.196609E-1,0E0,0E0,0E0,0E0],"parents":[2147483647,0,0,1,1,2,2],"right_children":[2,4,6,-1,-1,-1,-1],"split_conditions":[-1.6750067E-1,1.609884E-3,9.813553E-1,-4.400853E-2,9.878581E-3,4.1952386E-2,4.470854E-3],"split_indices":[295,502,1314,0,0,0,0],"split_type":[0,0,0,0,0,0,0],"sum_hessian":[7.0636425E0,3.9433877E0,3.1202545E0,2.739464E0,1.2039238E0,2.102844E0,1.0174105E0],"tree_param":{"num_deleted":"0","num_feature":"1536","num_nodes":"7","size_leaf_vector":"1"}},{"base_weights":[-7.1676592E-3,-3.91752E-2,4.8307562E-1,4.3066774E-2,-2.280238E-2],"categories":[],"categories_nodes":[],"categories_segments":[],"categories_sizes":[],"default_left":[0,0,0,0,0],"id":35,"left_children":[1,-1,3,-1,-1],"loss_changes":[3.394782E0,0E0,2.3381631E0,0E0,0E0],"parents":[2147483647,0,0,2,2],"right_children":[2,-1,4,-1,-1],"split_conditions":[-5.869509E-2,-3.91752E-2,2.0635767E-1,4.3066774E-2,-2.280238E-2],"split_indices":[416,0,602,0,0],"split_type":[0,0,0,0,0],"sum_hessian":[6.9252253E0,2.4489455E0,4.4762797E0,3.250054E0,1.2262257E0],"tree_param":{"num_deleted":"0","num_feature":"1536","num_nodes":"5","size_leaf_vector":"1"}},{"base_weights":[-9.29091E-3,5.758325E-1,-6.4032376E-1,4.358915E-2,-8.329248E-3,-4.317285E-2,1.8697887E-3],"categories":[],"categories_nodes":[],"categories_segments":[],"categories_sizes":[],"default_left":[0,0,0,0,0,0,0],"id":36,"left_children":[1,3,5,-1,-1,-1,-1],"loss_changes":[3.241718E0,1.1479969E0,6.700109E-1,0E0,0E0,0E0,0E0],"parents":[2147483647,0,0,1,1,2,2],"right_children":[2,4,6,-1,-1,-1,-1],"split_conditions":[-1.254143E-1,1.0088851E0,3.121006E-1,4.358915E-2,-8.329248E-3,-4.317285E-2,1.8697887E-3],"split_indices":[274,827,6,0,0,0,0],"split_type":[0,0,0,0,0,0,0],"sum_hessian":[6.7810106E0,3.563885E0,3.2171257E0,2.4235387E0,1.1403463E0,2.2140925E0,1.0030332E0],"tree_param":{"num_deleted":"0","num_feature":"1536","num_nodes":"7","size_leaf_vector":"1"}},{"base_weights":[-9.734639E-3,-3.571127E-2,5.0387615E-1,4.385083E-2,-1.6059447E-2],"categories":[],"categories_nodes":[],"categories_segments":[],"categories_sizes":[],"default_left":[0,0,0,0,0],"id":37,"left_children":[1,-1,3,-1,-1],"loss_changes":[3.130078E0,0E0,1.8253838E0,0E0,0E0],"parents":[2147483647,0,0,2,2],"right_children":[2,-1,4,-1,-1],"split_conditions":[1.0328436E-1,-3.571127E-2,6.084441E-2,4.385083E-2,-1.6059447E-2],"split_indices":[198,0,584,0,0],"split_type":[0,0,0,0,0],"sum_hessian":[6.655988E0,2.6417937E0,4.0141945E0,2.720752E0,1.2934424E0],"tree_param":{"num_deleted":"0","num_feature":"1536","num_nodes":"5","size_leaf_vector":"1"}},{"base_weights":[-1.0368707E-2,-5.554301E-1,6.4352727E-1,-4.268263E-2,8.77065E-3,3.931054E-2,5.819805E-3],"categories":[],"categories_nodes":[],"categories_segments":[],"categories_sizes":[],"default_left":[0,0,0,0,0,0,0],"id":38,"left_children":[1,3,5,-1,-1,-1,-1],"loss_changes":[3.0372264E0,1.1604767E0,2.0041883E-1,0E0,0E0,0E0,0E0],"parents":[2147483647,0,0,1,1,2,2],"right_children":[2,4,6,-1,-1,-1,-1],"split_conditions":[-1.6750067E-1,2.2169992E-1,-1.4492491E-1,-4.268263E-2,8.77065E-3,3.931054E-2,5.819805E-3],"split_indices":[295,275,223,0,0,0,0],"split_type":[0,0,0,0,0,0,0],"sum_hessian":[6.5187726E0,3.637381E0,2.8813913E0,2.46393E0,1.1734512E0,1.8808064E0,1.000585E0],"tree_param":{"num_deleted":"0","num_feature":"1536","num_nodes":"7","size_leaf_vector":"1"}},{"base_weights":[-8.567676E-3,-3.7261136E-2,4.5912045E-1,4.1099083E-2,-2.1444323E-2],"categories":[],"categories_nodes":[],"categories_segments":[],"categories_sizes":[],"default_left":[0,0,0,0,0],"id":39,"left_children":[1,-1,3,-1,-1],"loss_changes":[2.8904207E0,0E0,2.0097165E0,0E0,0E0],"parents":[2147483647,0,0,2,2],"right_children":[2,-1,4,-1,-1],"split_conditions":[-5.869509E-2,-3.7261136E-2,2.0635767E-1,4.1099083E-2,-2.1444323E-2],"split_indices":[416,0,602,0,0],"split_type":[0,0,0,0,0],"sum_hessian":[6.3964877E0,2.253533E0,4.142955E0,2.993919E0,1.1490359E0],"tree_param":{"num_deleted":"0","num_feature":"1536","num_nodes":"5","size_leaf_vector":"1"}},{"base_weights":[-1.0640745E-2,-3.4381546E-2,4.8688403E-1,4.2400867E-2,-1.5226753E-2],"categories":[],"categories_nodes":[],"categories_segments":[],"categories_sizes":[],"default_left":[0,0,0,0,0],"id":40,"left_children":[1,-1,3,-1,-1],"loss_changes":[2.7812831E0,0E0,1.6221651E0,0E0,0E0],"parents":[2147483647,0,0,2,2],"right_children":[2,-1,4,-1,-1],"split_conditions":[1.0328436E-1,-3.4381546E-2,6.084441E-2,4.2400867E-2,-1.5226753E-2],"split_indices":[198,0,584,0,0],"split_type":[0,0,0,0,0],"sum_hessian":[6.2634964E0,2.491359E0,3.7721372E0,2.5410933E0,1.2310439E0],"tree_param":{"num_deleted":"0","num_feature":"1536","num_nodes":"5","size_leaf_vector":"1"}},{"base_weights":[-1.1202381E-2,5.440036E-1,-6.0790825E-1,4.1264083E-2,-8.130885E-3,-1.23583E-3,-4.012203E-2],"categories":[],"categories_nodes":[],"categories_segments":[],"categories_sizes":[],"default_left":[0,0,0,0,0,0,0],"id":41,"left_children":[1,3,5,-1,-1,-1,-1],"loss_changes":[2.694622E0,9.7374904E-1,4.2391598E-1,0E0,0E0,0E0,0E0],"parents":[2147483647,0,0,1,1,2,2],"right_children":[2,4,6,-1,-1,-1,-1],"split_conditions":[-1.254143E-1,1.0088851E0,4.1397458E-1,4.1264083E-2,-8.130885E-3,-1.23583E-3,-4.012203E-2],"split_indices":[274,827,505,0,0,0,0],"split_type":[0,0,0,0,0,0,0],"sum_hessian":[6.1353936E0,3.2239687E0,2.911425E0,2.1859155E0,1.0380532E0,1.0101465E0,1.9012785E0],"tree_param":{"num_deleted":"0","num_feature":"1536","num_nodes":"7","size_leaf_vector":"1"}},{"base_weights":[-1.1943114E-2,-5.354008E-1,6.1470926E-1,-4.0866498E-2,7.957902E-3,6.8800966E-3,3.7173904E-2],"categories":[],"categories_nodes":[],"categories_segments":[],"categories_sizes":[],"default_left":[0,0,0,0,0,0,0],"id":42,"left_children":[1,3,5,-1,-1,-1,-1],"loss_changes":[2.6336677E0,9.8431814E-1,1.22743726E-1,0E0,0E0,0E0,0E0],"parents":[2147483647,0,0,1,1,2,2],"right_children":[2,4,6,-1,-1,-1,-1],"split_conditions":[-1.6750067E-1,2.2169992E-1,8.7490104E-2,-4.0866498E-2,7.957902E-3,6.8800966E-3,3.7173904E-2],"split_indices":[295,275,131,0,0,0,0],"split_type":[0,0,0,0,0,0,0],"sum_hessian":[6.0255146E0,3.3624213E0,2.6630936E0,2.2659044E0,1.0965167E0,1.0056415E0,1.6574521E0],"tree_param":{"num_deleted":"0","num_feature":"1536","num_nodes":"7","size_leaf_vector":"1"}},{"base_weights":[-9.991505E-3,-3.324402E-2,4.7594523E-1,4.1113194E-2,-1.4281285E-2],"categories":[],"categories_nodes":[],"categories_segments":[],"categories_sizes":[],"default_left":[0,0,0,0,0],"id":43,"left_children":[1,-1,3,-1,-1],"loss_changes":[2.517261E0,0E0,1.4356302E0,0E0,0E0],"parents":[2147483647,0,0,2,2],"right_children":[2,-1,4,-1,-1],"split_conditions":[1.0328436E-1,-3.324402E-2,6.084441E-2,4.1113194E-2,-1.4281285E-2],"split_indices":[198,0,584,0,0],"split_type":[0,0,0,0,0],"sum_hessian":[5.9156985E0,2.362948E0,3.5527506E0,2.387403E0,1.1653477E0],"tree_param":{"num_deleted":"0","num_feature":"1536","num_nodes":"5","size_leaf_vector":"1"}},{"base_weights":[-1.0508323E-2,-5.228733E-1,5.994179E-1,-4.014286E-2,7.31174E-3,3.6122713E-2,7.086487E-3],"categories":[],"categories_nodes":[],"categories_segments":[],"categories_sizes":[],"default_left":[0,0,0,0,0,0,0],"id":44,"left_children":[1,3,5,-1,-1,-1,-1],"loss_changes":[2.4371233E0,9.093559E-1,9.8551035E-2,0E0,0E0,0E0,0E0],"parents":[2147483647,0,0,1,1,2,2],"right_children":[2,4,6,-1,-1,-1,-1],"split_conditions":[-1.6750067E-1,9.5933837E-1,-1.1369983E-1,-4.014286E-2,7.31174E-3,3.6122713E-2,7.086487E-3],"split_indices":[295,1187,732,0,0,0,0],"split_type":[0,0,0,0,0,0,0],"sum_hessian":[5.795746E0,3.2273536E0,2.5683923E0,2.134355E0,1.0929985E0,1.5683112E0,1.0000811E0],"tree_param":{"num_deleted":"0","num_feature":"1536","num_nodes":"7","size_leaf_vector":"1"}},{"base_weights":[-8.656169E-3,5.243317E-1,-5.810807E-1,-4.7992417E-3,3.8858693E-2,-2.8272187E-3,-3.773428E-2],"categories":[],"categories_nodes":[],"categories_segments":[],"categories_sizes":[],"default_left":[0,0,0,0,0,0,0],"id":45,"left_children":[1,3,5,-1,-1,-1,-1],"loss_changes":[2.3469696E0,7.0071816E-1,2.9442918E-1,0E0,0E0,0E0,0E0],"parents":[2147483647,0,0,1,1,2,2],"right_children":[2,4,6,-1,-1,-1,-1],"split_conditions":[-1.254143E-1,3.7988734E-2,9.777098E-2,-4.7992417E-3,3.8858693E-2,-2.8272187E-3,-3.773428E-2],"split_indices":[274,309,482,0,0,0,0],"split_type":[0,0,0,0,0,0,0],"sum_hessian":[5.6939425E0,2.9920466E0,2.7018962E0,1.046056E0,1.9459906E0,1.0015334E0,1.7003628E0],"tree_param":{"num_deleted":"0","num_feature":"1536","num_nodes":"7","size_leaf_vector":"1"}},{"base_weights":[-9.297505E-3,-3.212662E-2,4.6405566E-1,3.9940476E-2,-1.3556512E-2],"categories":[],"categories_nodes":[],"categories_segments":[],"categories_sizes":[],"default_left":[0,0,0,0,0],"id":46,"left_children":[1,-1,3,-1,-1],"loss_changes":[2.2755861E0,0E0,1.2885532E0,0E0,0E0],"parents":[2147483647,0,0,2,2],"right_children":[2,-1,4,-1,-1],"split_conditions":[1.0328436E-1,-3.212662E-2,6.084441E-2,3.9940476E-2,-1.3556512E-2],"split_indices":[198,0,584,0,0],"split_type":[0,0,0,0,0],"sum_hessian":[5.5970187E0,2.2412922E0,3.3557267E0,2.24635E0,1.1093767E0],"tree_param":{"num_deleted":"0","num_feature":"1536","num_nodes":"5","size_leaf_vector":"1"}},{"base_weights":[-9.779486E-3,-5.062469E-1,5.800956E-1,-3.87519E-2,7.49724E-3,3.459428E-2,7.907364E-3],"categories":[],"categories_nodes":[],"categories_segments":[],"categories_sizes":[],"default_left":[0,0,0,0,0,0,0],"id":47,"left_children":[1,3,5,-1,-1,-1,-1],"loss_changes":[2.1927915E0,8.314669E-1,5.235529E-2,0E0,0E0,0E0,0E0],"parents":[2147483647,0,0,1,1,2,2],"right_children":[2,4,6,-1,-1,-1,-1],"split_conditions":[-1.6750067E-1,2.2169992E-1,1.0816458E0,-3.87519E-2,7.49724E-3,3.459428E-2,7.907364E-3],"split_indices":[295,275,1262,0,0,0,0],"split_type":[0,0,0,0,0,0,0],"sum_hessian":[5.484874E0,3.055223E0,2.429651E0,2.03892E0,1.0163031E0,1.4150193E0,1.0146317E0],"tree_param":{"num_deleted":"0","num_feature":"1536","num_nodes":"7","size_leaf_vector":"1"}},{"base_weights":[-7.7498625E-3,-3.392051E-2,4.23338E-1,4.024039E-2,-1.5784932E-2],"categories":[],"categories_nodes":[],"categories_segments":[],"categories_sizes":[],"default_left":[0,0,0,0,0],"id":48,"left_children":[1,-1,3,-1,-1],"loss_changes":[2.134427E0,0E0,1.5241469E0,0E0,0E0],"parents":[2147483647,0,0,2,2],"right_children":[2,-1,4,-1,-1],"split_conditions":[-5.869509E-2,-3.392051E-2,1.9483572E-1,4.024039E-2,-1.5784932E-2],"split_indices":[416,0,602,0,0],"split_type":[0,0,0,0,0],"sum_hessian":[5.3892903E0,1.8842192E0,3.505071E0,2.2530925E0,1.2519783E0],"tree_param":{"num_deleted":"0","num_feature":"1536","num_nodes":"5","size_leaf_vector":"1"}},{"base_weights":[-8.908729E-3,5.037898E-1,-5.5943877E-1,-3.172113E-3,3.683823E-2,-4.5488914E-3,-3.554007E-2],"categories":[],"categories_nodes":[],"categories_segments":[],"categories_sizes":[],"default_left":[0,0,0,0,0,0,0],"id":49,"left_children":[1,3,5,-1,-1,-1,-1],"loss_changes":[2.0536451E0,5.458094E-1,1.8356574E-1,0E0,0E0,0E0,0E0],"parents":[2147483647,0,0,1,1,2,2],"right_children":[2,4,6,-1,-1,-1,-1],"split_conditions":[-1.254143E-1,-2.4154349E-1,4.011477E-2,-3.172113E-3,3.683823E-2,-4.5488914E-3,-3.554007E-2],"split_indices":[274,252,584,0,0,0,0],"split_type":[0,0,0,0,0,0,0],"sum_hessian":[5.2773013E0,2.7764993E0,2.500802E0,1.0202198E0,1.7562795E0,1.0016856E0,1.4991164E0],"tree_param":{"num_deleted":"0","num_feature":"1536","num_nodes":"7","size_leaf_vector":"1"}},{"base_weights":[-9.581984E-3,-3.0860571E-2,4.5022815E-1,3.8463492E-2,-1.2721509E-2],"categories":[],"categories_nodes":[],"categories_segments":[],"categories_sizes":[],"default_left":[0,0,0,0,0],"id":50,"left_children":[1,-1,3,-1,-1],"loss_changes":[2.0080025E0,0E0,1.1181816E0,0E0,0E0],"parents":[2147483647,0,0,2,2],"right_children":[2,-1,4,-1,-1],"split_conditions":[1.0328436E-1,-3.0860571E-2,6.084441E-2,3.8463492E-2,-1.2721509E-2],"split_indices":[198,0,584,0,0],"split_type":[0,0,0,0,0],"sum_hessian":[5.1923876E0,2.0892153E0,3.103172E0,2.072936E0,1.030236E0],"tree_param":{"num_deleted":"0","num_feature":"1536","num_nodes":"5","size_leaf_vector":"1"}},{"base_weights":[-1.00102965E-2,-4.8656338E-1,2.7783528E-2,-3.667181E-2,4.5073903E-3],"categories":[],"categories_nodes":[],"categories_segments":[],"categories_sizes":[],"default_left":[0,0,0,0,0],"id":51,"left_children":[1,3,-1,-1,-1],"loss_changes":[1.9120874E0,6.126268E-1,0E0,0E0,0E0],"parents":[2147483647,0,0,1,1],"right_children":[2,4,-1,-1,-1],"split_conditions":[-1.6750067E-1,7.164133E-2,2.7783528E-2,-3.667181E-2,4.5073903E-3],"split_indices":[295,212,0,0,0],"split_type":[0,0,0,0,0],"sum_hessian":[5.0899806E0,2.8385394E0,2.2514412E0,1.7973789E0,1.0411603E0],"tree_param":{"num_deleted":"0","num_feature":"1536","num_nodes":"5","size_leaf_vector":"1"}},{"base_weights":[-1.0443742E-2,-3.0119894E-2,4.4143644E-1,-1.21861445E-2,3.765537E-2],"categories":[],"categories_nodes":[],"categories_segments":[],"categories_sizes":[],"default_left":[0,0,0,0,0],"id":52,"left_children":[1,-1,3,-1,-1],"loss_changes":[1.8723925E0,0E0,1.0340741E0,0E0,0E0],"parents":[2147483647,0,0,2,2],"right_children":[2,-1,4,-1,-1],"split_conditions":[1.0328436E-1,-3.0119894E-2,-1.9167094E-1,-1.21861445E-2,3.765537E-2],"split_indices":[198,0,563,0,0],"split_type":[0,0,0,0,0],"sum_hessian":[5.0056763E0,2.0227811E0,2.9828951E0,1.0008022E0,1.9820931E0],"tree_param":{"num_deleted":"0","num_feature":"1536","num_nodes":"5","size_leaf_vector":"1"}},{"base_weights":[-1.0788641E-2,4.8533985E-1,-5.418448E-1,-2.1517468E-3,3.5359982E-2,-3.346057E-2,-6.18446E-3],"categories":[],"categories_nodes":[],"categories_segments":[],"categories_sizes":[],"default_left":[0,0,0,0,0,0,0],"id":53,"left_children":[1,3,5,-1,-1,-1,-1],"loss_changes":[1.8197132E0,4.5036125E-1,9.438175E-2,0E0,0E0,0E0,0E0],"parents":[2147483647,0,0,1,1,2,2],"right_children":[2,4,6,-1,-1,-1,-1],"split_conditions":[-1.254143E-1,2.1434523E-2,-3.4917377E-2,-2.1517468E-3,3.5359982E-2,-3.346057E-2,-6.18446E-3],"split_indices":[274,254,504,0,0,0,0],"split_type":[0,0,0,0,0,0,0],"sum_hessian":[4.908536E0,2.5822277E0,2.3263083E0,1.0019764E0,1.5802513E0,1.3229586E0,1.0033498E0],"tree_param":{"num_deleted":"0","num_feature":"1536","num_nodes":"7","size_leaf_vector":"1"}},{"base_weights":[-1.1447126E-2,-3.1933676E-2,3.963198E-1,3.8085174E-2,-1.4831704E-2],"categories":[],"categories_nodes":[],"categories_segments":[],"categories_sizes":[],"default_left":[0,0,0,0,0],"id":54,"left_children":[1,-1,3,-1,-1],"loss_changes":[1.7455354E0,0E0,1.2775402E0,0E0,0E0],"parents":[2147483647,0,0,2,2],"right_children":[2,-1,4,-1,-1],"split_conditions":[-5.869509E-2,-3.1933676E-2,1.9483572E-1,3.8085174E-2,-1.4831704E-2],"split_indices":[416,0,602,0,0],"split_type":[0,0,0,0,0],"sum_hessian":[4.835172E0,1.6818627E0,3.1533093E0,1.9996915E0,1.153618E0],"tree_param":{"num_deleted":"0","num_feature":"1536","num_nodes":"5","size_leaf_vector":"1"}},{"base_weights":[-1.2489922E-2,4.7115266E-1,-5.2894837E-1,-1.0178353E-3,3.4238383E-2,-6.6821636E-3,-3.22742E-2],"categories":[],"categories_nodes":[],"categories_segments":[],"categories_sizes":[],"default_left":[0,0,0,0,0,0,0],"id":55,"left_children":[1,3,5,-1,-1,-1,-1],"loss_changes":[1.6822273E0,3.805309E-1,6.3246965E-2,0E0,0E0,0E0,0E0],"parents":[2147483647,0,0,1,1,2,2],"right_children":[2,4,6,-1,-1,-1,-1],"split_conditions":[-1.254143E-1,2.3063332E-1,1.0561799E-1,-1.0178353E-3,3.4238383E-2,-6.6821636E-3,-3.22742E-2],"split_indices":[274,117,482,0,0,0,0],"split_type":[0,0,0,0,0,0,0],"sum_hessian":[4.7370663E0,2.491552E0,2.2455144E0,1.0288839E0,1.4626681E0,1.0000404E0,1.2454739E0],"tree_param":{"num_deleted":"0","num_feature":"1536","num_nodes":"7","size_leaf_vector":"1"}},{"base_weights":[-1.29894875E-2,-2.8974924E-2,4.2470407E-1,3.5771597E-2,-9.039157E-3],"categories":[],"categories_nodes":[],"categories_segments":[],"categories_sizes":[],"default_left":[0,0,0,0,0],"id":56,"left_children":[1,-1,3,-1,-1],"loss_changes":[1.652037E0,0E0,7.9398996E-1,0E0,0E0],"parents":[2147483647,0,0,2,2],"right_children":[2,-1,4,-1,-1],"split_conditions":[1.0328436E-1,-2.8974924E-2,6.0841005E-2,3.5771597E-2,-9.039157E-3],"split_indices":[198,0,584,0,0],"split_type":[0,0,0,0,0],"sum_hessian":[4.6700144E0,1.8942695E0,2.7757447E0,1.7526298E0,1.0231149E0],"tree_param":{"num_deleted":"0","num_feature":"1536","num_nodes":"5","size_leaf_vector":"1"}},{"base_weights":[-1.28614735E-2,-4.683159E-1,2.6304359E-2,-3.435495E-2,1.7638094E-3],"categories":[],"categories_nodes":[],"categories_segments":[],"categories_sizes":[],"default_left":[0,0,0,0,0],"id":57,"left_children":[1,3,-1,-1,-1],"loss_changes":[1.6174814E0,4.1607404E-1,0E0,0E0,0E0],"parents":[2147483647,0,0,1,1],"right_children":[2,4,-1,-1,-1],"split_conditions":[-1.6750067E-1,1.6135582E-1,2.6304359E-2,-3.435495E-2,1.7638094E-3],"split_indices":[295,286,0,0,0],"split_type":[0,0,0,0,0],"sum_hessian":[4.585716E0,2.5564063E0,2.0293097E0,1.5281242E0,1.028282E0],"tree_param":{"num_deleted":"0","num_feature":"1536","num_nodes":"5","size_leaf_vector":"1"}},{"base_weights":[-1.3564798E-2,4.5967305E-1,-5.168573E-1,8.55442E-6,3.287498E-2,-7.392937E-3,-3.1003302E-2],"categories":[],"categories_nodes":[],"categories_segments":[],"categories_sizes":[],"default_left":[0,0,0,0,0,0,0],"id":58,"left_children":[1,3,5,-1,-1,-1,-1],"loss_changes":[1.5513945E0,3.0642736E-1,2.8049171E-2,0E0,0E0,0E0,0E0],"parents":[2147483647,0,0,1,1,2,2],"right_children":[2,4,6,-1,-1,-1,-1],"split_conditions":[-1.254143E-1,2.2716649E-2,-3.574562E-3,8.55442E-6,3.287498E-2,-7.392937E-3,-3.1003302E-2],"split_indices":[274,254,379,0,0,0,0],"split_type":[0,0,0,0,0,0,0],"sum_hessian":[4.5161023E0,2.372215E0,2.1438873E0,1.0151464E0,1.3570687E0,1.000271E0,1.1436162E0],"tree_param":{"num_deleted":"0","num_feature":"1536","num_nodes":"7","size_leaf_vector":"1"}},{"base_weights":[-1.4013848E-2,-2.815722E-2,4.1403925E-1,3.4606513E-2,-8.006319E-3],"categories":[],"categories_nodes":[],"categories_segments":[],"categories_sizes":[],"default_left":[0,0,0,0,0],"id":59,"left_children":[1,-1,3,-1,-1],"loss_changes":[1.5154592E0,0E0,6.923288E-1,0E0,0E0],"parents":[2147483647,0,0,2,2],"right_children":[2,-1,4,-1,-1],"split_conditions":[1.0328436E-1,-2.815722E-2,1.785523E-1,3.4606513E-2,-8.006319E-3],"split_indices":[198,0,602,0,0],"split_type":[0,0,0,0,0],"sum_hessian":[4.455251E0,1.8133674E0,2.641884E0,1.6414241E0,1.0004599E0],"tree_param":{"num_deleted":"0","num_feature":"1536","num_nodes":"5","size_leaf_vector":"1"}},{"base_weights":[-1.3735926E-2,-4.5579374E-1,2.5447175E-2,1.3602307E-3,-3.336109E-2],"categories":[],"categories_nodes":[],"categories_segments":[],"categories_sizes":[],"default_left":[0,0,0,0,0],"id":60,"left_children":[1,3,-1,-1,-1],"loss_changes":[1.4743804E0,3.6952198E-1,0E0,0E0,0E0],"parents":[2147483647,0,0,1,1],"right_children":[2,4,-1,-1,-1],"split_conditions":[-1.6750067E-1,1.2533684E-1,2.5447175E-2,1.3602307E-3,-3.336109E-2],"split_indices":[295,583,0,0,0],"split_type":[0,0,0,0,0],"sum_hessian":[4.377116E0,2.440783E0,1.9363332E0,1.0084198E0,1.4323634E0],"tree_param":{"num_deleted":"0","num_feature":"1536","num_nodes":"5","size_leaf_vector":"1"}},{"base_weights":[-1.4487933E-2,-2.7664041E-2,4.1230276E-1,-4.872435E-3,3.369187E-2],"categories":[],"categories_nodes":[],"categories_segments":[],"categories_sizes":[],"default_left":[0,0,0,0,0],"id":61,"left_children":[1,-1,3,-1,-1],"loss_changes":[1.4498708E0,0E0,5.373001E-1,0E0,0E0],"parents":[2147483647,0,0,2,2],"right_children":[2,-1,4,-1,-1],"split_conditions":[-5.0831143E-2,-2.7664041E-2,-4.089159E-3,-4.872435E-3,3.369187E-2],"split_indices":[416,0,421,0,0],"split_type":[0,0,0,0,0],"sum_hessian":[4.313077E0,1.7753937E0,2.5376832E0,1.0732437E0,1.4644396E0],"tree_param":{"num_deleted":"0","num_feature":"1536","num_nodes":"5","size_leaf_vector":"1"}},{"base_weights":[-1.3667912E-2,4.4558173E-1,-2.5054475E-2,1.4354759E-3,3.1065365E-2],"categories":[],"categories_nodes":[],"categories_segments":[],"categories_sizes":[],"default_left":[0,0,0,0,0],"id":62,"left_children":[1,3,-1,-1,-1],"loss_changes":[1.3978873E0,2.188552E-1,0E0,0E0,0E0],"parents":[2147483647,0,0,1,1],"right_children":[2,4,-1,-1,-1],"split_conditions":[-1.254143E-1,-2.2849871E-1,-2.5054475E-2,1.4354759E-3,3.1065365E-2],"split_indices":[274,252,0,0,0],"split_type":[0,0,0,0,0],"sum_hessian":[4.247355E0,2.2310727E0,2.016282E0,1.0065708E0,1.2245018E0],"tree_param":{"num_deleted":"0","num_feature":"1536","num_nodes":"5","size_leaf_vector":"1"}},{"base_weights":[-1.1662103E-2,-2.7209947E-2,4.0606478E-1,-5.4893782E-3,3.3183172E-2],"categories":[],"categories_nodes":[],"categories_segments":[],"categories_sizes":[],"default_left":[0,0,0,0,0],"id":63,"left_children":[1,-1,3,-1,-1],"loss_changes":[1.3760426E0,0E0,5.356293E-1,0E0,0E0],"parents":[2147483647,0,0,2,2],"right_children":[2,-1,4,-1,-1],"split_conditions":[1.0328436E-1,-2.7209947E-2,1.11117266E-1,-5.4893782E-3,3.3183172E-2],"split_indices":[198,0,759,0,0],"split_type":[0,0,0,0,0],"sum_hessian":[4.1923437E0,1.7098229E0,2.482521E0,1.0179121E0,1.4646088E0],"tree_param":{"num_deleted":"0","num_feature":"1536","num_nodes":"5","size_leaf_vector":"1"}},{"base_weights":[-1.1085464E-2,-2.910164E-2,3.6654377E-1,3.5105962E-2,-1.3230959E-2],"categories":[],"categories_nodes":[],"categories_segments":[],"categories_sizes":[],"default_left":[0,0,0,0,0],"id":64,"left_children":[1,-1,3,-1,-1],"loss_changes":[1.3182062E0,0E0,9.690391E-1,0E0,0E0],"parents":[2147483647,0,0,2,2],"right_children":[2,-1,4,-1,-1],"split_conditions":[-5.869509E-2,-2.910164E-2,1.9483572E-1,3.5105962E-2,-1.3230959E-2],"split_indices":[416,0,602,0,0],"split_type":[0,0,0,0,0],"sum_hessian":[4.124457E0,1.4264656E0,2.6979911E0,1.6880634E0,1.0099277E0],"tree_param":{"num_deleted":"0","num_feature":"1536","num_nodes":"5","size_leaf_vector":"1"}},{"base_weights":[-1.2056831E-2,-4.3561688E-1,2.428192E-2,-4.8777703E-4,-3.1020407E-2],"categories":[],"categories_nodes":[],"categories_segments":[],"categories_sizes":[],"default_left":[0,0,0,0,0],"id":65,"left_children":[1,3,-1,-1,-1],"loss_changes":[1.274977E0,2.4989927E-1,0E0,0E0,0E0],"parents":[2147483647,0,0,1,1],"right_children":[2,4,-1,-1,-1],"split_conditions":[-1.6750067E-1,9.141371E-1,2.428192E-2,-4.8777703E-4,-3.1020407E-2],"split_indices":[295,784,0,0,0],"split_type":[0,0,0,0,0],"sum_hessian":[4.0446177E0,2.2524326E0,1.7921853E0,1.0002031E0,1.2522295E0],"tree_param":{"num_deleted":"0","num_feature":"1536","num_nodes":"5","size_leaf_vector":"1"}},{"base_weights":[-1.3064577E-2,-2.636644E-2,3.9357686E-1,-4.410901E-3,3.1833366E-2],"categories":[],"categories_nodes":[],"categories_segments":[],"categories_sizes":[],"default_left":[0,0,0,0,0],"id":66,"left_children":[1,-1,3,-1,-1],"loss_changes":[1.2509005E0,0E0,4.495446E-1,0E0,0E0],"parents":[2147483647,0,0,2,2],"right_children":[2,-1,4,-1,-1],"split_conditions":[1.0328436E-1,-2.636644E-2,-3.881338E-2,-4.410901E-3,3.1833366E-2],"split_indices":[198,0,160,0,0],"split_type":[0,0,0,0,0],"sum_hessian":[3.9892426E0,1.6304646E0,2.358778E0,1.0046675E0,1.3541105E0],"tree_param":{"num_deleted":"0","num_feature":"1536","num_nodes":"5","size_leaf_vector":"1"}},{"base_weights":[-1.23141995E-2,4.3039402E-1,-2.4133913E-2,2.9168874E-2,2.8990216E-3],"categories":[],"categories_nodes":[],"categories_segments":[],"categories_sizes":[],"default_left":[0,0,0,0,0],"id":67,"left_children":[1,3,-1,-1,-1],"loss_changes":[1.2337643E0,1.409052E-1,0E0,0E0,0E0],"parents":[2147483647,0,0,1,1],"right_children":[2,4,-1,-1,-1],"split_conditions":[-1.254143E-1,-1.7017959E-1,-2.4133913E-2,2.9168874E-2,2.8990216E-3],"split_indices":[274,626,0,0,0],"split_type":[0,0,0,0,0],"sum_hessian":[3.927256E0,2.0668793E0,1.8603768E0,1.0635195E0,1.0033598E0],"tree_param":{"num_deleted":"0","num_feature":"1536","num_nodes":"5","size_leaf_vector":"1"}},{"base_weights":[-1.0172493E-2,-2.801132E-2,3.565789E-1,3.345033E-2,-1.0285895E-2],"categories":[],"categories_nodes":[],"categories_segments":[],"categories_sizes":[],"default_left":[0,0,0,0,0],"id":68,"left_children":[1,-1,3,-1,-1],"loss_changes":[1.1842065E0,0E0,7.593235E-1,0E0,0E0],"parents":[2147483647,0,0,2,2],"right_children":[2,-1,4,-1,-1],"split_conditions":[-5.869509E-2,-2.801132E-2,1.785523E-1,3.345033E-2,-1.0285895E-2],"split_indices":[416,0,602,0,0],"split_type":[0,0,0,0,0],"sum_hessian":[3.8799226E0,1.3410611E0,2.5388615E0,1.5100571E0,1.0288044E0],"tree_param":{"num_deleted":"0","num_feature":"1536","num_nodes":"5","size_leaf_vector":"1"}},{"base_weights":[-1.0749477E-2,-2.551048E-2,3.8396665E-1,-3.2531898E-3,3.0604575E-2],"categories":[],"categories_nodes":[],"categories_segments":[],"categories_sizes":[],"default_left":[0,0,0,0,0],"id":69,"left_children":[1,-1,3,-1,-1],"loss_changes":[1.1443292E0,0E0,3.7353387E-1,0E0,0E0],"parents":[2147483647,0,0,2,2],"right_children":[2,-1,4,-1,-1],"split_conditions":[1.0328436E-1,-2.551048E-2,8.467755E-1,-3.2531898E-3,3.0604575E-2],"split_indices":[198,0,823,0,0],"split_type":[0,0,0,0,0],"sum_hessian":[3.810803E0,1.5530404E0,2.2577624E0,1.0014138E0,1.2563486E0],"tree_param":{"num_deleted":"0","num_feature":"1536","num_nodes":"5","size_leaf_vector":"1"}},{"base_weights":[-9.913155E-3,-4.1967773E-1,2.335498E-2,-2.3240314E-3,-2.8832242E-2],"categories":[],"categories_nodes":[],"categories_segments":[],"categories_sizes":[],"default_left":[0,0,0,0,0],"id":70,"left_children":[1,3,-1,-1,-1],"loss_changes":[1.1253047E0,1.5386361E-1,0E0,0E0,0E0],"parents":[2147483647,0,0,1,1],"right_children":[2,4,-1,-1,-1],"split_conditions":[-1.6750067E-1,5.8188427E-2,2.335498E-2,-2.3240314E-3,-2.8832242E-2],"split_indices":[295,584,0,0,0],"split_type":[0,0,0,0,0],"sum_hessian":[3.754218E0,2.0841138E0,1.6701044E0,1.0007938E0,1.08332E0],"tree_param":{"num_deleted":"0","num_feature":"1536","num_nodes":"5","size_leaf_vector":"1"}},{"base_weights":[-1.1191327E-2,2.0831704E-2,-2.3275865E-2],"categories":[],"categories_nodes":[],"categories_segments":[],"categories_sizes":[],"default_left":[0,0,0],"id":71,"left_children":[1,-1,-1],"loss_changes":[1.1088029E0,0E0,0E0],"parents":[2147483647,0,0],"right_children":[2,-1,-1],"split_conditions":[-1.254143E-1,2.0831704E-2,-2.3275865E-2],"split_indices":[274,0,0],"split_type":[0,0,0],"sum_hessian":[3.706705E0,1.951756E0,1.7549491E0],"tree_param":{"num_deleted":"0","num_feature":"1536","num_nodes":"3","size_leaf_vector":"1"}},{"base_weights":[-1.1258052E-2,-2.4997113E-2,3.774056E-1,2.9319465E-2,-8.126798E-4],"categories":[],"categories_nodes":[],"categories_segments":[],"categories_sizes":[],"default_left":[0,0,0,0,0],"id":72,"left_children":[1,-1,3,-1,-1],"loss_changes":[1.0750788E0,0E0,2.7026346E-1,0E0,0E0],"parents":[2147483647,0,0,2,2],"right_children":[2,-1,4,-1,-1],"split_conditions":[-5.0831143E-2,-2.4997113E-2,-1.2981926E-1,2.9319465E-2,-8.126798E-4],"split_indices":[416,0,352,0,0],"split_type":[0,0,0,0,0],"sum_hessian":[3.6668785E0,1.4975858E0,2.1692924E0,1.0972201E0,1.0720725E0],"tree_param":{"num_deleted":"0","num_feature":"1536","num_nodes":"5","size_leaf_vector":"1"}},{"base_weights":[-1.0023055E-2,-2.4805086E-2,3.77334E-1,-1.4361053E-3,2.9096348E-2],"categories":[],"categories_nodes":[],"categories_segments":[],"categories_sizes":[],"default_left":[0,0,0,0,0],"id":73,"left_children":[1,-1,3,-1,-1],"loss_changes":[1.0570731E0,0E0,2.7749607E-1,0E0,0E0],"parents":[2147483647,0,0,2,2],"right_children":[2,-1,4,-1,-1],"split_conditions":[1.0328436E-1,-2.4805086E-2,-3.3477095E-1,-1.4361053E-3,2.9096348E-2],"split_indices":[198,0,12,0,0],"split_type":[0,0,0,0,0],"sum_hessian":[3.6199775E0,1.4809093E0,2.1390681E0,1.0046837E0,1.1343844E0],"tree_param":{"num_deleted":"0","num_feature":"1536","num_nodes":"5","size_leaf_vector":"1"}},{"base_weights":[-8.979488E-3,-2.0535417E-2,2.2737637E-2],"categories":[],"categories_nodes":[],"categories_segments":[],"categories_sizes":[],"default_left":[0,0,0],"id":74,"left_children":[1,-1,-1],"loss_changes":[1.0380455E0,0E0,0E0],"parents":[2147483647,0,0],"right_children":[2,-1,-1],"split_conditions":[-1.6750067E-1,-2.0535417E-2,2.2737637E-2],"split_indices":[295,0,0],"split_type":[0,0,0],"sum_hessian":[3.5695078E0,1.973884E0,1.595624E0],"tree_param":{"num_deleted":"0","num_feature":"1536","num_nodes":"3","size_leaf_vector":"1"}},{"base_weights":[-8.110781E-3,2.0166283E-2,-2.2393491E-2],"categories":[],"categories_nodes":[],"categories_segments":[],"categories_sizes":[],"default_left":[0,0,0],"id":75,"left_children":[1,-1,-1],"loss_changes":[1.0001811E0,0E0,0E0],"parents":[2147483647,0,0],"right_children":[2,-1,-1],"split_conditions":[-1.254143E-1,2.0166283E-2,-2.2393491E-2],"split_indices":[274,0,0],"split_type":[0,0,0],"sum_hessian":[3.529545E0,1.8662958E0,1.6632491E0],"tree_param":{"num_deleted":"0","num_feature":"1536","num_nodes":"3","size_leaf_vector":"1"}},{"base_weights":[-8.273635E-3,-2.419806E-2,3.7179068E-1,2.8227134E-2,-6.409346E-4],"categories":[],"categories_nodes":[],"categories_segments":[],"categories_sizes":[],"default_left":[0,0,0,0,0],"id":76,"left_children":[1,-1,3,-1,-1],"loss_changes":[9.9221396E-1,0E0,2.3431107E-1,0E0,0E0],"parents":[2147483647,0,0,2,2],"right_children":[2,-1,4,-1,-1],"split_conditions":[1.0328436E-1,-2.419806E-2,-1.1744338E-1,2.8227134E-2,-6.409346E-4],"split_indices":[198,0,257,0,0],"split_type":[0,0,0,0,0],"sum_hessian":[3.4929101E0,1.429893E0,2.0630171E0,1.0626318E0,1.0003854E0],"tree_param":{"num_deleted":"0","num_feature":"1536","num_nodes":"5","size_leaf_vector":"1"}},{"base_weights":[-7.162237E-3,-2.3913966E-2,3.6614347E-1,2.8357288E-2,-9.6836826E-4],"categories":[],"categories_nodes":[],"categories_segments":[],"categories_sizes":[],"default_left":[0,0,0,0,0],"id":77,"left_children":[1,-1,3,-1,-1],"loss_changes":[9.571001E-1,0E0,2.4709821E-1,0E0,0E0],"parents":[2147483647,0,0,2,2],"right_children":[2,-1,4,-1,-1],"split_conditions":[-5.0831143E-2,-2.3913966E-2,-1.2981926E-1,2.8357288E-2,-9.6836826E-4],"split_indices":[416,0,352,0,0],"split_type":[0,0,0,0,0],"sum_hessian":[3.4463422E0,1.3992583E0,2.0470839E0,1.0358473E0,1.0112364E0],"tree_param":{"num_deleted":"0","num_feature":"1536","num_nodes":"5","size_leaf_vector":"1"}},{"base_weights":[-6.0595716E-3,-1.9863423E-2,2.2119856E-2],"categories":[],"categories_nodes":[],"categories_segments":[],"categories_sizes":[],"default_left":[0,0,0],"id":78,"left_children":[1,-1,-1],"loss_changes":[9.483002E-1,0E0,0E0],"parents":[2147483647,0,0],"right_children":[2,-1,-1],"split_conditions":[-1.6750067E-1,-1.9863423E-2,2.2119856E-2],"split_indices":[295,0,0],"split_type":[0,0,0],"sum_hessian":[3.4034932E0,1.878733E0,1.5247601E0],"tree_param":{"num_deleted":"0","num_feature":"1536","num_nodes":"3","size_leaf_vector":"1"}},{"base_weights":[-5.2794227E-3,-2.3521148E-2,1.8256418E-2],"categories":[],"categories_nodes":[],"categories_segments":[],"categories_sizes":[],"default_left":[0,0,0],"id":79,"left_children":[1,-1,-1],"loss_changes":[9.2407614E-1,0E0,0E0],"parents":[2147483647,0,0],"right_children":[2,-1,-1],"split_conditions":[1.0328436E-1,-2.3521148E-2,1.8256418E-2],"split_indices":[198,0,0],"split_type":[0,0,0],"sum_hessian":[3.36647E0,1.3726884E0,1.9937818E0],"tree_param":{"num_deleted":"0","num_feature":"1536","num_nodes":"3","size_leaf_vector":"1"}},{"base_weights":[-6.296007E-3,1.9579383E-2,-2.1653939E-2],"categories":[],"categories_nodes":[],"categories_segments":[],"categories_sizes":[],"default_left":[0,0,0],"id":80,"left_children":[1,-1,-1],"loss_changes":[9.048809E-1,0E0,0E0],"parents":[2147483647,0,0],"right_children":[2,-1,-1],"split_conditions":[-1.254143E-1,1.9579383E-2,-2.1653939E-2],"split_indices":[274,0,0],"split_type":[0,0,0],"sum_hessian":[3.3300931E0,1.7660733E0,1.5640197E0],"tree_param":{"num_deleted":"0","num_feature":"1536","num_nodes":"3","size_leaf_vector":"1"}},{"base_weights":[-6.5197195E-3,-2.1968111E-2,1.9036317E-2],"categories":[],"categories_nodes":[],"categories_segments":[],"categories_sizes":[],"default_left":[0,0,0],"id":81,"left_children":[1,-1,-1],"loss_changes":[8.874241E-1,0E0,0E0],"parents":[2147483647,0,0],"right_children":[2,-1,-1],"split_conditions":[5.0072078E-2,-2.1968111E-2,1.9036317E-2],"split_indices":[309,0,0],"split_type":[0,0,0],"sum_hessian":[3.296397E0,1.4930102E0,1.8033868E0],"tree_param":{"num_deleted":"0","num_feature":"1536","num_nodes":"3","size_leaf_vector":"1"}},{"base_weights":[-6.9395863E-3,-2.3148565E-2,1.776713E-2],"categories":[],"categories_nodes":[],"categories_segments":[],"categories_sizes":[],"default_left":[0,0,0],"id":82,"left_children":[1,-1,-1],"loss_changes":[8.690228E-1,0E0,0E0],"parents":[2147483647,0,0],"right_children":[2,-1,-1],"split_conditions":[-5.0831143E-2,-2.3148565E-2,1.776713E-2],"split_indices":[416,0,0],"split_type":[0,0,0],"sum_hessian":[3.2642708E0,1.3221065E0,1.9421644E0],"tree_param":{"num_deleted":"0","num_feature":"1536","num_nodes":"3","size_leaf_vector":"1"}},{"base_weights":[-7.934417E-3,-1.9229416E-2,2.1384398E-2],"categories":[],"categories_nodes":[],"categories_segments":[],"categories_sizes":[],"default_left":[0,0,0],"id":83,"left_children":[1,-1,-1],"loss_changes":[8.5895E-1,0E0,0E0],"parents":[2147483647,0,0],"right_children":[2,-1,-1],"split_conditions":[-1.6750067E-1,-1.9229416E-2,2.1384398E-2],"split_indices":[295,0,0],"split_type":[0,0,0],"sum_hessian":[3.232515E0,1.7964208E0,1.4360944E0],"tree_param":{"num_deleted":"0","num_feature":"1536","num_nodes":"3","size_leaf_vector":"1"}},{"base_weights":[-7.07736E-3,-2.2734426E-2,1.7520124E-2],"categories":[],"categories_nodes":[],"categories_segments":[],"categories_sizes":[],"default_left":[0,0,0],"id":84,"left_children":[1,-1,-1],"loss_changes":[8.3113915E-1,0E0,0E0],"parents":[2147483647,0,0],"right_children":[2,-1,-1],"split_conditions":[1.0328436E-1,-2.2734426E-2,1.7520124E-2],"split_indices":[198,0,0],"split_type":[0,0,0],"sum_hessian":[3.1985307E0,1.2994823E0,1.8990483E0],"tree_param":{"num_deleted":"0","num_feature":"1536","num_nodes":"3","size_leaf_vector":"1"}},{"base_weights":[-8.050365E-3,1.8926302E-2,-2.1058498E-2],"categories":[],"categories_nodes":[],"categories_segments":[],"categories_sizes":[],"default_left":[0,0,0],"id":85,"left_children":[1,-1,-1],"loss_changes":[8.246357E-1,0E0,0E0],"parents":[2147483647,0,0],"right_children":[2,-1,-1],"split_conditions":[-1.254143E-1,1.8926302E-2,-2.1058498E-2],"split_indices":[274,0,0],"split_type":[0,0,0],"sum_hessian":[3.165325E0,1.6784519E0,1.486873E0],"tree_param":{"num_deleted":"0","num_feature":"1536","num_nodes":"3","size_leaf_vector":"1"}},{"base_weights":[-8.230066E-3,-1.8761342E-2,2.085629E-2],"categories":[],"categories_nodes":[],"categories_segments":[],"categories_sizes":[],"default_left":[0,0,0],"id":86,"left_children":[1,-1,-1],"loss_changes":[8.018702E-1,0E0,0E0],"parents":[2147483647,0,0],"right_children":[2,-1,-1],"split_conditions":[-1.6750067E-1,-1.8761342E-2,2.085629E-2],"split_indices":[295,0,0],"split_type":[0,0,0],"sum_hessian":[3.1341195E0,1.7457443E0,1.3883753E0],"tree_param":{"num_deleted":"0","num_feature":"1536","num_nodes":"3","size_leaf_vector":"1"}},{"base_weights":[-7.3613054E-3,-2.2411808E-2,1.7120797E-2],"categories":[],"categories_nodes":[],"categories_segments":[],"categories_sizes":[],"default_left":[0,0,0],"id":87,"left_children":[1,-1,-1],"loss_changes":[7.8606576E-1,0E0,0E0],"parents":[2147483647,0,0],"right_children":[2,-1,-1],"split_conditions":[-5.0831143E-2,-2.2411808E-2,1.7120797E-2],"split_indices":[416,0,0],"split_type":[0,0,0],"sum_hessian":[3.102138E0,1.2478287E0,1.8543094E0],"tree_param":{"num_deleted":"0","num_feature":"1536","num_nodes":"3","size_leaf_vector":"1"}},{"base_weights":[-8.361872E-3,-2.0886872E-2,1.8161843E-2],"categories":[],"categories_nodes":[],"categories_segments":[],"categories_sizes":[],"default_left":[0,0,0],"id":88,"left_children":[1,-1,-1],"loss_changes":[7.713343E-1,0E0,0E0],"parents":[2147483647,0,0],"right_children":[2,-1,-1],"split_conditions":[5.0072078E-2,-2.0886872E-2,1.8161843E-2],"split_indices":[309,0,0],"split_type":[0,0,0],"sum_hessian":[3.0729864E0,1.4030924E0,1.669894E0],"tree_param":{"num_deleted":"0","num_feature":"1536","num_nodes":"3","size_leaf_vector":"1"}},{"base_weights":[-8.684025E-3,1.8301355E-2,-2.047342E-2],"categories":[],"categories_nodes":[],"categories_segments":[],"categories_sizes":[],"default_left":[0,0,0],"id":89,"left_children":[1,-1,-1],"loss_changes":[7.572556E-1,0E0,0E0],"parents":[2147483647,0,0],"right_children":[2,-1,-1],"split_conditions":[-1.254143E-1,1.8301355E-2,-2.047342E-2],"split_indices":[274,0,0],"split_type":[0,0,0],"sum_hessian":[3.044385E0,1.6181902E0,1.4261947E0],"tree_param":{"num_deleted":"0","num_feature":"1536","num_nodes":"3","size_leaf_vector":"1"}},{"base_weights":[-8.859042E-3,-2.1972839E-2,1.68652E-2],"categories":[],"categories_nodes":[],"categories_segments":[],"categories_sizes":[],"default_left":[0,0,0],"id":90,"left_children":[1,-1,-1],"loss_changes":[7.4673766E-1,0E0,0E0],"parents":[2147483647,0,0],"right_children":[2,-1,-1],"split_conditions":[1.0328436E-1,-2.1972839E-2,1.68652E-2],"split_indices":[198,0,0],"split_type":[0,0,0],"sum_hessian":[3.01529E0,1.2236563E0,1.7916337E0],"tree_param":{"num_deleted":"0","num_feature":"1536","num_nodes":"3","size_leaf_vector":"1"}},{"base_weights":[-9.781918E-3,-1.8181954E-2,2.0190133E-2],"categories":[],"categories_nodes":[],"categories_segments":[],"categories_sizes":[],"default_left":[0,0,0],"id":91,"left_children":[1,-1,-1],"loss_changes":[7.3005503E-1,0E0,0E0],"parents":[2147483647,0,0],"right_children":[2,-1,-1],"split_conditions":[-1.6750067E-1,-1.8181954E-2,2.0190133E-2],"split_indices":[295,0,0],"split_type":[0,0,0],"sum_hessian":[2.9850848E0,1.6737826E0,1.3113023E0],"tree_param":{"num_deleted":"0","num_feature":"1536","num_nodes":"3","size_leaf_vector":"1"}},{"base_weights":[-8.847523E-3,-2.1715023E-2,1.6465185E-2],"categories":[],"categories_nodes":[],"categories_segments":[],"categories_sizes":[],"default_left":[0,0,0],"id":92,"left_children":[1,-1,-1],"loss_changes":[7.1210545E-1,0E0,0E0],"parents":[2147483647,0,0],"right_children":[2,-1,-1],"split_conditions":[-5.0831143E-2,-2.1715023E-2,1.6465185E-2],"split_indices":[416,0,0],"split_type":[0,0,0],"sum_hessian":[2.9556465E0,1.182951E0,1.7726955E0],"tree_param":{"num_deleted":"0","num_feature":"1536","num_nodes":"3","size_leaf_vector":"1"}},{"base_weights":[-9.817329E-3,-1.8537885E-2,1.9167693E-2],"categories":[],"categories_nodes":[],"categories_segments":[],"categories_sizes":[],"default_left":[0,0,0],"id":93,"left_children":[1,-1,-1],"loss_changes":[6.9967514E-1,0E0,0E0],"parents":[2147483647,0,0],"right_children":[2,-1,-1],"split_conditions":[-4.089159E-3,-1.8537885E-2,1.9167693E-2],"split_indices":[421,0,0],"split_type":[0,0,0],"sum_hessian":[2.928817E0,1.5567193E0,1.3720978E0],"tree_param":{"num_deleted":"0","num_feature":"1536","num_nodes":"3","size_leaf_vector":"1"}},{"base_weights":[-9.227436E-3,-2.1388825E-2,1.639763E-2],"categories":[],"categories_nodes":[],"categories_segments":[],"categories_sizes":[],"default_left":[0,0,0],"id":94,"left_children":[1,-1,-1],"loss_changes":[6.9098616E-1,0E0,0E0],"parents":[2147483647,0,0],"right_children":[2,-1,-1],"split_conditions":[1.0328436E-1,-2.1388825E-2,1.639763E-2],"split_indices":[198,0,0],"split_type":[0,0,0],"sum_hessian":[2.9021451E0,1.1749568E0,1.7271883E0],"tree_param":{"num_deleted":"0","num_feature":"1536","num_nodes":"3","size_leaf_vector":"1"}},{"base_weights":[-1.0137266E-2,1.7653748E-2,-1.982592E-2],"categories":[],"categories_nodes":[],"categories_segments":[],"categories_sizes":[],"default_left":[0,0,0],"id":95,"left_children":[1,-1,-1],"loss_changes":[6.836649E-1,0E0,0E0],"parents":[2147483647,0,0],"right_children":[2,-1,-1],"split_conditions":[-1.254143E-1,1.7653748E-2,-1.982592E-2],"split_indices":[274,0,0],"split_type":[0,0,0],"sum_hessian":[2.873953E0,1.5258238E0,1.3481293E0],"tree_param":{"num_deleted":"0","num_feature":"1536","num_nodes":"3","size_leaf_vector":"1"}},{"base_weights":[-1.0269991E-2,-1.9969994E-2,1.7280035E-2],"categories":[],"categories_nodes":[],"categories_segments":[],"categories_sizes":[],"default_left":[0,0,0],"id":96,"left_children":[1,-1,-1],"loss_changes":[6.708133E-1,0E0,0E0],"parents":[2147483647,0,0],"right_children":[2,-1,-1],"split_conditions":[5.0072078E-2,-1.9969994E-2,1.7280035E-2],"split_indices":[309,0,0],"split_type":[0,0,0],"sum_hessian":[2.8473482E0,1.3016883E0,1.5456598E0],"tree_param":{"num_deleted":"0","num_feature":"1536","num_nodes":"3","size_leaf_vector":"1"}},{"base_weights":[-1.05351005E-2,1.626886E-2,-2.0758217E-2],"categories":[],"categories_nodes":[],"categories_segments":[],"categories_sizes":[],"default_left":[0,0,0],"id":97,"left_children":[1,-1,-1],"loss_changes":[6.5455896E-1,0E0,0E0],"parents":[2147483647,0,0],"right_children":[2,-1,-1],"split_conditions":[3.4011777E-2,1.626886E-2,-2.0758217E-2],"split_indices":[278,0,0],"split_type":[0,0,0],"sum_hessian":[2.8219118E0,1.6489016E0,1.1730103E0],"tree_param":{"num_deleted":"0","num_feature":"1536","num_nodes":"3","size_leaf_vector":"1"}},{"base_weights":[-1.1269896E-2,-1.7505713E-2,1.9366546E-2],"categories":[],"categories_nodes":[],"categories_segments":[],"categories_sizes":[],"default_left":[0,0,0],"id":98,"left_children":[1,-1,-1],"loss_changes":[6.4853096E-1,0E0,0E0],"parents":[2147483647,0,0],"right_children":[2,-1,-1],"split_conditions":[-1.6750067E-1,-1.7505713E-2,1.9366546E-2],"split_indices":[295,0,0],"split_type":[0,0,0],"sum_hessian":[2.7976232E0,1.577909E0,1.2197142E0],"tree_param":{"num_deleted":"0","num_feature":"1536","num_nodes":"3","size_leaf_vector":"1"}},{"base_weights":[-1.0282702E-2,-2.0932017E-2,1.582655E-2],"categories":[],"categories_nodes":[],"categories_segments":[],"categories_sizes":[],"default_left":[0,0,0],"id":99,"left_children":[1,-1,-1],"loss_changes":[6.357877E-1,0E0,0E0],"parents":[2147483647,0,0],"right_children":[2,-1,-1],"split_conditions":[-5.0831143E-2,-2.0932017E-2,1.582655E-2],"split_indices":[416,0,0],"split_type":[0,0,0],"sum_hessian":[2.7710695E0,1.1069485E0,1.664121E0],"tree_param":{"num_deleted":"0","num_feature":"1536","num_nodes":"3","size_leaf_vector":"1"}},{"base_weights":[-1.1212433E-2,1.7015373E-2,-1.9191008E-2],"categories":[],"categories_nodes":[],"categories_segments":[],"categories_sizes":[],"default_left":[0,0,0],"id":100,"left_children":[1,-1,-1],"loss_changes":[6.213505E-1,0E0,0E0],"parents":[2147483647,0,0],"right_children":[2,-1,-1],"split_conditions":[-1.254143E-1,1.7015373E-2,-1.9191008E-2],"split_indices":[274,0,0],"split_type":[0,0,0],"sum_hessian":[2.7466578E0,1.4579283E0,1.2887295E0],"tree_param":{"num_deleted":"0","num_feature":"1536","num_nodes":"3","size_leaf_vector":"1"}},{"base_weights":[-1.1314863E-2,-2.0646151E-2,1.5766978E-2],"categories":[],"categories_nodes":[],"categories_segments":[],"categories_sizes":[],"default_left":[0,0,0],"id":101,"left_children":[1,-1,-1],"loss_changes":[6.185005E-1,0E0,0E0],"parents":[2147483647,0,0],"right_children":[2,-1,-1],"split_conditions":[1.0328436E-1,-2.0646151E-2,1.5766978E-2],"split_indices":[198,0,0],"split_type":[0,0,0],"sum_hessian":[2.7220857E0,1.1025045E0,1.6195812E0],"tree_param":{"num_deleted":"0","num_feature":"1536","num_nodes":"3","size_leaf_vector":"1"}},{"base_weights":[-1.2161159E-2,-1.7128665E-2,1.8887376E-2],"categories":[],"categories_nodes":[],"categories_segments":[],"categories_sizes":[],"default_left":[0,0,0],"id":102,"left_children":[1,-1,-1],"loss_changes":[6.056326E-1,0E0,0E0],"parents":[2147483647,0,0],"right_children":[2,-1,-1],"split_conditions":[-1.6750067E-1,-1.7128665E-2,1.8887376E-2],"split_indices":[295,0,0],"split_type":[0,0,0],"sum_hessian":[2.6965332E0,1.525344E0,1.1711891E0],"tree_param":{"num_deleted":"0","num_feature":"1536","num_nodes":"3","size_leaf_vector":"1"}},{"base_weights":[-1.1147593E-2,1.578041E-2,-2.0081723E-2],"categories":[],"categories_nodes":[],"categories_segments":[],"categories_sizes":[],"default_left":[0,0,0],"id":103,"left_children":[1,-1,-1],"loss_changes":[5.952308E-1,0E0,0E0],"parents":[2147483647,0,0],"right_children":[2,-1,-1],"split_conditions":[3.4011777E-2,1.578041E-2,-2.0081723E-2],"split_indices":[278,0,0],"split_type":[0,0,0],"sum_hessian":[2.6715853E0,1.5588834E0,1.112702E0],"tree_param":{"num_deleted":"0","num_feature":"1536","num_nodes":"3","size_leaf_vector":"1"}},{"base_weights":[-1.1848267E-2,-1.754093E-2,1.787947E-2],"categories":[],"categories_nodes":[],"categories_segments":[],"categories_sizes":[],"default_left":[0,0,0],"id":104,"left_children":[1,-1,-1],"loss_changes":[5.8242816E-1,0E0,0E0],"parents":[2147483647,0,0],"right_children":[2,-1,-1],"split_conditions":[-4.089159E-3,-1.754093E-2,1.787947E-2],"split_indices":[421,0,0],"split_type":[0,0,0],"sum_hessian":[2.6491656E0,1.4078337E0,1.2413318E0],"tree_param":{"num_deleted":"0","num_feature":"1536","num_nodes":"3","size_leaf_vector":"1"}},{"base_weights":[-1.12330485E-2,-2.0114139E-2,1.5381361E-2],"categories":[],"categories_nodes":[],"categories_segments":[],"categories_sizes":[],"default_left":[0,0,0],"id":105,"left_children":[1,-1,-1],"loss_changes":[5.7592505E-1,0E0,0E0],"parents":[2147483647,0,0],"right_children":[2,-1,-1],"split_conditions":[1.0328436E-1,-2.0114139E-2,1.5381361E-2],"split_indices":[198,0,0],"split_type":[0,0,0],"sum_hessian":[2.626362E0,1.0621347E0,1.5642273E0],"tree_param":{"num_deleted":"0","num_feature":"1536","num_nodes":"3","size_leaf_vector":"1"}},{"base_weights":[-1.2073172E-2,-2.0168819E-2,1.5163471E-2],"categories":[],"categories_nodes":[],"categories_segments":[],"categories_sizes":[],"default_left":[0,0,0],"id":106,"left_children":[1,-1,-1],"loss_changes":[5.6684333E-1,0E0,0E0],"parents":[2147483647,0,0],"right_children":[2,-1,-1],"split_conditions":[-5.0831143E-2,-2.0168819E-2,1.5163471E-2],"split_indices":[416,0,0],"split_type":[0,0,0],"sum_hessian":[2.6023595E0,1.0367302E0,1.5656294E0],"tree_param":{"num_deleted":"0","num_feature":"1536","num_nodes":"3","size_leaf_vector":"1"}},{"base_weights":[-1.2954977E-2,1.6362902E-2,-1.8509468E-2],"categories":[],"categories_nodes":[],"categories_segments":[],"categories_sizes":[],"default_left":[0,0,0],"id":107,"left_children":[1,-1,-1],"loss_changes":[5.5627704E-1,0E0,0E0],"parents":[2147483647,0,0],"right_children":[2,-1,-1],"split_conditions":[-1.254143E-1,1.6362902E-2,-1.8509468E-2],"split_indices":[274,0,0],"split_type":[0,0,0],"sum_hessian":[2.580259E0,1.3645955E0,1.2156634E0],"tree_param":{"num_deleted":"0","num_feature":"1536","num_nodes":"3","size_leaf_vector":"1"}},{"base_weights":[-1.2995432E-2,-1.8700162E-2,1.6155919E-2],"categories":[],"categories_nodes":[],"categories_segments":[],"categories_sizes":[],"default_left":[0,0,0],"id":108,"left_children":[1,-1,-1],"loss_changes":[5.5257016E-1,0E0,0E0],"parents":[2147483647,0,0],"right_children":[2,-1,-1],"split_conditions":[5.0072078E-2,-1.8700162E-2,1.6155919E-2],"split_indices":[309,0,0],"split_type":[0,0,0],"sum_hessian":[2.5579681E0,1.1789608E0,1.3790075E0],"tree_param":{"num_deleted":"0","num_feature":"1536","num_nodes":"3","size_leaf_vector":"1"}},{"base_weights":[-1.3149609E-2,-1.6508905E-2,1.815003E-2],"categories":[],"categories_nodes":[],"categories_segments":[],"categories_sizes":[],"default_left":[0,0,0],"id":109,"left_children":[1,-1,-1],"loss_changes":[5.415651E-1,0E0,0E0],"parents":[2147483647,0,0],"right_children":[2,-1,-1],"split_conditions":[-1.6750067E-1,-1.6508905E-2,1.815003E-2],"split_indices":[295,0,0],"split_type":[0,0,0],"sum_hessian":[2.536345E0,1.4426566E0,1.0936885E0],"tree_param":{"num_deleted":"0","num_feature":"1536","num_nodes":"3","size_leaf_vector":"1"}},{"base_weights":[-1.2101283E-2,-1.7160663E-2,1.7056942E-2],"categories":[],"categories_nodes":[],"categories_segments":[],"categories_sizes":[],"default_left":[0,0,0],"id":110,"left_children":[1,-1,-1],"loss_changes":[5.2805907E-1,0E0,0E0],"parents":[2147483647,0,0],"right_children":[2,-1,-1],"split_conditions":[7.164133E-2,-1.7160663E-2,1.7056942E-2],"split_indices":[212,0,0],"split_type":[0,0,0],"sum_hessian":[2.513753E0,1.3121686E0,1.2015845E0],"tree_param":{"num_deleted":"0","num_feature":"1536","num_nodes":"3","size_leaf_vector":"1"}},{"base_weights":[-1.1595579E-2,-1.9467017E-2,1.4874751E-2],"categories":[],"categories_nodes":[],"categories_segments":[],"categories_sizes":[],"default_left":[0,0,0],"id":111,"left_children":[1,-1,-1],"loss_changes":[5.236545E-1,0E0,0E0],"parents":[2147483647,0,0],"right_children":[2,-1,-1],"split_conditions":[1.0328436E-1,-1.9467017E-2,1.4874751E-2],"split_indices":[198,0,0],"split_type":[0,0,0],"sum_hessian":[2.4929516E0,1.0050416E0,1.4879099E0],"tree_param":{"num_deleted":"0","num_feature":"1536","num_nodes":"3","size_leaf_vector":"1"}},{"base_weights":[-1.2424176E-2,-1.6901879E-2,1.7213712E-2],"categories":[],"categories_nodes":[],"categories_segments":[],"categories_sizes":[],"default_left":[0,0,0],"id":112,"left_children":[1,-1,-1],"loss_changes":[5.1951295E-1,0E0,0E0],"parents":[2147483647,0,0],"right_children":[2,-1,-1],"split_conditions":[-4.089159E-3,-1.6901879E-2,1.7213712E-2],"split_indices":[421,0,0],"split_type":[0,0,0],"sum_hessian":[2.4709432E0,1.3191072E0,1.1518362E0],"tree_param":{"num_deleted":"0","num_feature":"1536","num_nodes":"3","size_leaf_vector":"1"}},{"base_weights":[-1.1783213E-2,1.4913741E-2,-1.894657E-2],"categories":[],"categories_nodes":[],"categories_segments":[],"categories_sizes":[],"default_left":[0,0,0],"id":113,"left_children":[1,-1,-1],"loss_changes":[5.0579906E-1,0E0,0E0],"parents":[2147483647,0,0],"right_children":[2,-1,-1],"split_conditions":[3.4011777E-2,1.4913741E-2,-1.894657E-2],"split_indices":[278,0,0],"split_type":[0,0,0],"sum_hessian":[2.4503064E0,1.430139E0,1.0201676E0],"tree_param":{"num_deleted":"0","num_feature":"1536","num_nodes":"3","size_leaf_vector":"1"}},{"base_weights":[-1.2445883E-2,-1.6019417E-2,1.7598296E-2],"categories":[],"categories_nodes":[],"categories_segments":[],"categories_sizes":[],"default_left":[0,0,0],"id":114,"left_children":[1,-1,-1],"loss_changes":[4.9775782E-1,0E0,0E0],"parents":[2147483647,0,0],"right_children":[2,-1,-1],"split_conditions":[-1.6750067E-1,-1.6019417E-2,1.7598296E-2],"split_indices":[295,0,0],"split_type":[0,0,0],"sum_hessian":[2.4307559E0,1.382931E0,1.0478247E0],"tree_param":{"num_deleted":"0","num_feature":"1536","num_nodes":"3","size_leaf_vector":"1"}},{"base_weights":[-1.1429338E-2,1.5780367E-2,-1.771283E-2],"categories":[],"categories_nodes":[],"categories_segments":[],"categories_sizes":[],"default_left":[0,0,0],"id":115,"left_children":[1,-1,-1],"loss_changes":[4.941019E-1,0E0,0E0],"parents":[2147483647,0,0],"right_children":[2,-1,-1],"split_conditions":[-1.254143E-1,1.5780367E-2,-1.771283E-2],"split_indices":[274,0,0],"split_type":[0,0,0],"sum_hessian":[2.409792E0,1.2739336E0,1.1358583E0],"tree_param":{"num_deleted":"0","num_feature":"1536","num_nodes":"3","size_leaf_vector":"1"}},{"base_weights":[-1.1498989E-2,-1.7687669E-2,1.5436537E-2],"categories":[],"categories_nodes":[],"categories_segments":[],"categories_sizes":[],"default_left":[0,0,0],"id":116,"left_children":[1,-1,-1],"loss_changes":[4.8072833E-1,0E0,0E0],"parents":[2147483647,0,0],"right_children":[2,-1,-1],"split_conditions":[5.0072078E-2,-1.7687669E-2,1.5436537E-2],"split_indices":[309,0,0],"split_type":[0,0,0],"sum_hessian":[2.3897238E0,1.1045351E0,1.2851887E0],"tree_param":{"num_deleted":"0","num_feature":"1536","num_nodes":"3","size_leaf_vector":"1"}},{"base_weights":[-1.1661488E-2,-1.6497215E-2,1.6384868E-2],"categories":[],"categories_nodes":[],"categories_segments":[],"categories_sizes":[],"default_left":[0,0,0],"id":117,"left_children":[1,-1,-1],"loss_changes":[4.7218406E-1,0E0,0E0],"parents":[2147483647,0,0],"right_children":[2,-1,-1],"split_conditions":[7.164133E-2,-1.6497215E-2,1.6384868E-2],"split_indices":[212,0,0],"split_type":[0,0,0],"sum_hessian":[2.370569E0,1.2375858E0,1.1329831E0],"tree_param":{"num_deleted":"0","num_feature":"1536","num_nodes":"3","size_leaf_vector":"1"}},{"base_weights":[-1.1175529E-2,-1.6210733E-2,1.6487278E-2],"categories":[],"categories_nodes":[],"categories_segments":[],"categories_sizes":[],"default_left":[0,0,0],"id":118,"left_children":[1,-1,-1],"loss_changes":[4.6460626E-1,0E0,0E0],"parents":[2147483647,0,0],"right_children":[2,-1,-1],"split_conditions":[-4.089159E-3,-1.6210733E-2,1.6487278E-2],"split_indices":[421,0,0],"split_type":[0,0,0],"sum_hessian":[2.3516905E0,1.2515246E0,1.100166E0],"tree_param":{"num_deleted":"0","num_feature":"1536","num_nodes":"3","size_leaf_vector":"1"}},{"base_weights":[-1.0593379E-2,-1.7270876E-2,1.5086807E-2],"categories":[],"categories_nodes":[],"categories_segments":[],"categories_sizes":[],"default_left":[0,0,0],"id":119,"left_children":[1,-1,-1],"loss_changes":[4.527716E-1,0E0,0E0],"parents":[2147483647,0,0],"right_children":[2,-1,-1],"split_conditions":[5.0072078E-2,-1.7270876E-2,1.5086807E-2],"split_indices":[309,0,0],"split_type":[0,0,0],"sum_hessian":[2.3329678E0,1.0748093E0,1.2581586E0],"tree_param":{"num_deleted":"0","num_feature":"1536","num_nodes":"3","size_leaf_vector":"1"}},{"base_weights":[-1.0784672E-2,1.5236668E-2,-1.7076913E-2],"categories":[],"categories_nodes":[],"categories_segments":[],"categories_sizes":[],"default_left":[0,0,0],"id":120,"left_children":[1,-1,-1],"loss_changes":[4.5000556E-1,0E0,0E0],"parents":[2147483647,0,0],"right_children":[2,-1,-1],"split_conditions":[-1.254143E-1,1.5236668E-2,-1.7076913E-2],"split_indices":[274,0,0],"split_type":[0,0,0],"sum_hessian":[2.3147924E0,1.2249432E0,1.0898491E0],"tree_param":{"num_deleted":"0","num_feature":"1536","num_nodes":"3","size_leaf_vector":"1"}},{"base_weights":[-1.0867065E-2,-1.7267622E-2,1.4956067E-2],"categories":[],"categories_nodes":[],"categories_segments":[],"categories_sizes":[],"default_left":[0,0,0],"id":121,"left_children":[1,-1,-1],"loss_changes":[4.45082E-1,0E0,0E0],"parents":[2147483647,0,0],"right_children":[2,-1,-1],"split_conditions":[1.1096429E-1,-1.7267622E-2,1.4956067E-2],"split_indices":[198,0,0],"split_type":[0,0,0],"sum_hessian":[2.2962768E0,1.0496241E0,1.2466528E0],"tree_param":{"num_deleted":"0","num_feature":"1536","num_nodes":"3","size_leaf_vector":"1"}},{"base_weights":[-1.1096182E-2,-1.5787356E-2,1.6050005E-2],"categories":[],"categories_nodes":[],"categories_segments":[],"categories_sizes":[],"default_left":[0,0,0],"id":122,"left_children":[1,-1,-1],"loss_changes":[4.3293807E-1,0E0,0E0],"parents":[2147483647,0,0],"right_children":[2,-1,-1],"split_conditions":[-4.089159E-3,-1.5787356E-2,1.6050005E-2],"split_indices":[421,0,0],"split_type":[0,0,0],"sum_hessian":[2.2773738E0,1.2134433E0,1.0639307E0],"tree_param":{"num_deleted":"0","num_feature":"1536","num_nodes":"3","size_leaf_vector":"1"}},{"base_weights":[-1.0517683E-2,-1.5937142E-2,1.5843285E-2],"categories":[],"categories_nodes":[],"categories_segments":[],"categories_sizes":[],"default_left":[0,0,0],"id":123,"left_children":[1,-1,-1],"loss_changes":[4.2993844E-1,0E0,0E0],"parents":[2147483647,0,0],"right_children":[2,-1,-1],"split_conditions":[7.164133E-2,-1.5937142E-2,1.5843285E-2],"split_indices":[212,0,0],"split_type":[0,0,0],"sum_hessian":[2.2598057E0,1.177554E0,1.0822518E0],"tree_param":{"num_deleted":"0","num_feature":"1536","num_nodes":"3","size_leaf_vector":"1"}},{"base_weights":[-1.0075384E-2,-1.6893338E-2,1.466804E-2],"categories":[],"categories_nodes":[],"categories_segments":[],"categories_sizes":[],"default_left":[0,0,0],"id":124,"left_children":[1,-1,-1],"loss_changes":[4.216193E-1,0E0,0E0],"parents":[2147483647,0,0],"right_children":[2,-1,-1],"split_conditions":[1.1096429E-1,-1.6893338E-2,1.466804E-2],"split_indices":[198,0,0],"split_type":[0,0,0],"sum_hessian":[2.2424114E0,1.0234E0,1.2190114E0],"tree_param":{"num_deleted":"0","num_feature":"1536","num_nodes":"3","size_leaf_vector":"1"}},{"base_weights":[-1.0322109E-2,-1.6759185E-2,1.4590154E-2],"categories":[],"categories_nodes":[],"categories_segments":[],"categories_sizes":[],"default_left":[0,0,0],"id":125,"left_children":[1,-1,-1],"loss_changes":[4.1427946E-1,0E0,0E0],"parents":[2147483647,0,0],"right_children":[2,-1,-1],"split_conditions":[5.0072078E-2,-1.6759185E-2,1.4590154E-2],"split_indices":[309,0,0],"split_type":[0,0,0],"sum_hessian":[2.2244058E0,1.0191453E0,1.2052606E0],"tree_param":{"num_deleted":"0","num_feature":"1536","num_nodes":"3","size_leaf_vector":"1"}},{"base_weights":[-1.0539964E-2,1.4737678E-2,-1.6490448E-2],"categories":[],"categories_nodes":[],"categories_segments":[],"categories_sizes":[],"default_left":[0,0,0],"id":126,"left_children":[1,-1,-1],"loss_changes":[4.0986016E-1,0E0,0E0],"parents":[2147483647,0,0],"right_children":[2,-1,-1],"split_conditions":[-1.254143E-1,1.4737678E-2,-1.6490448E-2],"split_indices":[274,0,0],"split_type":[0,0,0],"sum_hessian":[2.2076068E0,1.1677548E0,1.039852E0],"tree_param":{"num_deleted":"0","num_feature":"1536","num_nodes":"3","size_leaf_vector":"1"}},{"base_weights":[-1.0621245E-2,-1.5360293E-2,1.563493E-2],"categories":[],"categories_nodes":[],"categories_segments":[],"categories_sizes":[],"default_left":[0,0,0],"id":127,"left_children":[1,-1,-1],"loss_changes":[4.0201318E-1,0E0,0E0],"parents":[2147483647,0,0],"right_children":[2,-1,-1],"split_conditions":[-4.089159E-3,-1.5360293E-2,1.563493E-2],"split_indices":[421,0,0],"split_type":[0,0,0],"sum_hessian":[2.190583E0,1.1685234E0,1.0220596E0],"tree_param":{"num_deleted":"0","num_feature":"1536","num_nodes":"3","size_leaf_vector":"1"}},{"base_weights":[-1.0055931E-2,-1.5436037E-2,1.5320614E-2],"categories":[],"categories_nodes":[],"categories_segments":[],"categories_sizes":[],"default_left":[0,0,0],"id":128,"left_children":[1,-1,-1],"loss_changes":[3.946101E-1,0E0,0E0],"parents":[2147483647,0,0],"right_children":[2,-1,-1],"split_conditions":[7.164133E-2,-1.5436037E-2,1.5320614E-2],"split_indices":[212,0,0],"split_type":[0,0,0],"sum_hessian":[2.1741526E0,1.1311337E0,1.0430189E0],"tree_param":{"num_deleted":"0","num_feature":"1536","num_nodes":"3","size_leaf_vector":"1"}},{"base_weights":[-9.6394E-3,-1.4984921E-2,1.5310002E-2],"categories":[],"categories_nodes":[],"categories_segments":[],"categories_sizes":[],"default_left":[0,0,0],"id":129,"left_children":[1,-1,-1],"loss_changes":[3.8108093E-1,0E0,0E0],"parents":[2147483647,0,0],"right_children":[2,-1,-1],"split_conditions":[-4.089159E-3,-1.4984921E-2,1.5310002E-2],"split_indices":[421,0,0],"split_type":[0,0,0],"sum_hessian":[2.1580262E0,1.1515639E0,1.0064622E0],"tree_param":{"num_deleted":"0","num_feature":"1536","num_nodes":"3","size_leaf_vector":"1"}},{"base_weights":[-9.0994015E-3,-1.5062836E-2,1.5002879E-2],"categories":[],"categories_nodes":[],"categories_segments":[],"categories_sizes":[],"default_left":[0,0,0],"id":130,"left_children":[1,-1,-1],"loss_changes":[3.742205E-1,0E0,0E0],"parents":[2147483647,0,0],"right_children":[2,-1,-1],"split_conditions":[7.164133E-2,-1.5062836E-2,1.5002879E-2],"split_indices":[212,0,0],"split_type":[0,0,0],"sum_hessian":[2.142364E0,1.1146035E0,1.0277605E0],"tree_param":{"num_deleted":"0","num_feature":"1536","num_nodes":"3","size_leaf_vector":"1"}},{"base_weights":[-8.706746E-3,-1.47216385E-2,1.4678838E-2],"categories":[],"categories_nodes":[],"categories_segments":[],"categories_sizes":[],"default_left":[0,0,0],"id":131,"left_children":[1,-1,-1],"loss_changes":[3.5651737E-1,0E0,0E0],"parents":[2147483647,0,0],"right_children":[2,-1,-1],"split_conditions":[7.164133E-2,-1.47216385E-2,1.4678838E-2],"split_indices":[212,0,0],"split_type":[0,0,0],"sum_hessian":[2.1269882E0,1.1067919E0,1.0201963E0],"tree_param":{"num_deleted":"0","num_feature":"1536","num_nodes":"3","size_leaf_vector":"1"}},{"base_weights":[-8.325022E-3,-1.4387223E-2,1.4361106E-2],"categories":[],"categories_nodes":[],"categories_segments":[],"categories_sizes":[],"default_left":[0,0,0],"id":132,"left_children":[1,-1,-1],"loss_changes":[3.3966258E-1,0E0,0E0],"parents":[2147483647,0,0],"right_children":[2,-1,-1],"split_conditions":[7.164133E-2,-1.4387223E-2,1.4361106E-2],"split_indices":[212,0,0],"split_type":[0,0,0],"sum_hessian":[2.1122665E0,1.0993282E0,1.0129383E0],"tree_param":{"num_deleted":"0","num_feature":"1536","num_nodes":"3","size_leaf_vector":"1"}},{"base_weights":[-7.953607E-3,-1.47222E-2,1.3533242E-2],"categories":[],"categories_nodes":[],"categories_segments":[],"categories_sizes":[],"default_left":[0,0,0],"id":133,"left_children":[1,-1,-1],"loss_changes":[3.2699636E-1,0E0,0E0],"parents":[2147483647,0,0],"right_children":[2,-1,-1],"split_conditions":[1.1243005E-1,-1.47222E-2,1.3533242E-2],"split_indices":[198,0,0],"split_type":[0,0,0],"sum_hessian":[2.0981717E0,1.0064677E0,1.091704E0],"tree_param":{"num_deleted":"0","num_feature":"1536","num_nodes":"3","size_leaf_vector":"1"}},{"base_weights":[-7.978945E-3,1.3839321E-2,-1.4411357E-2],"categories":[],"categories_nodes":[],"categories_segments":[],"categories_sizes":[],"default_left":[0,0,0],"id":134,"left_children":[1,-1,-1],"loss_changes":[3.2590896E-1,0E0,0E0],"parents":[2147483647,0,0],"right_children":[2,-1,-1],"split_conditions":[-1.9547544E-1,1.3839321E-2,-1.4411357E-2],"split_indices":[72,0,0],"split_type":[0,0,0],"sum_hessian":[2.0841634E0,1.0398773E0,1.0442861E0],"tree_param":{"num_deleted":"0","num_feature":"1536","num_nodes":"3","size_leaf_vector":"1"}},{"base_weights":[-7.7991146E-3,1.3522905E-2,-1.4493266E-2],"categories":[],"categories_nodes":[],"categories_segments":[],"categories_sizes":[],"default_left":[0,0,0],"id":135,"left_children":[1,-1,-1],"loss_changes":[3.1946126E-1,0E0,0E0],"parents":[2147483647,0,0],"right_children":[2,-1,-1],"split_conditions":[9.9625E-2,1.3522905E-2,-1.4493266E-2],"split_indices":[725,0,0],"split_type":[0,0,0],"sum_hessian":[2.0714E0,1.0634571E0,1.0079428E0],"tree_param":{"num_deleted":"0","num_feature":"1536","num_nodes":"3","size_leaf_vector":"1"}},{"base_weights":[-7.760319E-3,1.3466685E-2,-1.399305E-2],"categories":[],"categories_nodes":[],"categories_segments":[],"categories_sizes":[],"default_left":[0,0,0],"id":136,"left_children":[1,-1,-1],"loss_changes":[3.0597436E-1,0E0,0E0],"parents":[2147483647,0,0],"right_children":[2,-1,-1],"split_conditions":[-1.9547544E-1,1.3466685E-2,-1.399305E-2],"split_indices":[72,0,0],"split_type":[0,0,0],"sum_hessian":[2.0584366E0,1.0248989E0,1.0335377E0],"tree_param":{"num_deleted":"0","num_feature":"1536","num_nodes":"3","size_leaf_vector":"1"}},{"base_weights":[-7.5755343E-3,1.3164832E-2,-1.3680324E-2],"categories":[],"categories_nodes":[],"categories_segments":[],"categories_sizes":[],"default_left":[0,0,0],"id":137,"left_children":[1,-1,-1],"loss_changes":[2.9156303E-1,0E0,0E0],"parents":[2147483647,0,0],"right_children":[2,-1,-1],"split_conditions":[-1.9547544E-1,1.3164832E-2,-1.3680324E-2],"split_indices":[72,0,0],"split_type":[0,0,0],"sum_hessian":[2.0463805E0,1.019057E0,1.0273236E0],"tree_param":{"num_deleted":"0","num_feature":"1536","num_nodes":"3","size_leaf_vector":"1"}},{"base_weights":[-7.3952717E-3,1.3191427E-2,-1.3676809E-2],"categories":[],"categories_nodes":[],"categories_segments":[],"categories_sizes":[],"default_left":[0,0,0],"id":138,"left_children":[1,-1,-1],"loss_changes":[2.9123363E-1,0E0,0E0],"parents":[2147483647,0,0],"right_children":[2,-1,-1],"split_conditions":[6.4780843E-1,1.3191427E-2,-1.3676809E-2],"split_indices":[464,0,0],"split_type":[0,0,0],"sum_hessian":[2.0348513E0,1.012105E0,1.0227463E0],"tree_param":{"num_deleted":"0","num_feature":"1536","num_nodes":"3","size_leaf_vector":"1"}},{"base_weights":[-7.2157145E-3,1.3094268E-2,-1.3489752E-2],"categories":[],"categories_nodes":[],"categories_segments":[],"categories_sizes":[],"default_left":[0,0,0],"id":139,"left_children":[1,-1,-1],"loss_changes":[2.8423786E-1,0E0,0E0],"parents":[2147483647,0,0],"right_children":[2,-1,-1],"split_conditions":[-2.2043456E-1,1.3094268E-2,-1.3489752E-2],"split_indices":[123,0,0],"split_type":[0,0,0],"sum_hessian":[2.022663E0,1.0002316E0,1.0224315E0],"tree_param":{"num_deleted":"0","num_feature":"1536","num_nodes":"3","size_leaf_vector":"1"}},{"base_weights":[-7.0136157E-3,1.2904063E-2,-1.33775165E-2],"categories":[],"categories_nodes":[],"categories_segments":[],"categories_sizes":[],"default_left":[0,0,0],"id":140,"left_children":[1,-1,-1],"loss_changes":[2.7701616E-1,0E0,0E0],"parents":[2147483647,0,0],"right_children":[2,-1,-1],"split_conditions":[-1.9547544E-1,1.2904063E-2,-1.33775165E-2],"split_indices":[72,0,0],"split_type":[0,0,0],"sum_hessian":[2.0110848E0,1.0014939E0,1.0095909E0],"tree_param":{"num_deleted":"0","num_feature":"1536","num_nodes":"3","size_leaf_vector":"1"}},{"base_weights":[-6.8463637E-3,5.822731E-4,-1.0957612E-3],"categories":[],"categories_nodes":[],"categories_segments":[],"categories_sizes":[],"default_left":[0,0,0],"id":141,"left_children":[1,-1,-1],"loss_changes":[1.091183E-3,0E0,0E0],"parents":[2147483647,0,0],"right_children":[2,-1,-1],"split_conditions":[-1.019873E-1,5.822731E-4,-1.0957612E-3],"split_indices":[477,0,0],"split_type":[0,0,0],"sum_hessian":[2.000064E0,1.0000416E0,1.0000223E0],"tree_param":{"num_deleted":"0","num_feature":"1536","num_nodes":"3","size_leaf_vector":"1"}},{"base_weights":[-6.67534E-3],"categories":[],"categories_nodes":[],"categories_segments":[],"categories_sizes":[],"default_left":[0],"id":142,"left_children":[-1],"loss_changes":[0E0],"parents":[2147483647],"right_children":[-1],"split_conditions":[-3.33767E-4],"split_indices":[0],"split_type":[0],"sum_hessian":[2.0000288E0],"tree_param":{"num_deleted":"0","num_feature":"1536","num_nodes":"1","size_leaf_vector":"1"}},{"base_weights":[-6.4527583E-3,3.3551888E-3,-3.8391282E-3],"categories":[],"categories_nodes":[],"categories_segments":[],"categories_sizes":[],"default_left":[0,0,0],"id":143,"left_children":[1,-1,-1],"loss_changes":[2.0672185E-2,0E0,0E0],"parents":[2147483647,0,0],"right_children":[2,-1,-1],"split_conditions":[1.638876E-1,3.3551888E-3,-3.8391282E-3],"split_indices":[318,0,0],"split_type":[0,0,0],"sum_hessian":[2.0000262E0,1.000008E0,1.0000182E0],"tree_param":{"num_deleted":"0","num_feature":"1536","num_nodes":"3","size_leaf_vector":"1"}},{"base_weights":[-6.293188E-3],"categories":[],"categories_nodes":[],"categories_segments":[],"categories_sizes":[],"default_left":[0],"id":144,"left_children":[-1],"loss_changes":[0E0],"parents":[2147483647],"right_children":[-1],"split_conditions":[-3.146594E-4],"split_indices":[0],"split_type":[0],"sum_hessian":[1.9992877E0],"tree_param":{"num_deleted":"0","num_feature":"1536","num_nodes":"1","size_leaf_vector":"1"}},{"base_weights":[-6.0833823E-3],"categories":[],"categories_nodes":[],"categories_segments":[],"categories_sizes":[],"default_left":[0],"id":145,"left_children":[-1],"loss_changes":[0E0],"parents":[2147483647],"right_children":[-1],"split_conditions":[-3.041691E-4],"split_indices":[0],"split_type":[0],"sum_hessian":[1.9992855E0],"tree_param":{"num_deleted":"0","num_feature":"1536","num_nodes":"1","size_leaf_vector":"1"}},{"base_weights":[-5.880567E-3],"categories":[],"categories_nodes":[],"categories_segments":[],"categories_sizes":[],"default_left":[0],"id":146,"left_children":[-1],"loss_changes":[0E0],"parents":[2147483647],"right_children":[-1],"split_conditions":[-2.9402834E-4],"split_indices":[0],"split_type":[0],"sum_hessian":[1.9992833E0],"tree_param":{"num_deleted":"0","num_feature":"1536","num_nodes":"1","size_leaf_vector":"1"}},{"base_weights":[-5.684647E-3],"categories":[],"categories_nodes":[],"categories_segments":[],"categories_sizes":[],"default_left":[0],"id":147,"left_children":[-1],"loss_changes":[0E0],"parents":[2147483647],"right_children":[-1],"split_conditions":[-2.8423234E-4],"split_indices":[0],"split_type":[0],"sum_hessian":[1.9992814E0],"tree_param":{"num_deleted":"0","num_feature":"1536","num_nodes":"1","size_leaf_vector":"1"}},{"base_weights":[-5.49512E-3],"categories":[],"categories_nodes":[],"categories_segments":[],"categories_sizes":[],"default_left":[0],"id":148,"left_children":[-1],"loss_changes":[0E0],"parents":[2147483647],"right_children":[-1],"split_conditions":[-2.74756E-4],"split_indices":[0],"split_type":[0],"sum_hessian":[1.9992799E0],"tree_param":{"num_deleted":"0","num_feature":"1536","num_nodes":"1","size_leaf_vector":"1"}},{"base_weights":[-5.312109E-3],"categories":[],"categories_nodes":[],"categories_segments":[],"categories_sizes":[],"default_left":[0],"id":149,"left_children":[-1],"loss_changes":[0E0],"parents":[2147483647],"right_children":[-1],"split_conditions":[-2.6560546E-4],"split_indices":[0],"split_type":[0],"sum_hessian":[1.9992782E0],"tree_param":{"num_deleted":"0","num_feature":"1536","num_nodes":"1","size_leaf_vector":"1"}},{"base_weights":[-5.135115E-3],"categories":[],"categories_nodes":[],"categories_segments":[],"categories_sizes":[],"default_left":[0],"id":150,"left_children":[-1],"loss_changes":[0E0],"parents":[2147483647],"right_children":[-1],"split_conditions":[-2.5675574E-4],"split_indices":[0],"split_type":[0],"sum_hessian":[1.9992765E0],"tree_param":{"num_deleted":"0","num_feature":"1536","num_nodes":"1","size_leaf_vector":"1"}},{"base_weights":[-4.963888E-3],"categories":[],"categories_nodes":[],"categories_segments":[],"categories_sizes":[],"default_left":[0],"id":151,"left_children":[-1],"loss_changes":[0E0],"parents":[2147483647],"right_children":[-1],"split_conditions":[-2.481944E-4],"split_indices":[0],"split_type":[0],"sum_hessian":[1.9992754E0],"tree_param":{"num_deleted":"0","num_feature":"1536","num_nodes":"1","size_leaf_vector":"1"}},{"base_weights":[-4.7985734E-3],"categories":[],"categories_nodes":[],"categories_segments":[],"categories_sizes":[],"default_left":[0],"id":152,"left_children":[-1],"loss_changes":[0E0],"parents":[2147483647],"right_children":[-1],"split_conditions":[-2.3992868E-4],"split_indices":[0],"split_type":[0],"sum_hessian":[1.9992739E0],"tree_param":{"num_deleted":"0","num_feature":"1536","num_nodes":"1","size_leaf_vector":"1"}},{"base_weights":[-4.6387543E-3],"categories":[],"categories_nodes":[],"categories_segments":[],"categories_sizes":[],"default_left":[0],"id":153,"left_children":[-1],"loss_changes":[0E0],"parents":[2147483647],"right_children":[-1],"split_conditions":[-2.3193772E-4],"split_indices":[0],"split_type":[0],"sum_hessian":[1.9992727E0],"tree_param":{"num_deleted":"0","num_feature":"1536","num_nodes":"1","size_leaf_vector":"1"}},{"base_weights":[-4.483956E-3],"categories":[],"categories_nodes":[],"categories_segments":[],"categories_sizes":[],"default_left":[0],"id":154,"left_children":[-1],"loss_changes":[0E0],"parents":[2147483647],"right_children":[-1],"split_conditions":[-2.2419779E-4],"split_indices":[0],"split_type":[0],"sum_hessian":[1.9992723E0],"tree_param":{"num_deleted":"0","num_feature":"1536","num_nodes":"1","size_leaf_vector":"1"}},{"base_weights":[-4.334564E-3],"categories":[],"categories_nodes":[],"categories_segments":[],"categories_sizes":[],"default_left":[0],"id":155,"left_children":[-1],"loss_changes":[0E0],"parents":[2147483647],"right_children":[-1],"split_conditions":[-2.167282E-4],"split_indices":[0],"split_type":[0],"sum_hessian":[1.9992715E0],"tree_param":{"num_deleted":"0","num_feature":"1536","num_nodes":"1","size_leaf_vector":"1"}},{"base_weights":[-4.190071E-3],"categories":[],"categories_nodes":[],"categories_segments":[],"categories_sizes":[],"default_left":[0],"id":156,"left_children":[-1],"loss_changes":[0E0],"parents":[2147483647],"right_children":[-1],"split_conditions":[-2.0950356E-4],"split_indices":[0],"split_type":[0],"sum_hessian":[1.9992709E0],"tree_param":{"num_deleted":"0","num_feature":"1536","num_nodes":"1","size_leaf_vector":"1"}},{"base_weights":[-4.0503717E-3],"categories":[],"categories_nodes":[],"categories_segments":[],"categories_sizes":[],"default_left":[0],"id":157,"left_children":[-1],"loss_changes":[0E0],"parents":[2147483647],"right_children":[-1],"split_conditions":[-2.0251858E-4],"split_indices":[0],"split_type":[0],"sum_hessian":[1.9992702E0],"tree_param":{"num_deleted":"0","num_feature":"1536","num_nodes":"1","size_leaf_vector":"1"}},{"base_weights":[-3.9154617E-3],"categories":[],"categories_nodes":[],"categories_segments":[],"categories_sizes":[],"default_left":[0],"id":158,"left_children":[-1],"loss_changes":[0E0],"parents":[2147483647],"right_children":[-1],"split_conditions":[-1.9577309E-4],"split_indices":[0],"split_type":[0],"sum_hessian":[1.9992696E0],"tree_param":{"num_deleted":"0","num_feature":"1536","num_nodes":"1","size_leaf_vector":"1"}},{"base_weights":[-3.7850097E-3],"categories":[],"categories_nodes":[],"categories_segments":[],"categories_sizes":[],"default_left":[0],"id":159,"left_children":[-1],"loss_changes":[0E0],"parents":[2147483647],"right_children":[-1],"split_conditions":[-1.892505E-4],"split_indices":[0],