{"learner":{"attributes":{"scikit_learn":"{\"_estimator_type\": \"classifier\"}"},"feature_names":[],"feature_types":[],"gradient_booster":{"model":{"cats":{"enc":[],"feature_segments":[],"sorted_idx":[]},"gbtree_model_param":{"num_parallel_tree":"1","num_trees":"2400"},"iteration_indptr":[0,8,16,24,32,40,48,56,64,72,80,88,96,104,112,120,128,136,144,152,160,168,176,184,192,200,208,216,224,232,240,248,256,264,272,280,288,296,304,312,320,328,336,344,352,360,368,376,384,392,400,408,416,424,432,440,448,456,464,472,480,488,496,504,512,520,528,536,544,552,560,568,576,584,592,600,608,616,624,632,640,648,656,664,672,680,688,696,704,712,720,728,736,744,752,760,768,776,784,792,800,808,816,824,832,840,848,856,864,872,880,888,896,904,912,920,928,936,944,952,960,968,976,984,992,1000,1008,1016,1024,1032,1040,1048,1056,1064,1072,1080,1088,1096,1104,1112,1120,1128,1136,1144,1152,1160,1168,1176,1184,1192,1200,1208,1216,1224,1232,1240,1248,1256,1264,1272,1280,1288,1296,1304,1312,1320,1328,1336,1344,1352,1360,1368,1376,1384,1392,1400,1408,1416,1424,1432,1440,1448,1456,1464,1472,1480,1488,1496,1504,1512,1520,1528,1536,1544,1552,1560,1568,1576,1584,1592,1600,1608,1616,1624,1632,1640,1648,1656,1664,1672,1680,1688,1696,1704,1712,1720,1728,1736,1744,1752,1760,1768,1776,1784,1792,1800,1808,1816,1824,1832,1840,1848,1856,1864,1872,1880,1888,1896,1904,1912,1920,1928,1936,1944,1952,1960,1968,1976,1984,1992,2000,2008,2016,2024,2032,2040,2048,2056,2064,2072,2080,2088,2096,2104,2112,2120,2128,2136,2144,2152,2160,2168,2176,2184,2192,2200,2208,2216,2224,2232,2240,2248,2256,2264,2272,2280,2288,2296,2304,2312,2320,2328,2336,2344,2352,2360,2368,2376,2384,2392,2400],"tree_info":[0,1,2,3,4,5,6,7,0,1,2,3,4,5,6,7,0,1,2,3,4,5,6,7,0,1,2,3,4,5,6,7,0,1,2,3,4,5,6,7,0,1,2,3,4,5,6,7,0,1,2,3,4,5,6,7,0,1,2,3,4,5,6,7,0,1,2,3,4,5,6,7,0,1,2,3,4,5,6,7,0,1,2,3,4,5,6,7,0,1,2,3,4,5,6,7,0,1,2,3,4,5,6,7,0,1,2,3,4,5,6,7,0,1,2,3,4,5,6,7,0,1,2,3,4,5,6,7,0,1,2,3,4,5,6,7,0,1,2,3,4,5,6,7,0,1,2,3,4,5,6,7,0,1,2,3,4,5,6,7,0,1,2,3,4,5,6,7,0,1,2,3,4,5,6,7,0,1,2,3,4,5,6,7,0,1,2,3,4,5,6,7,0,1,2,3,4,5,6,7,0,1,2,3,4,5,6,7,0,1,2,3,4,5,6,7,0,1,2,3,4,5,6,7,0,1,2,3,4,5,6,7,0,1,2,3,4,5,6,7,0,1,2,3,4,5,6,7,0,1,2,3,4,5,6,7,0,1,2,3,4,5,6,7,0,1,2,3,4,5,6,7,0,1,2,3,4,5,6,7,0,1,2,3,4,5,6,7,0,1,2,3,4,5,6,7,0,1,2,3,4,5,6,7,0,1,2,3,4,5,6,7,0,1,2,3,4,5,6,7,0,1,2,3,4,5,6,7,0,1,2,3,4,5,6,7,0,1,2,3,4,5,6,7,0,1,2,3,4,5,6,7,0,1,2,3,4,5,6,7,0,1,2,3,4,5,6,7,0,1,2,3,4,5,6,7,0,1,2,3,4,5,6,7,0,1,2,3,4,5,6,7,0,1,2,3,4,5,6,7,0,1,2,3,4,5,6,7,0,1,2,3,4,5,6,7,0,1,2,3,4,5,6,7,0,1,2,3,4,5,6,7,0,1,2,3,4,5,6,7,0,1,2,3,4,5,6,7,0,1,2,3,4,5,6,7,0,1,2,3,4,5,6,7,0,1,2,3,4,5,6,7,0,1,2,3,4,5,6,7,0,1,2,3,4,5,6,7,0,1,2,3,4,5,6,7,0,1,2,3,4,5,6,7,0,1,2,3,4,5,6,7,0,1,2,3,4,5,6,7,0,1,2,3,4,5,6,7,0,1,2,3,4,5,6,7,0,1,2,3,4,5,6,7,0,1,2,3,4,5,6,7,0,1,2,3,4,5,6,7,0,1,2,3,4,5,6,7,0,1,2,3,4,5,6,7,0,1,2,3,4,5,6,7,0,1,2,3,4,5,6,7,0,1,2,3,4,5,6,7,0,1,2,3,4,5,6,7,0,1,2,3,4,5,6,7,0,1,2,3,4,5,6,7,0,1,2,3,4,5,6,7,0,1,2,3,4,5,6,7,0,1,2,3,4,5,6,7,0,1,2,3,4,5,6,7,0,1,2,3,4,5,6,7,0,1,2,3,4,5,6,7,0,1,2,3,4,5,6,7,0,1,2,3,4,5,6,7,0,1,2,3,4,5,6,7,0,1,2,3,4,5,6,7,0,1,2,3,4,5,6,7,0,1,2,3,4,5,6,7,0,1,2,3,4,5,6,7,0,1,2,3,4,5,6,7,0,1,2,3,4,5,6,7,0,1,2,3,4,5,6,7,0,1,2,3,4,5,6,7,0,1,2,3,4,5,6,7,0,1,2,3,4,5,6,7,0,1,2,3,4,5,6,7,0,1,2,3,4,5,6,7,0,1,2,3,4,5,6,7,0,1,2,3,4,5,6,7,0,1,2,3,4,5,6,7,0,1,2,3,4,5,6,7,0,1,2,3,4,5,6,7,0,1,2,3,4,5,6,7,0,1,2,3,4,5,6,7,0,1,2,3,4,5,6,7,0,1,2,3,4,5,6,7,0,1,2,3,4,5,6,7,0,1,2,3,4,5,6,7,0,1,2,3,4,5,6,7,0,1,2,3,4,5,6,7,0,1,2,3,4,5,6,7,0,1,2,3,4,5,6,7,0,1,2,3,4,5,6,7,0,1,2,3,4,5,6,7,0,1,2,3,4,5,6,7,0,1,2,3,4,5,6,7,0,1,2,3,4,5,6,7,0,1,2,3,4,5,6,7,0,1,2,3,4,5,6,7,0,1,2,3,4,5,6,7,0,1,2,3,4,5,6,7,0,1,2,3,4,5,6,7,0,1,2,3,4,5,6,7,0,1,2,3,4,5,6,7,0,1,2,3,4,5,6,7,0,1,2,3,4,5,6,7,0,1,2,3,4,5,6,7,0,1,2,3,4,5,6,7,0,1,2,3,4,5,6,7,0,1,2,3,4,5,6,7,0,1,2,3,4,5,6,7,0,1,2,3,4,5,6,7,0,1,2,3,4,5,6,7,0,1,2,3,4,5,6,7,0,1,2,3,4,5,6,7,0,1,2,3,4,5,6,7,0,1,2,3,4,5,6,7,0,1,2,3,4,5,6,7,0,1,2,3,4,5,6,7,0,1,2,3,4,5,6,7,0,1,2,3,4,5,6,7,0,1,2,3,4,5,6,7,0,1,2,3,4,5,6,7,0,1,2,3,4,5,6,7,0,1,2,3,4,5,6,7,0,1,2,3,4,5,6,7,0,1,2,3,4,5,6,7,0,1,2,3,4,5,6,7,0,1,2,3,4,5,6,7,0,1,2,3,4,5,6,7,0,1,2,3,4,5,6,7,0,1,2,3,4,5,6,7,0,1,2,3,4,5,6,7,0,1,2,3,4,5,6,7,0,1,2,3,4,5,6,7,0,1,2,3,4,5,6,7,0,1,2,3,4,5,6,7,0,1,2,3,4,5,6,7,0,1,2,3,4,5,6,7,0,1,2,3,4,5,6,7,0,1,2,3,4,5,6,7,0,1,2,3,4,5,6,7,0,1,2,3,4,5,6,7,0,1,2,3,4,5,6,7,0,1,2,3,4,5,6,7,0,1,2,3,4,5,6,7,0,1,2,3,4,5,6,7,0,1,2,3,4,5,6,7,0,1,2,3,4,5,6,7,0,1,2,3,4,5,6,7,0,1,2,3,4,5,6,7,0,1,2,3,4,5,6,7,0,1,2,3,4,5,6,7,0,1,2,3,4,5,6,7,0,1,2,3,4,5,6,7,0,1,2,3,4,5,6,7,0,1,2,3,4,5,6,7,0,1,2,3,4,5,6,7,0,1,2,3,4,5,6,7,0,1,2,3,4,5,6,7,0,1,2,3,4,5,6,7,0,1,2,3,4,5,6,7,0,1,2,3,4,5,6,7,0,1,2,3,4,5,6,7,0,1,2,3,4,5,6,7,0,1,2,3,4,5,6,7,0,1,2,3,4,5,6,7,0,1,2,3,4,5,6,7,0,1,2,3,4,5,6,7,0,1,2,3,4,5,6,7,0,1,2,3,4,5,6,7,0,1,2,3,4,5,6,7,0,1,2,3,4,5,6,7,0,1,2,3,4,5,6,7,0,1,2,3,4,5,6,7,0,1,2,3,4,5,6,7,0,1,2,3,4,5,6,7,0,1,2,3,4,5,6,7,0,1,2,3,4,5,6,7,0,1,2,3,4,5,6,7,0,1,2,3,4,5,6,7,0,1,2,3,4,5,6,7,0,1,2,3,4,5,6,7,0,1,2,3,4,5,6,7,0,1,2,3,4,5,6,7,0,1,2,3,4,5,6,7,0,1,2,3,4,5,6,7,0,1,2,3,4,5,6,7,0,1,2,3,4,5,6,7,0,1,2,3,4,5,6,7,0,1,2,3,4,5,6,7,0,1,2,3,4,5,6,7,0,1,2,3,4,5,6,7,0,1,2,3,4,5,6,7,0,1,2,3,4,5,6,7,0,1,2,3,4,5,6,7,0,1,2,3,4,5,6,7,0,1,2,3,4,5,6,7,0,1,2,3,4,5,6,7,0,1,2,3,4,5,6,7,0,1,2,3,4,5,6,7,0,1,2,3,4,5,6,7,0,1,2,3,4,5,6,7,0,1,2,3,4,5,6,7,0,1,2,3,4,5,6,7,0,1,2,3,4,5,6,7,0,1,2,3,4,5,6,7,0,1,2,3,4,5,6,7,0,1,2,3,4,5,6,7,0,1,2,3,4,5,6,7,0,1,2,3,4,5,6,7,0,1,2,3,4,5,6,7,0,1,2,3,4,5,6,7,0,1,2,3,4,5,6,7,0,1,2,3,4,5,6,7,0,1,2,3,4,5,6,7,0,1,2,3,4,5,6,7,0,1,2,3,4,5,6,7,0,1,2,3,4,5,6,7,0,1,2,3,4,5,6,7,0,1,2,3,4,5,6,7,0,1,2,3,4,5,6,7,0,1,2,3,4,5,6,7,0,1,2,3,4,5,6,7,0,1,2,3,4,5,6,7,0,1,2,3,4,5,6,7,0,1,2,3,4,5,6,7,0,1,2,3,4,5,6,7,0,1,2,3,4,5,6,7,0,1,2,3,4,5,6,7,0,1,2,3,4,5,6,7,0,1,2,3,4,5,6,7,0,1,2,3,4,5,6,7,0,1,2,3,4,5,6,7,0,1,2,3,4,5,6,7,0,1,2,3,4,5,6,7,0,1,2,3,4,5,6,7,0,1,2,3,4,5,6,7,0,1,2,3,4,5,6,7,0,1,2,3,4,5,6,7,0,1,2,3,4,5,6,7,0,1,2,3,4,5,6,7,0,1,2,3,4,5,6,7,0,1,2,3,4,5,6,7,0,1,2,3,4,5,6,7,0,1,2,3,4,5,6,7,0,1,2,3,4,5,6,7,0,1,2,3,4,5,6,7,0,1,2,3,4,5,6,7,0,1,2,3,4,5,6,7,0,1,2,3,4,5,6,7,0,1,2,3,4,5,6,7,0,1,2,3,4,5,6,7,0,1,2,3,4,5,6,7,0,1,2,3,4,5,6,7,0,1,2,3,4,5,6,7,0,1,2,3,4,5,6,7,0,1,2,3,4,5,6,7,0,1,2,3,4,5,6,7,0,1,2,3,4,5,6,7,0,1,2,3,4,5,6,7,0,1,2,3,4,5,6,7,0,1,2,3,4,5,6,7,0,1,2,3,4,5,6,7,0,1,2,3,4,5,6,7,0,1,2,3,4,5,6,7,0,1,2,3,4,5,6,7,0,1,2,3,4,5,6,7,0,1,2,3,4,5,6,7,0,1,2,3,4,5,6,7,0,1,2,3,4,5,6,7,0,1,2,3,4,5,6,7,0,1,2,3,4,5,6,7,0,1,2,3,4,5,6,7,0,1,2,3,4,5,6,7,0,1,2,3,4,5,6,7,0,1,2,3,4,5,6,7,0,1,2,3,4,5,6,7],"trees":[{"base_weights":[-3.7538523E-6,2.915069E0,-3.1318083E-1,4.2965576E-1,-9.628302E-3,1.9168E-1,-4.024561E-2],"categories":[],"categories_nodes":[],"categories_segments":[],"categories_sizes":[],"default_left":[0,0,0,0,0,0,0],"id":0,"left_children":[1,3,5,-1,-1,-1,-1],"loss_changes":[2.796274E2,1.24028885E2,5.583381E1,0E0,0E0,0E0,0E0],"parents":[2147483647,0,0,1,1,2,2],"right_children":[2,4,6,-1,-1,-1,-1],"split_conditions":[2.1985549E-1,9.132025E-1,-4.6933162E-1,4.2965576E-1,-9.628302E-3,1.9168E-1,-4.024561E-2],"split_indices":[342,1060,597,0,0,0,0],"split_type":[0,0,0,0,0,0,0],"sum_hessian":[3.042953E2,2.8714138E1,2.7558115E2,1.9391367E1,9.322772E0,9.819987E0,2.6576117E2],"tree_param":{"num_deleted":"0","num_feature":"1536","num_nodes":"7","size_leaf_vector":"1"}},{"base_weights":[2.5177428E-7,-3.1322563E-1,2.2320337E0,-4.53595E-2,7.6716535E-2,2.7606344E-1,3.1847473E-2],"categories":[],"categories_nodes":[],"categories_segments":[],"categories_sizes":[],"default_left":[0,0,0,0,0,0,0],"id":1,"left_children":[1,3,5,-1,-1,-1,-1],"loss_changes":[3.9755325E2,7.597187E1,6.99043E1,0E0,0E0,0E0,0E0],"parents":[2147483647,0,0,1,1,2,2],"right_children":[2,4,6,-1,-1,-1,-1],"split_conditions":[-9.4392985E-2,1.4952222E-1,-1.1256543E-1,-4.53595E-2,7.6716535E-2,2.7606344E-1,3.1847473E-2],"split_indices":[298,371,90,0,0,0,0],"split_type":[0,0,0,0,0,0,0],"sum_hessian":[5.666395E2,4.9766135E2,6.897818E1,4.4095108E2,5.6710247E1,5.370113E1,1.5277046E1],"tree_param":{"num_deleted":"0","num_feature":"1536","num_nodes":"7","size_leaf_vector":"1"}},{"base_weights":[2.5177428E-7,-1.2445454E-1,1.1167781E0,2.128358E-2,-3.7708536E-2,1.850108E-1,-6.838704E-3],"categories":[],"categories_nodes":[],"categories_segments":[],"categories_sizes":[],"default_left":[0,0,0,0,0,0,0],"id":2,"left_children":[1,3,5,-1,-1,-1,-1],"loss_changes":[7.903427E1,4.3675682E1,4.967997E1,0E0,0E0,0E0,0E0],"parents":[2147483647,0,0,1,1,2,2],"right_children":[2,4,6,-1,-1,-1,-1],"split_conditions":[8.065217E-1,6.35946E-1,8.171913E0,2.128358E-2,-3.7708536E-2,1.850108E-1,-6.838704E-3],"split_indices":[1261,969,865,0,0,0,0],"split_type":[0,0,0,0,0,0,0],"sum_hessian":[5.666395E2,5.106237E2,5.6015835E1,2.1873952E2,2.9188416E2,3.4257618E1,2.1758217E1],"tree_param":{"num_deleted":"0","num_feature":"1536","num_nodes":"7","size_leaf_vector":"1"}},{"base_weights":[3.0709126E-7,8.300332E-1,-2.2906287E-1,1.3902684E-1,1.2134851E-2,-4.25733E-2,2.144808E-2],"categories":[],"categories_nodes":[],"categories_segments":[],"categories_sizes":[],"default_left":[0,0,0,0,0,0,0],"id":3,"left_children":[1,3,5,-1,-1,-1,-1],"loss_changes":[1.0783657E2,4.8534645E1,3.8866165E1,0E0,0E0,0E0,0E0],"parents":[2147483647,0,0,1,1,2,2],"right_children":[2,4,6,-1,-1,-1,-1],"split_conditions":[-3.589532E-1,-6.340566E-1,6.547105E-1,1.3902684E-1,1.2134851E-2,-4.25733E-2,2.144808E-2],"split_indices":[86,674,969,0,0,0,0],"split_type":[0,0,0,0,0,0,0],"sum_hessian":[5.651729E2,1.2166917E2,4.4350375E2,6.741441E1,5.4254753E1,3.0728967E2,1.3621407E2],"tree_param":{"num_deleted":"0","num_feature":"1536","num_nodes":"7","size_leaf_vector":"1"}},{"base_weights":[3.0709126E-7,1.4271832E0,-3.151278E-1,3.8294937E-2,2.7743205E-1,1.660217E-1,-3.7015863E-2],"categories":[],"categories_nodes":[],"categories_segments":[],"categories_sizes":[],"default_left":[0,0,0,0,0,0,0],"id":4,"left_children":[1,3,5,-1,-1,-1,-1],"loss_changes":[2.5508342E2,1.432443E2,5.111768E1,0E0,0E0,0E0,0E0],"parents":[2147483647,0,0,1,1,2,2],"right_children":[2,4,6,-1,-1,-1,-1],"split_conditions":[-3.417054E-1,9.3501374E-2,4.677271E-1,3.8294937E-2,2.7743205E-1,1.660217E-1,-3.7015863E-2],"split_indices":[723,522,928,0,0,0,0],"split_type":[0,0,0,0,0,0,0],"sum_hessian":[5.651729E2,1.0158337E2,4.6358954E2,5.7948692E1,4.3634674E1,1.1774436E1,4.5181512E2],"tree_param":{"num_deleted":"0","num_feature":"1536","num_nodes":"7","size_leaf_vector":"1"}},{"base_weights":[3.0709126E-7,-1.8617137E-1,2.242319E0,6.2239785E-2,-3.4876924E-2,5.2128132E-2,3.131059E-1],"categories":[],"categories_nodes":[],"categories_segments":[],"categories_sizes":[],"default_left":[0,0,0,0,0,0,0],"id":5,"left_children":[1,3,5,-1,-1,-1,-1],"loss_changes":[2.3676985E2,6.9067795E1,6.487335E1,0E0,0E0,0E0,0E0],"parents":[2147483647,0,0,1,1,2,2],"right_children":[2,4,6,-1,-1,-1,-1],"split_conditions":[2.3745392E-1,6.6182244E-1,6.2966174E-1,6.2239785E-2,-3.4876924E-2,5.2128132E-2,3.131059E-1],"split_indices":[601,1040,571,0,0,0,0],"split_type":[0,0,0,0,0,0,0],"sum_hessian":[5.651729E2,5.226926E2,4.2480316E1,8.7038475E1,4.356541E2,1.5006634E1,2.7473684E1],"tree_param":{"num_deleted":"0","num_feature":"1536","num_nodes":"7","size_leaf_vector":"1"}},{"base_weights":[2.5177428E-7,-3.059229E-1,9.480698E-1,-4.473963E-2,1.4967616E-2,1.6701212E-2,2.111843E-1],"categories":[],"categories_nodes":[],"categories_segments":[],"categories_sizes":[],"default_left":[0,0,0,0,0,0,0],"id":6,"left_children":[1,3,5,-1,-1,-1,-1],"loss_changes":[1.6492615E2,2.7777176E1,1.2574457E2,0E0,0E0,0E0,0E0],"parents":[2147483647,0,0,1,1,2,2],"right_children":[2,4,6,-1,-1,-1,-1],"split_conditions":[1.0324045E0,1.0945394E0,-4.0808088E-1,-4.473963E-2,1.4967616E-2,1.6701212E-2,2.111843E-1],"split_indices":[1042,1082,89,0,0,0,0],"split_type":[0,0,0,0,0,0,0],"sum_hessian":[5.666395E2,4.2891464E2,1.3772488E2,3.2729913E2,1.016155E2,8.309787E1,5.4627014E1],"tree_param":{"num_deleted":"0","num_feature":"1536","num_nodes":"7","size_leaf_vector":"1"}},{"base_weights":[3.0709126E-7,-4.377269E-1,8.7474346E-1,1.976951E-1,-4.683457E-2,1.9083416E-1,9.790667E-3],"categories":[],"categories_nodes":[],"categories_segments":[],"categories_sizes":[],"default_left":[0,0,0,0,0,0,0],"id":7,"left_children":[1,3,5,-1,-1,-1,-1],"loss_changes":[2.1716989E2,2.8874062E1,1.5169681E2,0E0,0E0,0E0,0E0],"parents":[2147483647,0,0,1,1,2,2],"right_children":[2,4,6,-1,-1,-1,-1],"split_conditions":[-4.4760253E-2,-4.7965983E-1,-2.0952995E-1,1.976951E-1,-4.683457E-2,1.9083416E-1,9.790667E-3],"split_indices":[682,98,215,0,0,0,0],"split_type":[0,0,0,0,0,0,0],"sum_hessian":[5.651729E2,3.7701282E2,1.881601E2,3.9248118E0,3.73088E2,8.0112335E1,1.0804776E2],"tree_param":{"num_deleted":"0","num_feature":"1536","num_nodes":"7","size_leaf_vector":"1"}},{"base_weights":[-1.6355445E-3,1.7354671E0,-3.888409E-1,-1.7631318E-2,2.3940884E-1,1.2733601E-1,-4.734429E-2],"categories":[],"categories_nodes":[],"categories_segments":[],"categories_sizes":[],"default_left":[0,0,0,0,0,0,0],"id":8,"left_children":[1,3,5,-1,-1,-1,-1],"loss_changes":[2.0632274E2,7.082318E1,3.5876183E1,0E0,0E0,0E0,0E0],"parents":[2147483647,0,0,1,1,2,2],"right_children":[2,4,6,-1,-1,-1,-1],"split_conditions":[2.3887843E-1,1.1255153E0,-4.442578E-1,-1.7631318E-2,2.3940884E-1,1.2733601E-1,-4.734429E-2],"split_indices":[342,1278,597,0,0,0,0],"split_type":[0,0,0,0,0,0,0],"sum_hessian":[3.0474365E2,5.4912056E1,2.498316E2,1.425791E1,4.0654144E1,1.1419427E1,2.3841217E2],"tree_param":{"num_deleted":"0","num_feature":"1536","num_nodes":"7","size_leaf_vector":"1"}},{"base_weights":[-6.418994E-4,-3.0380076E-1,1.7859432E0,-5.0384533E-2,4.1119885E-2,2.0585556E-1,-3.31786E-2],"categories":[],"categories_nodes":[],"categories_segments":[],"categories_sizes":[],"default_left":[0,0,0,0,0,0,0],"id":9,"left_children":[1,3,5,-1,-1,-1,-1],"loss_changes":[3.078104E2,6.970178E1,4.8280396E1,0E0,0E0,0E0,0E0],"parents":[2147483647,0,0,1,1,2,2],"right_children":[2,4,6,-1,-1,-1,-1],"split_conditions":[-9.4392985E-2,2.0468554E-1,5.9779596E-2,-5.0384533E-2,4.1119885E-2,2.0585556E-1,-3.31786E-2],"split_indices":[298,328,169,0,0,0,0],"split_type":[0,0,0,0,0,0,0],"sum_hessian":[5.6631354E2,4.8486807E2,8.144547E1,3.7909824E2,1.05769844E2,7.218158E1,9.263898E0],"tree_param":{"num_deleted":"0","num_feature":"1536","num_nodes":"7","size_leaf_vector":"1"}},{"base_weights":[7.5723947E-4,-1.6110185E-1,7.473682E-1,-2.2258444E-2,1.3142055E-1,-1.9562446E-2,1.2389938E-1],"categories":[],"categories_nodes":[],"categories_segments":[],"categories_sizes":[],"default_left":[0,0,0,0,0,0,0],"id":10,"left_children":[1,3,5,-1,-1,-1,-1],"loss_changes":[6.860459E1,4.2612324E1,4.7133453E1,0E0,0E0,0E0,0E0],"parents":[2147483647,0,0,1,1,2,2],"right_children":[2,4,6,-1,-1,-1,-1],"split_conditions":[7.979044E-1,4.7264054E-1,2.1394475E0,-2.2258444E-2,1.3142055E-1,-1.9562446E-2,1.2389938E-1],"split_indices":[1261,529,600,0,0,0,0],"split_type":[0,0,0,0,0,0,0],"sum_hessian":[5.657074E2,4.6556168E2,1.00145706E2,4.4775104E2,1.7810637E1,3.4524994E1,6.562071E1],"tree_param":{"num_deleted":"0","num_feature":"1536","num_nodes":"7","size_leaf_vector":"1"}},{"base_weights":[5.7422504E-4,6.367225E-1,-2.5794187E-1,-3.20766E-2,9.803102E-2,-3.0135436E-2,1.4595951E-1],"categories":[],"categories_nodes":[],"categories_segments":[],"categories_sizes":[],"default_left":[0,0,0,0,0,0,0],"id":11,"left_children":[1,3,5,-1,-1,-1,-1],"loss_changes":[9.313939E1,5.4152008E1,3.046659E1,0E0,0E0,0E0,0E0],"parents":[2147483647,0,0,1,1,2,2],"right_children":[2,4,6,-1,-1,-1,-1],"split_conditions":[-3.4850442E-1,-4.5578608E-1,6.4869267E-1,-3.20766E-2,9.803102E-2,-3.0135436E-2,1.4595951E-1],"split_indices":[86,114,1342,0,0,0,0],"split_type":[0,0,0,0,0,0,0],"sum_hessian":[5.643546E2,1.626493E2,4.0170532E2,4.2969906E1,1.19679405E2,3.9260632E2,9.098981E0],"tree_param":{"num_deleted":"0","num_feature":"1536","num_nodes":"7","size_leaf_vector":"1"}},{"base_weights":[-1.12282905E-4,1.2096137E0,-3.0547798E-1,2.1789971E-1,2.3365865E-2,-3.754871E-2,1.0744329E-1],"categories":[],"categories_nodes":[],"categories_segments":[],"categories_sizes":[],"default_left":[0,0,0,0,0,0,0],"id":12,"left_children":[1,3,5,-1,-1,-1,-1],"loss_changes":[2.0928917E2,1.0752132E2,4.4104588E1,0E0,0E0,0E0,0E0],"parents":[2147483647,0,0,1,1,2,2],"right_children":[2,4,6,-1,-1,-1,-1],"split_conditions":[-3.417054E-1,-3.3419994E-1,1.8486835E-1,2.1789971E-1,2.3365865E-2,-3.754871E-2,1.0744329E-1],"split_indices":[723,11,103,0,0,0,0],"split_type":[0,0,0,0,0,0,0],"sum_hessian":[5.6455133E2,1.1318811E2,4.513632E2,5.6166817E1,5.7021294E1,4.3026196E2,2.1101242E1],"tree_param":{"num_deleted":"0","num_feature":"1536","num_nodes":"7","size_leaf_vector":"1"}},{"base_weights":[1.5161779E-4,-2.167072E-1,1.5088629E0,3.5942577E-2,-3.793294E-2,-4.67079E-2,1.957576E-1],"categories":[],"categories_nodes":[],"categories_segments":[],"categories_sizes":[],"default_left":[0,0,0,0,0,0,0],"id":13,"left_children":[1,3,5,-1,-1,-1,-1],"loss_changes":[1.8532481E2,4.6537308E1,6.4030075E1,0E0,0E0,0E0,0E0],"parents":[2147483647,0,0,1,1,2,2],"right_children":[2,4,6,-1,-1,-1,-1],"split_conditions":[2.2164828E-1,4.3612862E-1,-3.226795E-1,3.5942577E-2,-3.793294E-2,-4.67079E-2,1.957576E-1],"split_indices":[601,1385,11,0,0,0,0],"split_type":[0,0,0,0,0,0,0],"sum_hessian":[5.64436E2,4.9424997E2,7.0186035E1,1.0853286E2,3.857171E2,1.2981237E1,5.7204796E1],"tree_param":{"num_deleted":"0","num_feature":"1536","num_nodes":"7","size_leaf_vector":"1"}},{"base_weights":[2.1317531E-4,-2.9643267E-1,8.3552766E-1,-4.3886464E-2,1.4132558E-2,2.0102444E-1,2.8186142E-2],"categories":[],"categories_nodes":[],"categories_segments":[],"categories_sizes":[],"default_left":[0,0,0,0,0,0,0],"id":14,"left_children":[1,3,5,-1,-1,-1,-1],"loss_changes":[1.4073656E2,2.6194447E1,9.624039E1,0E0,0E0,0E0,0E0],"parents":[2147483647,0,0,1,1,2,2],"right_children":[2,4,6,-1,-1,-1,-1],"split_conditions":[1.0324045E0,1.0945394E0,1.4873327E-1,-4.3886464E-2,1.4132558E-2,2.0102444E-1,2.8186142E-2],"split_indices":[1042,1082,397,0,0,0,0],"split_type":[0,0,0,0,0,0,0],"sum_hessian":[5.659617E2,4.1811966E2,1.4784203E2,3.154728E2,1.0264685E2,4.6516636E1,1.01325386E2],"tree_param":{"num_deleted":"0","num_feature":"1536","num_nodes":"7","size_leaf_vector":"1"}},{"base_weights":[-5.7742323E-5,-4.288286E-1,7.7178395E-1,1.6784583E-1,-4.60099E-2,1.4680597E-1,-1.2741069E-2],"categories":[],"categories_nodes":[],"categories_segments":[],"categories_sizes":[],"default_left":[0,0,0,0,0,0,0],"id":15,"left_children":[1,3,5,-1,-1,-1,-1],"loss_changes":[1.875079E2,2.4774315E1,1.2687156E2,0E0,0E0,0E0,0E0],"parents":[2147483647,0,0,1,1,2,2],"right_children":[2,4,6,-1,-1,-1,-1],"split_conditions":[-4.4760253E-2,-4.7965983E-1,5.1146334E-1,1.6784583E-1,-4.60099E-2,1.4680597E-1,-1.2741069E-2],"split_indices":[682,98,902,0,0,0,0],"split_type":[0,0,0,0,0,0,0],"sum_hessian":[5.6458624E2,3.632431E2,2.0134314E2,4.541178E0,3.5870193E2,1.1311887E2,8.8224266E1],"tree_param":{"num_deleted":"0","num_feature":"1536","num_nodes":"7","size_leaf_vector":"1"}},{"base_weights":[-2.552805E-3,1.4190086E0,-3.821944E-1,1.9383343E-1,-6.4209127E-3,-4.4605684E-2,1.742405E-1],"categories":[],"categories_nodes":[],"categories_segments":[],"categories_sizes":[],"default_left":[0,0,0,0,0,0,0],"id":16,"left_children":[1,3,5,-1,-1,-1,-1],"loss_changes":[1.6533734E2,4.986264E1,3.358276E1,0E0,0E0,0E0,0E0],"parents":[2147483647,0,0,1,1,2,2],"right_children":[2,4,6,-1,-1,-1,-1],"split_conditions":[2.3887843E-1,5.232793E-1,7.848698E-1,1.9383343E-1,-6.4209127E-3,-4.4605684E-2,1.742405E-1],"split_indices":[342,1523,965,0,0,0,0],"split_type":[0,0,0,0,0,0,0],"sum_hessian":[3.043547E2,6.3572147E1,2.4078256E2,4.685852E1,1.6713627E1,2.345232E2,6.259379E0],"tree_param":{"num_deleted":"0","num_feature":"1536","num_nodes":"7","size_leaf_vector":"1"}},{"base_weights":[-1.0270287E-3,-3.7477478E-1,1.2212863E0,-4.5324232E-2,9.892696E-2,2.0036852E-1,5.272159E-2],"categories":[],"categories_nodes":[],"categories_segments":[],"categories_sizes":[],"default_left":[0,0,0,0,0,0,0],"id":17,"left_children":[1,3,5,-1,-1,-1,-1],"loss_changes":[2.5882013E2,4.688774E1,7.09877E1,0E0,0E0,0E0,0E0],"parents":[2147483647,0,0,1,1,2,2],"right_children":[2,4,6,-1,-1,-1,-1],"split_conditions":[-1.1201283E-1,4.2682886E-2,8.485406E-4,-4.5324232E-2,9.892696E-2,2.0036852E-1,5.272159E-2],"split_indices":[298,690,169,0,0,0,0],"split_type":[0,0,0,0,0,0,0],"sum_hessian":[5.645463E2,4.328782E2,1.3166814E2,4.099626E2,2.291564E1,6.100861E1,7.065953E1],"tree_param":{"num_deleted":"0","num_feature":"1536","num_nodes":"7","size_leaf_vector":"1"}},{"base_weights":[1.5088435E-3,-1.53894E-1,6.725401E-1,1.6659835E-2,-4.0392432E-2,-1.0675576E-2,1.1428725E-1],"categories":[],"categories_nodes":[],"categories_segments":[],"categories_sizes":[],"default_left":[0,0,0,0,0,0,0],"id":18,"left_children":[1,3,5,-1,-1,-1,-1],"loss_changes":[5.9071587E1,3.6925076E1,3.9164112E1,0E0,0E0,0E0,0E0],"parents":[2147483647,0,0,1,1,2,2],"right_children":[2,4,6,-1,-1,-1,-1],"split_conditions":[7.979044E-1,6.35946E-1,3.8334746E-2,1.6659835E-2,-4.0392432E-2,-1.0675576E-2,1.1428725E-1],"split_indices":[1261,969,536,0,0,0,0],"split_type":[0,0,0,0,0,0,0],"sum_hessian":[5.644775E2,4.5895874E2,1.05518715E2,2.0128389E2,2.5767484E2,4.0005856E1,6.551286E1],"tree_param":{"num_deleted":"0","num_feature":"1536","num_nodes":"7","size_leaf_vector":"1"}},{"base_weights":[1.2007472E-3,5.756349E-1,-2.4879996E-1,-9.090106E-3,9.818181E-2,-3.059548E-2,9.981998E-2],"categories":[],"categories_nodes":[],"categories_segments":[],"categories_sizes":[],"default_left":[0,0,0,0,0,0,0],"id":19,"left_children":[1,3,5,-1,-1,-1,-1],"loss_changes":[8.116917E1,4.6491436E1,2.837373E1,0E0,0E0,0E0,0E0],"parents":[2147483647,0,0,1,1,2,2],"right_children":[2,4,6,-1,-1,-1,-1],"split_conditions":[-3.4850442E-1,6.1964375E-1,-5.526626E-2,-9.090106E-3,9.818181E-2,-3.059548E-2,9.981998E-2],"split_indices":[86,1367,122,0,0,0,0],"split_type":[0,0,0,0,0,0,0],"sum_hessian":[5.632124E2,1.7039293E2,3.928195E2,6.481289E1,1.0558005E2,3.7632568E2,1.6493814E1],"tree_param":{"num_deleted":"0","num_feature":"1536","num_nodes":"7","size_leaf_vector":"1"}},{"base_weights":[-3.083141E-4,9.778254E-1,-3.2321766E-1,2.0697215E-1,-1.4367963E-2,-3.8375672E-2,1.1972614E-1],"categories":[],"categories_nodes":[],"categories_segments":[],"categories_sizes":[],"default_left":[0,0,0,0,0,0,0],"id":20,"left_children":[1,3,5,-1,-1,-1,-1],"loss_changes":[1.7845885E2,1.7202138E2,3.955985E1,0E0,0E0,0E0,0E0],"parents":[2147483647,0,0,1,1,2,2],"right_children":[2,4,6,-1,-1,-1,-1],"split_conditions":[-3.3705643E-1,1.9986159E0,2.3787273E-1,2.0697215E-1,-1.4367963E-2,-3.8375672E-2,1.1972614E-1],"split_indices":[11,1220,725,0,0,0,0],"split_type":[0,0,0,0,0,0,0],"sum_hessian":[5.6301337E2,1.392324E2,4.2378094E2,7.011907E1,6.9113335E1,4.0827286E2,1.5508095E1],"tree_param":{"num_deleted":"0","num_feature":"1536","num_nodes":"7","size_leaf_vector":"1"}},{"base_weights":[4.974699E-6,-2.082654E-1,1.278345E0,3.442197E-2,-3.7585072E-2,-4.6066698E-2,1.6136488E-1],"categories":[],"categories_nodes":[],"categories_segments":[],"categories_sizes":[],"default_left":[0,0,0,0,0,0,0],"id":21,"left_children":[1,3,5,-1,-1,-1,-1],"loss_changes":[1.5046298E2,4.51241E1,4.690988E1,0E0,0E0,0E0,0E0],"parents":[2147483647,0,0,1,1,2,2],"right_children":[2,4,6,-1,-1,-1,-1],"split_conditions":[2.2164828E-1,-2.2632584E-1,-3.226795E-1,3.442197E-2,-3.7585072E-2,-4.6066698E-2,1.6136488E-1],"split_indices":[601,195,11,0,0,0,0],"split_type":[0,0,0,0,0,0,0],"sum_hessian":[5.631397E2,4.8496506E2,7.817464E1,1.12622856E2,3.723422E2,1.2576142E1,6.5598495E1],"tree_param":{"num_deleted":"0","num_feature":"1536","num_nodes":"7","size_leaf_vector":"1"}},{"base_weights":[3.426742E-4,-2.8706995E-1,7.4343234E-1,-4.3014016E-2,1.3114079E-2,1.2117627E-2,1.518683E-1],"categories":[],"categories_nodes":[],"categories_segments":[],"categories_sizes":[],"default_left":[0,0,0,0,0,0,0],"id":22,"left_children":[1,3,5,-1,-1,-1,-1],"loss_changes":[1.21021484E2,2.4504951E1,7.605602E1,0E0,0E0,0E0,0E0],"parents":[2147483647,0,0,1,1,2,2],"right_children":[2,4,6,-1,-1,-1,-1],"split_conditions":[1.0324045E0,1.0945394E0,-4.0808088E-1,-4.3014016E-2,1.3114079E-2,1.2117627E-2,1.518683E-1],"split_indices":[1042,1082,89,0,0,0,0],"split_type":[0,0,0,0,0,0,0],"sum_hessian":[5.646514E2,4.0760962E2,1.5704178E2,3.036889E2,1.0392072E2,8.775855E1,6.928323E1],"tree_param":{"num_deleted":"0","num_feature":"1536","num_nodes":"7","size_leaf_vector":"1"}},{"base_weights":[-3.4215828E-4,-4.2008E-1,6.8649834E-1,1.5641302E-1,-4.525051E-2,1.2414893E-1,-1.2127866E-2],"categories":[],"categories_nodes":[],"categories_segments":[],"categories_sizes":[],"default_left":[0,0,0,0,0,0,0],"id":23,"left_children":[1,3,5,-1,-1,-1,-1],"loss_changes":[1.6297784E2,2.3283234E1,9.628263E1,0E0,0E0,0E0,0E0],"parents":[2147483647,0,0,1,1,2,2],"right_children":[2,4,6,-1,-1,-1,-1],"split_conditions":[-4.4760253E-2,5.328112E-1,5.1146334E-1,1.5641302E-1,-4.525051E-2,1.2414893E-1,-1.2127866E-2],"split_indices":[682,1297,902,0,0,0,0],"split_type":[0,0,0,0,0,0,0],"sum_hessian":[5.6331995E2,3.498873E2,2.1343265E2,4.8662353E0,3.4502106E2,1.2619336E2,8.723929E1],"tree_param":{"num_deleted":"0","num_feature":"1536","num_nodes":"7","size_leaf_vector":"1"}},{"base_weights":[-3.232127E-3,-3.4488094E-1,1.3566755E0,-4.8136074E-2,8.820879E-2,1.913381E-1,-3.212817E-2],"categories":[],"categories_nodes":[],"categories_segments":[],"categories_sizes":[],"default_left":[0,0,0,0,0,0,0],"id":24,"left_children":[1,3,5,-1,-1,-1,-1],"loss_changes":[1.4192496E2,4.130555E1,5.790925E1,0E0,0E0,0E0,0E0],"parents":[2147483647,0,0,1,1,2,2],"right_children":[2,4,6,-1,-1,-1,-1],"split_conditions":[1.591491E-1,2.7835432E-1,-2.1558256E-1,-4.8136074E-2,8.820879E-2,1.913381E-1,-3.212817E-2],"split_indices":[569,210,246,0,0,0,0],"split_type":[0,0,0,0,0,0,0],"sum_hessian":[3.0346353E2,2.4312881E2,6.0334713E1,2.1933873E2,2.3790089E1,4.5198605E1,1.5136108E1],"tree_param":{"num_deleted":"0","num_feature":"1536","num_nodes":"7","size_leaf_vector":"1"}},{"base_weights":[-1.2607955E-3,-3.6600822E-1,1.0692943E0,-4.4542722E-2,8.717772E-2,-2.032675E-2,1.3869342E-1],"categories":[],"categories_nodes":[],"categories_segments":[],"categories_sizes":[],"default_left":[0,0,0,0,0,0,0],"id":25,"left_children":[1,3,5,-1,-1,-1,-1],"loss_changes":[2.2013597E2,4.1723724E1,5.819185E1,0E0,0E0,0E0,0E0],"parents":[2147483647,0,0,1,1,2,2],"right_children":[2,4,6,-1,-1,-1,-1],"split_conditions":[-1.1201283E-1,4.2682886E-2,-6.672055E-1,-4.4542722E-2,8.717772E-2,-2.032675E-2,1.3869342E-1],"split_indices":[298,690,47,0,0,0,0],"split_type":[0,0,0,0,0,0,0],"sum_hessian":[5.6175183E2,4.1948706E2,1.4226477E2,3.9479623E2,2.4690826E1,2.8489042E1,1.1377573E2],"tree_param":{"num_deleted":"0","num_feature":"1536","num_nodes":"7","size_leaf_vector":"1"}},{"base_weights":[2.097767E-3,5.3598934E-1,-1.7720765E-1,1.2032207E-1,1.5398875E-2,1.1250267E-1,-2.4793837E-2],"categories":[],"categories_nodes":[],"categories_segments":[],"categories_sizes":[],"default_left":[0,0,0,0,0,0,0],"id":26,"left_children":[1,3,5,-1,-1,-1,-1],"loss_changes":[5.4089306E1,3.6021194E1,3.9238564E1,0E0,0E0,0E0,0E0],"parents":[2147483647,0,0,1,1,2,2],"right_children":[2,4,6,-1,-1,-1,-1],"split_conditions":[9.009727E-2,1.4716746E-1,6.976524E-1,1.2032207E-1,1.5398875E-2,1.1250267E-1,-2.4793837E-2],"split_indices":[531,274,900,0,0,0,0],"split_type":[0,0,0,0,0,0,0],"sum_hessian":[5.6302924E2,1.410515E2,4.2197772E2,5.0570835E1,9.048067E1,2.097103E1,4.0100668E2],"tree_param":{"num_deleted":"0","num_feature":"1536","num_nodes":"7","size_leaf_vector":"1"}},{"base_weights":[1.701467E-3,-2.829972E-1,4.4554448E-1,6.8658106E-2,-3.785632E-2,-1.4380539E-2,8.433146E-2],"categories":[],"categories_nodes":[],"categories_segments":[],"categories_sizes":[],"default_left":[0,0,0,0,0,0,0],"id":27,"left_children":[1,3,5,-1,-1,-1,-1],"loss_changes":[7.123756E1,3.208432E1,5.1766205E1,0E0,0E0,0E0,0E0],"parents":[2147483647,0,0,1,1,2,2],"right_children":[2,4,6,-1,-1,-1,-1],"split_conditions":[6.575711E-1,1.7179997E-1,-2.9958943E-1,6.8658106E-2,-3.785632E-2,-1.4380539E-2,8.433146E-2],"split_indices":[969,559,11,0,0,0,0],"split_type":[0,0,0,0,0,0,0],"sum_hessian":[5.6176215E2,3.4245816E2,2.1930396E2,3.0170895E1,3.1228726E2,8.862806E1,1.306759E2],"tree_param":{"num_deleted":"0","num_feature":"1536","num_nodes":"7","size_leaf_vector":"1"}},{"base_weights":[-5.750208E-4,9.6468383E-1,-2.900928E-1,2.0805867E-2,1.699401E-1,1.23902656E-1,-3.4603458E-2],"categories":[],"categories_nodes":[],"categories_segments":[],"categories_sizes":[],"default_left":[0,0,0,0,0,0,0],"id":28,"left_children":[1,3,5,-1,-1,-1,-1],"loss_changes":[1.5722282E2,7.180813E1,3.744992E1,0E0,0E0,0E0,0E0],"parents":[2147483647,0,0,1,1,2,2],"right_children":[2,4,6,-1,-1,-1,-1],"split_conditions":[-3.417054E-1,5.4012943E-2,4.677271E-1,2.0805867E-2,1.699401E-1,1.23902656E-1,-3.4603458E-2],"split_indices":[723,196,928,0,0,0,0],"split_type":[0,0,0,0,0,0,0],"sum_hessian":[5.6059454E2,1.2880933E2,4.3178525E2,6.409071E1,6.4718605E1,1.4492659E1,4.1729257E2],"tree_param":{"num_deleted":"0","num_feature":"1536","num_nodes":"7","size_leaf_vector":"1"}},{"base_weights":[-2.1686881E-4,9.5173436E-1,-2.368261E-1,1.5138774E-1,1.7324276E-2,5.576082E-2,-3.5788897E-2],"categories":[],"categories_nodes":[],"categories_segments":[],"categories_sizes":[],"default_left":[0,0,0,0,0,0,0],"id":29,"left_children":[1,3,5,-1,-1,-1,-1],"loss_changes":[1.2682584E2,4.879151E1,4.3572906E1,0E0,0E0,0E0,0E0],"parents":[2147483647,0,0,1,1,2,2],"right_children":[2,4,6,-1,-1,-1,-1],"split_conditions":[-2.511263E-1,6.957793E-1,-2.3646101E1,1.5138774E-1,1.7324276E-2,5.576082E-2,-3.5788897E-2],"split_indices":[195,785,97,0,0,0,0],"split_type":[0,0,0,0,0,0,0],"sum_hessian":[5.6106793E2,1.110913E2,4.4997665E2,6.3960953E1,4.713035E1,5.902685E1,3.909498E2],"tree_param":{"num_deleted":"0","num_feature":"1536","num_nodes":"7","size_leaf_vector":"1"}},{"base_weights":[5.6983175E-4,-2.7802667E-1,6.7023295E-1,7.2672755E-2,-3.3777703E-2,3.3821896E-2,1.8436585E-1],"categories":[],"categories_nodes":[],"categories_segments":[],"categories_sizes":[],"default_left":[0,0,0,0,0,0,0],"id":30,"left_children":[1,3,5,-1,-1,-1,-1],"loss_changes":[1.0531563E2,2.4178183E1,6.3989517E1,0E0,0E0,0E0,0E0],"parents":[2147483647,0,0,1,1,2,2],"right_children":[2,4,6,-1,-1,-1,-1],"split_conditions":[1.0324045E0,3.0416742E-1,6.481341E-1,7.2672755E-2,-3.3777703E-2,3.3821896E-2,1.8436585E-1],"split_indices":[1042,363,1141,0,0,0,0],"split_type":[0,0,0,0,0,0,0],"sum_hessian":[5.624971E2,3.9764975E2,1.6484735E2,2.1693415E1,3.7595633E2,1.2949556E2,3.5351788E1],"tree_param":{"num_deleted":"0","num_feature":"1536","num_nodes":"7","size_leaf_vector":"1"}},{"base_weights":[-5.753166E-4,-4.1159645E-1,6.1819667E-1,1.6193213E-1,-4.4220995E-2,1.26849E-1,2.887896E-3],"categories":[],"categories_nodes":[],"categories_segments":[],"categories_sizes":[],"default_left":[0,0,0,0,0,0,0],"id":31,"left_children":[1,3,5,-1,-1,-1,-1],"loss_changes":[1.4322949E2,2.1754948E1,8.610465E1,0E0,0E0,0E0,0E0],"parents":[2147483647,0,0,1,1,2,2],"right_children":[2,4,6,-1,-1,-1,-1],"split_conditions":[-4.4760253E-2,-3.8525134E-1,-2.0952995E-1,1.6193213E-1,-4.4220995E-2,1.26849E-1,2.887896E-3],"split_indices":[682,631,215,0,0,0,0],"split_type":[0,0,0,0,0,0,0],"sum_hessian":[5.611671E2,3.373898E2,2.2377734E2,4.239552E0,3.3315024E2,1.0583706E2,1.17940285E2],"tree_param":{"num_deleted":"0","num_feature":"1536","num_nodes":"7","size_leaf_vector":"1"}},{"base_weights":[-3.7149738E-3,1.0646054E0,-3.7018213E-1,1.352628E-1,-5.1174022E-2,1.0455077E-1,-4.6217512E-2],"categories":[],"categories_nodes":[],"categories_segments":[],"categories_sizes":[],"default_left":[0,0,0,0,0,0,0],"id":32,"left_children":[1,3,5,-1,-1,-1,-1],"loss_changes":[1.1912173E2,3.5976784E1,2.9986925E1,0E0,0E0,0E0,0E0],"parents":[2147483647,0,0,1,1,2,2],"right_children":[2,4,6,-1,-1,-1,-1],"split_conditions":[2.3887843E-1,2.8840753E-1,-4.442578E-1,1.352628E-1,-5.1174022E-2,1.0455077E-1,-4.6217512E-2],"split_indices":[342,15,597,0,0,0,0],"split_type":[0,0,0,0,0,0,0],"sum_hessian":[3.0226007E2,7.671537E1,2.2554471E2,6.498376E1,1.1731614E1,1.3129431E1,2.1241528E2],"tree_param":{"num_deleted":"0","num_feature":"1536","num_nodes":"7","size_leaf_vector":"1"}},{"base_weights":[-1.537217E-3,-3.573249E-1,9.4803685E-1,6.089242E-2,-4.5878652E-2,1.3055237E-1,9.436833E-3],"categories":[],"categories_nodes":[],"categories_segments":[],"categories_sizes":[],"default_left":[0,0,0,0,0,0,0],"id":33,"left_children":[1,3,5,-1,-1,-1,-1],"loss_changes":[1.892599E2,4.023007E1,4.64729E1,0E0,0E0,0E0,0E0],"parents":[2147483647,0,0,1,1,2,2],"right_children":[2,4,6,-1,-1,-1,-1],"split_conditions":[-1.1201283E-1,7.295479E-2,-1.8150292E-1,6.089242E-2,-4.5878652E-2,1.3055237E-1,9.436833E-3],"split_indices":[298,511,544,0,0,0,0],"split_type":[0,0,0,0,0,0,0],"sum_hessian":[5.5819183E2,4.0650552E2,1.5168633E2,3.8153828E1,3.683517E2,1.0654124E2,4.5145092E1],"tree_param":{"num_deleted":"0","num_feature":"1536","num_nodes":"7","size_leaf_vector":"1"}},{"base_weights":[2.6585404E-3,3.8790378E-1,-2.314414E-1,9.645148E-2,-7.3525505E-3,2.3964986E-2,-4.0115368E-2],"categories":[],"categories_nodes":[],"categories_segments":[],"categories_sizes":[],"default_left":[0,0,0,0,0,0,0],"id":34,"left_children":[1,3,5,-1,-1,-1,-1],"loss_changes":[5.0834766E1,5.675664E1,2.8128126E1,0E0,0E0,0E0,0E0],"parents":[2147483647,0,0,1,1,2,2],"right_children":[2,4,6,-1,-1,-1,-1],"split_conditions":[-2.1043556E0,5.812779E-1,4.6192575E-1,9.645148E-2,-7.3525505E-3,2.3964986E-2,-4.0115368E-2],"split_indices":[521,967,51,0,0,0,0],"split_type":[0,0,0,0,0,0,0],"sum_hessian":[5.616711E2,2.1205196E2,3.496191E2,9.37766E1,1.1827535E2,9.248501E1,2.571341E2],"tree_param":{"num_deleted":"0","num_feature":"1536","num_nodes":"7","size_leaf_vector":"1"}},{"base_weights":[2.0774347E-3,5.905388E-1,-2.0220397E-1,1.0909761E-2,1.0855585E-1,2.1566387E-2,-3.883223E-2],"categories":[],"categories_nodes":[],"categories_segments":[],"categories_sizes":[],"default_left":[0,0,0,0,0,0,0],"id":35,"left_children":[1,3,5,-1,-1,-1,-1],"loss_changes":[6.760722E1,3.442027E1,3.2552666E1,0E0,0E0,0E0,0E0],"parents":[2147483647,0,0,1,1,2,2],"right_children":[2,4,6,-1,-1,-1,-1],"split_conditions":[-3.589532E-1,6.122325E-1,2.2033016E-1,1.0909761E-2,1.0855585E-1,2.1566387E-2,-3.883223E-2],"split_indices":[86,1000,109,0,0,0,0],"split_type":[0,0,0,0,0,0,0],"sum_hessian":[5.6040796E2,1.4392397E2,4.16484E2,7.358136E1,7.03426E1,1.282906E2,2.8819342E2],"tree_param":{"num_deleted":"0","num_feature":"1536","num_nodes":"7","size_leaf_vector":"1"}},{"base_weights":[-6.6804205E-4,8.2262504E-1,-3.0975637E-1,1.586423E-1,-1.3477743E-2,-4.265097E-2,3.7182372E-2],"categories":[],"categories_nodes":[],"categories_segments":[],"categories_sizes":[],"default_left":[0,0,0,0,0,0,0],"id":36,"left_children":[1,3,5,-1,-1,-1,-1],"loss_changes":[1.4232863E2,1.1185355E2,3.2518063E1,0E0,0E0,0E0,0E0],"parents":[2147483647,0,0,1,1,2,2],"right_children":[2,4,6,-1,-1,-1,-1],"split_conditions":[-3.3705643E-1,1.9986159E0,7.880556E-2,1.586423E-1,-1.3477743E-2,-4.265097E-2,3.7182372E-2],"split_indices":[11,1220,196,0,0,0,0],"split_type":[0,0,0,0,0,0,0],"sum_hessian":[5.57312E2,1.5166719E2,4.0564484E2,8.399807E1,6.766912E1,3.4664026E2,5.900457E1],"tree_param":{"num_deleted":"0","num_feature":"1536","num_nodes":"7","size_leaf_vector":"1"}},{"base_weights":[-4.0764702E-4,-2.2275594E-1,9.175572E-1,1.0524502E-1,-3.0024001E-2,-4.4411737E-2,1.2064298E-1],"categories":[],"categories_nodes":[],"categories_segments":[],"categories_sizes":[],"default_left":[0,0,0,0,0,0,0],"id":37,"left_children":[1,3,5,-1,-1,-1,-1],"loss_changes":[1.1449925E2,4.493666E1,4.3561935E1,0E0,0E0,0E0,0E0],"parents":[2147483647,0,0,1,1,2,2],"right_children":[2,4,6,-1,-1,-1,-1],"split_conditions":[2.1156414E-1,-6.987897E-1,-3.226795E-1,1.0524502E-1,-3.0024001E-2,-4.4411737E-2,1.2064298E-1],"split_indices":[601,674,11,0,0,0,0],"split_type":[0,0,0,0,0,0,0],"sum_hessian":[5.589727E2,4.5058893E2,1.0838375E2,2.5089628E1,4.254993E2,1.8874863E1,8.950889E1],"tree_param":{"num_deleted":"0","num_feature":"1536","num_nodes":"7","size_leaf_vector":"1"}},{"base_weights":[7.2024035E-4,-2.6885247E-1,6.059659E-1,1.8084325E-3,-4.7936205E-2,-3.8498413E-2,9.368572E-2],"categories":[],"categories_nodes":[],"categories_segments":[],"categories_sizes":[],"default_left":[0,0,0,0,0,0,0],"id":38,"left_children":[1,3,5,-1,-1,-1,-1],"loss_changes":[9.173437E1,2.3504913E1,5.716988E1,0E0,0E0,0E0,0E0],"parents":[2147483647,0,0,1,1,2,2],"right_children":[2,4,6,-1,-1,-1,-1],"split_conditions":[1.0324045E0,3.396667E-1,4.838494E-2,1.8084325E-3,-4.7936205E-2,-3.8498413E-2,9.368572E-2],"split_indices":[1042,120,407,0,0,0,0],"split_type":[0,0,0,0,0,0,0],"sum_hessian":[5.60245E2,3.8799167E2,1.7225331E2,1.6457732E2,2.2341435E2,4.3078568E1,1.2917474E2],"tree_param":{"num_deleted":"0","num_feature":"1536","num_nodes":"7","size_leaf_vector":"1"}},{"base_weights":[-8.5618894E-4,-4.0308866E-1,5.5957794E-1,7.193475E-2,-4.6166208E-2,1.18755616E-1,4.2727143E-3],"categories":[],"categories_nodes":[],"categories_segments":[],"categories_sizes":[],"default_left":[0,0,0,0,0,0,0],"id":39,"left_children":[1,3,5,-1,-1,-1,-1],"loss_changes":[1.2632948E2,2.1781338E1,7.594955E1,0E0,0E0,0E0,0E0],"parents":[2147483647,0,0,1,1,2,2],"right_children":[2,4,6,-1,-1,-1,-1],"split_conditions":[-4.4760253E-2,-4.436356E-1,4.9258602E-1,7.193475E-2,-4.6166208E-2,1.18755616E-1,4.2727143E-3],"split_indices":[682,98,1299,0,0,0,0],"split_type":[0,0,0,0,0,0,0],"sum_hessian":[5.584057E2,3.2524966E2,2.3315608E2,1.5571598E1,3.0967807E2,1.0467607E2,1.2848E2],"tree_param":{"num_deleted":"0","num_feature":"1536","num_nodes":"7","size_leaf_vector":"1"}},{"base_weights":[-4.5145405E-3,9.548933E-1,-3.680654E-1,3.8333107E-2,1.7630167E-1,6.1094906E-2,-4.881304E-2],"categories":[],"categories_nodes":[],"categories_segments":[],"categories_sizes":[],"default_left":[0,0,0,0,0,0,0],"id":40,"left_children":[1,3,5,-1,-1,-1,-1],"loss_changes":[1.0557766E2,3.7745346E1,2.6099937E1,0E0,0E0,0E0,0E0],"parents":[2147483647,0,0,1,1,2,2],"right_children":[2,4,6,-1,-1,-1,-1],"split_conditions":[-5.6790537E-1,6.479886E-1,2.4414474E-1,3.8333107E-2,1.7630167E-1,6.1094906E-2,-4.881304E-2],"split_indices":[639,1351,504,0,0,0,0],"split_type":[0,0,0,0,0,0,0],"sum_hessian":[3.0068622E2,8.218199E1,2.1850421E2,4.900004E1,3.3181957E1,2.3423088E1,1.9508113E2],"tree_param":{"num_deleted":"0","num_feature":"1536","num_nodes":"7","size_leaf_vector":"1"}},{"base_weights":[-2.058603E-3,-4.3938723E-1,6.888809E-1,-4.912364E-2,1.0608431E-1,1.03780024E-1,-1.6442252E-2],"categories":[],"categories_nodes":[],"categories_segments":[],"categories_sizes":[],"default_left":[0,0,0,0,0,0,0],"id":41,"left_children":[1,3,5,-1,-1,-1,-1],"loss_changes":[1.680061E2,2.7006157E1,6.433641E1,0E0,0E0,0E0,0E0],"parents":[2147483647,0,0,1,1,2,2],"right_children":[2,4,6,-1,-1,-1,-1],"split_conditions":[-6.4832467E-1,-7.794304E-2,4.606243E-2,-4.912364E-2,1.0608431E-1,1.03780024E-1,-1.6442252E-2],"split_indices":[47,225,221,0,0,0,0],"split_type":[0,0,0,0,0,0,0],"sum_hessian":[5.540012E2,3.3948746E2,2.1451376E2,3.2879654E2,1.0690906E1,1.521023E2,6.2411472E1],"tree_param":{"num_deleted":"0","num_feature":"1536","num_nodes":"7","size_leaf_vector":"1"}},{"base_weights":[3.2862343E-3,3.0508363E-1,-2.715572E-1,1.0996195E-2,1.10983245E-1,3.8436983E-2,-4.004846E-2],"categories":[],"categories_nodes":[],"categories_segments":[],"categories_sizes":[],"default_left":[0,0,0,0,0,0,0],"id":42,"left_children":[1,3,5,-1,-1,-1,-1],"loss_changes":[4.6628094E1,4.1949104E1,2.5034885E1,0E0,0E0,0E0,0E0],"parents":[2147483647,0,0,1,1,2,2],"right_children":[2,4,6,-1,-1,-1,-1],"split_conditions":[6.35946E-1,2.7022555E-1,8.8601E-2,1.0996195E-2,1.10983245E-1,3.8436983E-2,-4.004846E-2],"split_indices":[969,80,531,0,0,0,0],"split_type":[0,0,0,0,0,0,0],"sum_hessian":[5.6014417E2,2.6692822E2,2.9321594E2,2.157528E2,5.1175404E1,4.784088E1,2.4537506E2],"tree_param":{"num_deleted":"0","num_feature":"1536","num_nodes":"7","size_leaf_vector":"1"}},{"base_weights":[2.4453693E-3,-3.4980237E-1,3.1378058E-1,6.849875E-2,-4.261632E-2,7.888033E-2,-1.1027975E-3],"categories":[],"categories_nodes":[],"categories_segments":[],"categories_sizes":[],"default_left":[0,0,0,0,0,0,0],"id":43,"left_children":[1,3,5,-1,-1,-1,-1],"loss_changes":[6.1481754E1,2.1075989E1,4.592413E1,0E0,0E0,0E0,0E0],"parents":[2147483647,0,0,1,1,2,2],"right_children":[2,4,6,-1,-1,-1,-1],"split_conditions":[6.443502E-1,1.6356494E-1,-2.344972E1,6.849875E-2,-4.261632E-2,7.888033E-2,-1.1027975E-3],"split_indices":[969,559,97,0,0,0,0],"split_type":[0,0,0,0,0,0,0],"sum_hessian":[5.5862067E2,2.6203177E2,2.965889E2,1.745967E1,2.445721E2,1.1986355E2,1.7672536E2],"tree_param":{"num_deleted":"0","num_feature":"1536","num_nodes":"7","size_leaf_vector":"1"}},{"base_weights":[-6.983581E-4,8.12463E-1,-2.7610248E-1,-1.3501017E-2,1.206599E-1,-3.6766537E-2,5.910073E-2],"categories":[],"categories_nodes":[],"categories_segments":[],"categories_sizes":[],"default_left":[0,0,0,0,0,0,0],"id":44,"left_children":[1,3,5,-1,-1,-1,-1],"loss_changes":[1.2432544E2,5.2612526E1,3.3142345E1,0E0,0E0,0E0,0E0],"parents":[2147483647,0,0,1,1,2,2],"right_children":[2,4,6,-1,-1,-1,-1],"split_conditions":[-3.417054E-1,5.4006046E-1,1.7259105E-1,-1.3501017E-2,1.206599E-1,-3.6766537E-2,5.910073E-2],"split_indices":[723,457,103,0,0,0,0],"split_type":[0,0,0,0,0,0,0],"sum_hessian":[5.531515E2,1.3945247E2,4.13699E2,4.116129E1,9.8291176E1,3.7470758E2,3.8991432E1],"tree_param":{"num_deleted":"0","num_feature":"1536","num_nodes":"7","size_leaf_vector":"1"}},{"base_weights":[-1.8770315E-4,6.9178903E-1,-2.7903542E-1,-1.0470275E-2,1.18667975E-1,7.076811E-2,-4.06969E-2],"categories":[],"categories_nodes":[],"categories_segments":[],"categories_sizes":[],"default_left":[0,0,0,0,0,0,0],"id":45,"left_children":[1,3,5,-1,-1,-1,-1],"loss_changes":[1.07626595E2,6.3274956E1,5.0474663E1,0E0,0E0,0E0,0E0],"parents":[2147483647,0,0,1,1,2,2],"right_children":[2,4,6,-1,-1,-1,-1],"split_conditions":[6.649681E-1,1.6016974E-1,-3.0864155E-1,-1.0470275E-2,1.18667975E-1,7.076811E-2,-4.06969E-2],"split_indices":[1040,601,635,0,0,0,0],"split_type":[0,0,0,0,0,0,0],"sum_hessian":[5.557772E2,1.5920929E2,3.9656793E2,6.1315205E1,9.789408E1,4.4995827E1,3.5157208E2],"tree_param":{"num_deleted":"0","num_feature":"1536","num_nodes":"7","size_leaf_vector":"1"}},{"base_weights":[8.4267353E-4,-2.60278E-1,5.53407E-1,-4.123588E-2,1.4333116E-2,1.1601045E-1,8.443225E-3],"categories":[],"categories_nodes":[],"categories_segments":[],"categories_sizes":[],"default_left":[0,0,0,0,0,0,0],"id":46,"left_children":[1,3,5,-1,-1,-1,-1],"loss_changes":[8.076755E1,2.3392467E1,5.101351E1,0E0,0E0,0E0,0E0],"parents":[2147483647,0,0,1,1,2,2],"right_children":[2,4,6,-1,-1,-1,-1],"split_conditions":[1.0324045E0,1.0929701E0,1.6248408E-1,-4.123588E-2,1.4333116E-2,1.1601045E-1,8.443225E-3],"split_indices":[1042,1082,397,0,0,0,0],"split_type":[0,0,0,0,0,0,0],"sum_hessian":[5.577758E2,3.7913852E2,1.7863731E2,2.753604E2,1.037781E2,7.724031E1,1.0139701E2],"tree_param":{"num_deleted":"0","num_feature":"1536","num_nodes":"7","size_leaf_vector":"1"}},{"base_weights":[-1.2355165E-3,-4.353014E-1,4.6943018E-1,1.2150364E-1,-4.671146E-2,8.141386E-2,-2.635175E-2],"categories":[],"categories_nodes":[],"categories_segments":[],"categories_sizes":[],"default_left":[0,0,0,0,0,0,0],"id":47,"left_children":[1,3,5,-1,-1,-1,-1],"loss_changes":[1.13868004E2,1.579071E1,6.7775566E1,0E0,0E0,0E0,0E0],"parents":[2147483647,0,0,1,1,2,2],"right_children":[2,4,6,-1,-1,-1,-1],"split_conditions":[-5.048361E-2,-4.7965983E-1,3.7053862E-1,1.2150364E-1,-4.671146E-2,8.141386E-2,-2.635175E-2],"split_indices":[682,98,711,0,0,0,0],"split_type":[0,0,0,0,0,0,0],"sum_hessian":[5.553569E2,2.8895068E2,2.664062E2,4.761302E0,2.8418936E2,1.8111588E2,8.529033E1],"tree_param":{"num_deleted":"0","num_feature":"1536","num_nodes":"7","size_leaf_vector":"1"}},{"base_weights":[-4.303395E-3,-4.6650955E-1,6.69362E-1,1.94041E-1,-4.9410798E-2,-2.0594833E-2,1.07420065E-1],"categories":[],"categories_nodes":[],"categories_segments":[],"categories_sizes":[],"default_left":[0,0,0,0,0,0,0],"id":48,"left_children":[1,3,5,-1,-1,-1,-1],"loss_changes":[9.361806E1,1.2803543E1,4.3576252E1,0E0,0E0,0E0,0E0],"parents":[2147483647,0,0,1,1,2,2],"right_children":[2,4,6,-1,-1,-1,-1],"split_conditions":[3.772159E-1,-1.6897418E-1,2.2860058E-1,1.94041E-1,-4.9410798E-2,-2.0594833E-2,1.07420065E-1],"split_indices":[469,309,562,0,0,0,0],"split_type":[0,0,0,0,0,0,0],"sum_hessian":[2.9865988E2,1.7731229E2,1.21347595E2,1.2243589E0,1.7608792E2,3.853074E1,8.281686E1],"tree_param":{"num_deleted":"0","num_feature":"1536","num_nodes":"7","size_leaf_vector":"1"}},{"base_weights":[-2.3148493E-3,-4.273168E-1,6.4735645E-1,5.513374E-2,-5.1785648E-2,1.1044606E-1,1.6588274E-2],"categories":[],"categories_nodes":[],"categories_segments":[],"categories_sizes":[],"default_left":[0,0,0,0,0,0,0],"id":49,"left_children":[1,3,5,-1,-1,-1,-1],"loss_changes":[1.522658E2,2.982471E1,4.7814735E1,0E0,0E0,0E0,0E0],"parents":[2147483647,0,0,1,1,2,2],"right_children":[2,4,6,-1,-1,-1,-1],"split_conditions":[-3.7058836E-1,-4.3004295E-1,2.9031232E-1,5.513374E-2,-5.1785648E-2,1.1044606E-1,1.6588274E-2],"split_indices":[114,173,127,0,0,0,0],"split_type":[0,0,0,0,0,0,0],"sum_hessian":[5.4946277E2,3.3237317E2,2.1708961E2,2.7714474E1,3.046587E2,1.1069935E2,1.0639026E2],"tree_param":{"num_deleted":"0","num_feature":"1536","num_nodes":"7","size_leaf_vector":"1"}},{"base_weights":[3.7458208E-3,3.4681642E-1,-2.1887597E-1,8.305936E-2,-7.3796273E-3,2.520102E-1,-2.4590893E-2],"categories":[],"categories_nodes":[],"categories_segments":[],"categories_sizes":[],"default_left":[0,0,0,0,0,0,0],"id":50,"left_children":[1,3,5,-1,-1,-1,-1],"loss_changes":[4.2795315E1,4.4930862E1,2.578161E1,0E0,0E0,0E0,0E0],"parents":[2147483647,0,0,1,1,2,2],"right_children":[2,4,6,-1,-1,-1,-1],"split_conditions":[-2.1043556E0,5.812779E-1,4.2638627E-1,8.305936E-2,-7.3796273E-3,2.520102E-1,-2.4590893E-2],"split_indices":[521,967,1331,0,0,0,0],"split_type":[0,0,0,0,0,0,0],"sum_hessian":[5.583376E2,2.1950786E2,3.3882974E2,1.01635155E2,1.178727E2,2.4101486E0,3.364196E2],"tree_param":{"num_deleted":"0","num_feature":"1536","num_nodes":"7","size_leaf_vector":"1"}},{"base_weights":[2.8439418E-3,4.497131E-1,-2.250252E-1,1.3754514E-2,1.04422145E-1,8.486262E-2,-2.8795255E-2],"categories":[],"categories_nodes":[],"categories_segments":[],"categories_sizes":[],"default_left":[0,0,0,0,0,0,0],"id":51,"left_children":[1,3,5,-1,-1,-1,-1],"loss_changes":[5.6897434E1,3.487655E1,2.5246899E1,0E0,0E0,0E0,0E0],"parents":[2147483647,0,0,1,1,2,2],"right_children":[2,4,6,-1,-1,-1,-1],"split_conditions":[-3.4850442E-1,-2.785238E-1,-4.1619493E-3,1.3754514E-2,1.04422145E-1,8.486262E-2,-2.8795255E-2],"split_indices":[86,767,204,0,0,0,0],"split_type":[0,0,0,0,0,0,0],"sum_hessian":[5.5676807E2,1.8770006E2,3.69068E2,1.2388246E2,6.381759E1,1.9742373E1,3.4932562E2],"tree_param":{"num_deleted":"0","num_feature":"1536","num_nodes":"7","size_leaf_vector":"1"}},{"base_weights":[-9.810826E-4,5.9410715E-1,-3.5263622E-1,1.1903023E-1,-2.0666001E-2,6.267812E-2,-4.2808063E-2],"categories":[],"categories_nodes":[],"categories_segments":[],"categories_sizes":[],"default_left":[0,0,0,0,0,0,0],"id":52,"left_children":[1,3,5,-1,-1,-1,-1],"loss_changes":[1.15263985E2,9.7919334E1,2.5850468E1,0E0,0E0,0E0,0E0],"parents":[2147483647,0,0,1,1,2,2],"right_children":[2,4,6,-1,-1,-1,-1],"split_conditions":[-3.2625258E-1,2.0007122E0,6.191505E-1,1.1903023E-1,-2.0666001E-2,6.267812E-2,-4.2808063E-2],"split_indices":[11,1220,472,0,0,0,0],"split_type":[0,0,0,0,0,0,0],"sum_hessian":[5.4880066E2,2.0358855E2,3.452121E2,1.1642224E2,8.716631E1,2.416714E1,3.2104495E2],"tree_param":{"num_deleted":"0","num_feature":"1536","num_nodes":"7","size_leaf_vector":"1"}},{"base_weights":[-3.016104E-4,7.452995E-1,-2.3135537E-1,1.3971397E-1,1.6745873E-2,2.9988592E-2,-3.9836522E-2],"categories":[],"categories_nodes":[],"categories_segments":[],"categories_sizes":[],"default_left":[0,0,0,0,0,0,0],"id":53,"left_children":[1,3,5,-1,-1,-1,-1],"loss_changes":[9.551932E1,4.9173576E1,3.7674652E1,0E0,0E0,0E0,0E0],"parents":[2147483647,0,0,1,1,2,2],"right_children":[2,4,6,-1,-1,-1,-1],"split_conditions":[6.795564E-1,-2.8785843E-1,6.6454864E-1,1.3971397E-1,1.6745873E-2,2.9988592E-2,-3.9836522E-2],"split_indices":[1260,710,1040,0,0,0,0],"split_type":[0,0,0,0,0,0,0],"sum_hessian":[5.524609E2,1.3017282E2,4.222881E2,6.0503395E1,6.9669426E1,1.0081385E2,3.214742E2],"tree_param":{"num_deleted":"0","num_feature":"1536","num_nodes":"7","size_leaf_vector":"1"}},{"base_weights":[9.465522E-4,-2.3129627E-1,5.7273E-1,1.0350285E-1,-3.0823529E-2,1.897363E-3,1.14396505E-1],"categories":[],"categories_nodes":[],"categories_segments":[],"categories_sizes":[],"default_left":[0,0,0,0,0,0,0],"id":54,"left_children":[1,3,5,-1,-1,-1,-1],"loss_changes":[7.390367E1,3.8880047E1,5.0828934E1,0E0,0E0,0E0,0E0],"parents":[2147483647,0,0,1,1,2,2],"right_children":[2,4,6,-1,-1,-1,-1],"split_conditions":[9.590193E-1,7.481928E-2,1.3413609E0,1.0350285E-1,-3.0823529E-2,1.897363E-3,1.14396505E-1],"split_indices":[1060,666,1360,0,0,0,0],"split_type":[0,0,0,0,0,0,0],"sum_hessian":[5.54537E2,3.9478256E2,1.5975441E2,2.1898973E1,3.728836E2,8.164286E1,7.811155E1],"tree_param":{"num_deleted":"0","num_feature":"1536","num_nodes":"7","size_leaf_vector":"1"}},{"base_weights":[-1.6947772E-3,-4.2770863E-1,4.2904598E-1,7.8049265E-2,-4.7057353E-2,5.238082E-3,1.0382549E-1],"categories":[],"categories_nodes":[],"categories_segments":[],"categories_sizes":[],"default_left":[0,0,0,0,0,0,0],"id":55,"left_children":[1,3,5,-1,-1,-1,-1],"loss_changes":[1.0165431E2,1.4791199E1,6.31545E1,0E0,0E0,0E0,0E0],"parents":[2147483647,0,0,1,1,2,2],"right_children":[2,4,6,-1,-1,-1,-1],"split_conditions":[-5.048361E-2,2.0408341E-1,6.292302E-1,7.8049265E-2,-4.7057353E-2,5.238082E-3,1.0382549E-1],"split_indices":[682,275,881,0,0,0,0],"split_type":[0,0,0,0,0,0,0],"sum_hessian":[5.519698E2,2.775111E2,2.7445868E2,8.918673E0,2.6859244E2,1.7026949E2,1.0418921E2],"tree_param":{"num_deleted":"0","num_feature":"1536","num_nodes":"7","size_leaf_vector":"1"}},{"base_weights":[-4.4440334E-3,6.9207454E-1,-4.130004E-1,4.047604E-3,1.1898097E-1,-4.629177E-2,1.3767497E-1],"categories":[],"categories_nodes":[],"categories_segments":[],"categories_sizes":[],"default_left":[0,0,0,0,0,0,0],"id":56,"left_children":[1,3,5,-1,-1,-1,-1],"loss_changes":[8.49793E1,3.575955E1,1.7452332E1,0E0,0E0,0E0,0E0],"parents":[2147483647,0,0,1,1,2,2],"right_children":[2,4,6,-1,-1,-1,-1],"split_conditions":[-5.536018E-1,-1.05010495E-1,3.3616018E-1,4.047604E-3,1.1898097E-1,-4.629177E-2,1.3767497E-1],"split_indices":[639,180,100,0,0,0,0],"split_type":[0,0,0,0,0,0,0],"sum_hessian":[2.9662216E2,1.0940738E2,1.8721478E2,4.7848686E1,6.1558693E1,1.8285616E2,4.358625E0],"tree_param":{"num_deleted":"0","num_feature":"1536","num_nodes":"7","size_leaf_vector":"1"}},{"base_weights":[-2.406825E-3,-4.2661476E-1,5.851313E-1,-5.039073E-2,5.13029E-2,-1.1144905E-2,9.164391E-2],"categories":[],"categories_nodes":[],"categories_segments":[],"categories_sizes":[],"default_left":[0,0,0,0,0,0,0],"id":57,"left_children":[1,3,5,-1,-1,-1,-1],"loss_changes":[1.3623553E2,2.3312004E1,5.2994026E1,0E0,0E0,0E0,0E0],"parents":[2147483647,0,0,1,1,2,2],"right_children":[2,4,6,-1,-1,-1,-1],"split_conditions":[-6.4832467E-1,-1.09748736E-1,1.4760402E0,-5.039073E-2,5.13029E-2,-1.1144905E-2,9.164391E-2],"split_indices":[47,225,1202,0,0,0,0],"split_type":[0,0,0,0,0,0,0],"sum_hessian":[5.4460596E2,3.1642096E2,2.2818498E2,2.9279977E2,2.3621199E1,7.376223E1,1.5442274E2],"tree_param":{"num_deleted":"0","num_feature":"1536","num_nodes":"7","size_leaf_vector":"1"}},{"base_weights":[4.4773933E-3,3.897493E-1,-1.840737E-1,-8.230093E-3,7.171347E-2,3.1845685E-2,-3.2876875E-2],"categories":[],"categories_nodes":[],"categories_segments":[],"categories_sizes":[],"default_left":[0,0,0,0,0,0,0],"id":58,"left_children":[1,3,5,-1,-1,-1,-1],"loss_changes":[4.056066E1,2.8411987E1,2.736514E1,0E0,0E0,0E0,0E0],"parents":[2147483647,0,0,1,1,2,2],"right_children":[2,4,6,-1,-1,-1,-1],"split_conditions":[9.8777644E-2,1.6734552E-2,4.72882E-1,-8.230093E-3,7.171347E-2,3.1845685E-2,-3.2876875E-2],"split_indices":[531,255,1411,0,0,0,0],"split_type":[0,0,0,0,0,0,0],"sum_hessian":[5.563652E2,1.8246405E2,3.7390112E2,7.5029366E1,1.0743468E2,8.3321625E1,2.905795E2],"tree_param":{"num_deleted":"0","num_feature":"1536","num_nodes":"7","size_leaf_vector":"1"}},{"base_weights":[3.6707155E-3,-4.0708283E-1,2.3857488E-1,2.982226E-2,-4.975866E-2,8.5043505E-2,6.4855204E-3],"categories":[],"categories_nodes":[],"categories_segments":[],"categories_sizes":[],"default_left":[0,0,0,0,0,0,0],"id":59,"left_children":[1,3,5,-1,-1,-1,-1],"loss_changes":[5.3697906E1,1.3073223E1,3.7576508E1,0E0,0E0,0E0,0E0],"parents":[2147483647,0,0,1,1,2,2],"right_children":[2,4,6,-1,-1,-1,-1],"split_conditions":[6.351902E-1,-2.1106753E-1,-5.6913733E-1,2.982226E-2,-4.975866E-2,8.5043505E-2,6.4855204E-3],"split_indices":[969,181,149,0,0,0,0],"split_type":[0,0,0,0,0,0,0],"sum_hessian":[5.545193E2,2.0147939E2,3.5303992E2,2.2652325E1,1.7882706E2,7.720828E1,2.7583163E2],"tree_param":{"num_deleted":"0","num_feature":"1536","num_nodes":"7","size_leaf_vector":"1"}},{"base_weights":[-1.7194748E-3,-2.4046262E-1,7.942328E-1,-4.0227484E-2,3.714534E-2,1.3442512E-1,-2.6656324E-2],"categories":[],"categories_nodes":[],"categories_segments":[],"categories_sizes":[],"default_left":[0,0,0,0,0,0,0],"id":60,"left_children":[1,3,5,-1,-1,-1,-1],"loss_changes":[1.03699814E2,4.171483E1,7.38248E1,0E0,0E0,0E0,0E0],"parents":[2147483647,0,0,1,1,2,2],"right_children":[2,4,6,-1,-1,-1,-1],"split_conditions":[7.492019E-2,2.549729E-1,-3.1149876E-1,-4.0227484E-2,3.714534E-2,1.3442512E-1,-2.6656324E-2],"split_indices":[196,518,11,0,0,0,0],"split_type":[0,0,0,0,0,0,0],"sum_hessian":[5.4370264E2,4.1878683E2,1.2491578E2,3.314756E2,8.731126E1,8.208687E1,4.2828915E1],"tree_param":{"num_deleted":"0","num_feature":"1536","num_nodes":"7","size_leaf_vector":"1"}},{"base_weights":[-4.895178E-4,-3.506711E-1,4.6094084E-1,5.2839447E-2,-4.4288192E-2,9.460755E-3,1.2182573E-1],"categories":[],"categories_nodes":[],"categories_segments":[],"categories_sizes":[],"default_left":[0,0,0,0,0,0,0],"id":61,"left_children":[1,3,5,-1,-1,-1,-1],"loss_changes":[8.904074E1,2.562907E1,6.584597E1,0E0,0E0,0E0,0E0],"parents":[2147483647,0,0,1,1,2,2],"right_children":[2,4,6,-1,-1,-1,-1],"split_conditions":[1.6323446E-1,-2.3698858E1,6.710144E-1,5.2839447E-2,-4.4288192E-2,9.460755E-3,1.2182573E-1],"split_indices":[601,97,571,0,0,0,0],"split_type":[0,0,0,0,0,0,0],"sum_hessian":[5.490475E2,3.1228958E2,2.3675793E2,2.9198994E1,2.8309058E2,1.6032808E2,7.6429855E1],"tree_param":{"num_deleted":"0","num_feature":"1536","num_nodes":"7","size_leaf_vector":"1"}},{"base_weights":[9.976755E-4,-3.1488338E-1,3.8652122E-1,-4.1389477E-2,2.4800785E-2,8.952903E-2,-8.0345705E-4],"categories":[],"categories_nodes":[],"categories_segments":[],"categories_sizes":[],"default_left":[0,0,0,0,0,0,0],"id":62,"left_children":[1,3,5,-1,-1,-1,-1],"loss_changes":[6.7418564E1,1.7061613E1,5.0055233E1,0E0,0E0,0E0,0E0],"parents":[2147483647,0,0,1,1,2,2],"right_children":[2,4,6,-1,-1,-1,-1],"split_conditions":[1.0020416E0,5.374942E-1,1.6074418E-1,-4.1389477E-2,2.4800785E-2,8.952903E-2,-8.0345705E-4],"split_indices":[1042,505,397,0,0,0,0],"split_type":[0,0,0,0,0,0,0],"sum_hessian":[5.5161194E2,3.0329147E2,2.4832048E2,2.581484E2,4.5143055E1,1.07907524E2,1.4041296E2],"tree_param":{"num_deleted":"0","num_feature":"1536","num_nodes":"7","size_leaf_vector":"1"}},{"base_weights":[-2.2641285E-3,-4.2012772E-1,3.9329553E-1,1.0874694E-1,-4.536524E-2,8.246722E-2,-9.904076E-3],"categories":[],"categories_nodes":[],"categories_segments":[],"categories_sizes":[],"default_left":[0,0,0,0,0,0,0],"id":63,"left_children":[1,3,5,-1,-1,-1,-1],"loss_changes":[9.1006775E1,1.4025532E1,6.015314E1,0E0,0E0,0E0,0E0],"parents":[2147483647,0,0,1,1,2,2],"right_children":[2,4,6,-1,-1,-1,-1],"split_conditions":[-5.048361E-2,-4.7965983E-1,5.674777E-1,1.0874694E-1,-4.536524E-2,8.246722E-2,-9.904076E-3],"split_indices":[682,98,1297,0,0,0,0],"split_type":[0,0,0,0,0,0,0],"sum_hessian":[5.485889E2,2.6674316E2,2.818458E2,5.118697E0,2.6162445E2,1.4986319E2,1.319826E2],"tree_param":{"num_deleted":"0","num_feature":"1536","num_nodes":"7","size_leaf_vector":"1"}},{"base_weights":[-3.6063811E-3,6.0644794E-1,-4.3797225E-1,-1.6410127E-2,9.702103E-2,1.4298718E-1,-4.9626675E-2],"categories":[],"categories_nodes":[],"categories_segments":[],"categories_sizes":[],"default_left":[0,0,0,0,0,0,0],"id":64,"left_children":[1,3,5,-1,-1,-1,-1],"loss_changes":[7.843328E1,3.4664318E1,1.9534187E1,0E0,0E0,0E0,0E0],"parents":[2147483647,0,0,1,1,2,2],"right_children":[2,4,6,-1,-1,-1,-1],"split_conditions":[-2.5710574E-1,2.287453E-1,9.813729E-2,-1.6410127E-2,9.702103E-2,1.4298718E-1,-4.9626675E-2],"split_indices":[354,562,474,0,0,0,0],"split_type":[0,0,0,0,0,0,0],"sum_hessian":[2.9398703E2,1.2210205E2,1.7188498E2,3.9332916E1,8.2769135E1,4.490006E0,1.6739497E2],"tree_param":{"num_deleted":"0","num_feature":"1536","num_nodes":"7","size_leaf_vector":"1"}},{"base_weights":[-2.761658E-3,-3.5765094E-1,6.448156E-1,-4.747155E-2,5.0463814E-2,1.1507643E-2,9.7788654E-2],"categories":[],"categories_nodes":[],"categories_segments":[],"categories_sizes":[],"default_left":[0,0,0,0,0,0,0],"id":65,"left_children":[1,3,5,-1,-1,-1,-1],"loss_changes":[1.2440367E2,3.553695E1,3.369969E1,0E0,0E0,0E0,0E0],"parents":[2147483647,0,0,1,1,2,2],"right_children":[2,4,6,-1,-1,-1,-1],"split_conditions":[-1.2108231E-1,1.4952222E-1,2.843629E-1,-4.747155E-2,5.0463814E-2,1.1507643E-2,9.7788654E-2],"split_indices":[298,371,249,0,0,0,0],"split_type":[0,0,0,0,0,0,0],"sum_hessian":[5.393098E2,3.486747E2,1.9063513E2,3.073925E2,4.128221E1,7.4110344E1,1.1652478E2],"tree_param":{"num_deleted":"0","num_feature":"1536","num_nodes":"7","size_leaf_vector":"1"}},{"base_weights":[5.0293314E-3,2.6924244E-1,-2.553702E-1,-4.9735378E-3,6.609722E-2,-3.1987537E-2,9.386038E-2],"categories":[],"categories_nodes":[],"categories_segments":[],"categories_sizes":[],"default_left":[0,0,0,0,0,0,0],"id":66,"left_children":[1,3,5,-1,-1,-1,-1],"loss_changes":[3.828449E1,3.4544254E1,2.188506E1,0E0,0E0,0E0,0E0],"parents":[2147483647,0,0,1,1,2,2],"right_children":[2,4,6,-1,-1,-1,-1],"split_conditions":[6.35946E-1,5.2906245E-1,7.586193E-1,-4.9735378E-3,6.609722E-2,-3.1987537E-2,9.386038E-2],"split_indices":[969,1145,1260,0,0,0,0],"split_type":[0,0,0,0,0,0,0],"sum_hessian":[5.544534E2,2.751946E2,2.7925882E2,1.5216373E2,1.23030876E2,2.6563956E2,1.3619242E1],"tree_param":{"num_deleted":"0","num_feature":"1536","num_nodes":"7","size_leaf_vector":"1"}},{"base_weights":[4.1936683E-3,-3.9869663E-1,2.2289477E-1,2.8389353E-2,-4.9160387E-2,-1.8641539E-3,6.0907632E-2],"categories":[],"categories_nodes":[],"categories_segments":[],"categories_sizes":[],"default_left":[0,0,0,0,0,0,0],"id":67,"left_children":[1,3,5,-1,-1,-1,-1],"loss_changes":[4.8847195E1,1.2509445E1,3.352662E1,0E0,0E0,0E0,0E0],"parents":[2147483647,0,0,1,1,2,2],"right_children":[2,4,6,-1,-1,-1,-1],"split_conditions":[6.351902E-1,-2.1106753E-1,8.49925E-1,2.8389353E-2,-4.9160387E-2,-1.8641539E-3,6.0907632E-2],"split_indices":[969,181,836,0,0,0,0],"split_type":[0,0,0,0,0,0,0],"sum_hessian":[5.5236414E2,1.9405458E2,3.5830957E2,2.3002125E1,1.7105246E2,2.21023E2,1.3728658E2],"tree_param":{"num_deleted":"0","num_feature":"1536","num_nodes":"7","size_leaf_vector":"1"}},{"base_weights":[-2.0201148E-3,5.030327E-1,-3.546843E-1,9.202371E-2,-1.3078669E-2,1.6759562E-1,-3.865729E-2],"categories":[],"categories_nodes":[],"categories_segments":[],"categories_sizes":[],"default_left":[0,0,0,0,0,0,0],"id":68,"left_children":[1,3,5,-1,-1,-1,-1],"loss_changes":[9.622882E1,5.886144E1,2.1247692E1,0E0,0E0,0E0,0E0],"parents":[2147483647,0,0,1,1,2,2],"right_children":[2,4,6,-1,-1,-1,-1],"split_conditions":[-3.179767E-1,7.034395E-1,3.4843516E-2,9.202371E-2,-1.3078669E-2,1.6759562E-1,-3.865729E-2],"split_indices":[723,1373,324,0,0,0,0],"split_type":[0,0,0,0,0,0,0],"sum_hessian":[5.3826355E2,2.2114043E2,3.171231E2,1.330861E2,8.805431E1,4.105899E0,3.130172E2],"tree_param":{"num_deleted":"0","num_feature":"1536","num_nodes":"7","size_leaf_vector":"1"}},{"base_weights":[-8.579978E-4,7.2054785E-1,-2.079688E-1,-1.0963152E-2,1.0419029E-1,2.6777217E-2,-4.4367585E-2],"categories":[],"categories_nodes":[],"categories_segments":[],"categories_sizes":[],"default_left":[0,0,0,0,0,0,0],"id":69,"left_children":[1,3,5,-1,-1,-1,-1],"loss_changes":[8.181397E1,3.2699104E1,4.7825012E1,0E0,0E0,0E0,0E0],"parents":[2147483647,0,0,1,1,2,2],"right_children":[2,4,6,-1,-1,-1,-1],"split_conditions":[-2.9752833E-1,1.5726238E-1,9.847821E-1,-1.0963152E-2,1.0419029E-1,2.6777217E-2,-4.4367585E-2],"split_indices":[635,601,780,0,0,0,0],"split_type":[0,0,0,0,0,0,0],"sum_hessian":[5.455739E2,1.2114033E2,4.2443356E2,3.3990112E1,8.7150215E1,1.4057234E2,2.838612E2],"tree_param":{"num_deleted":"0","num_feature":"1536","num_nodes":"7","size_leaf_vector":"1"}},{"base_weights":[1.0140077E-3,-3.022963E-1,3.8150954E-1,-3.489316E-2,1.14017464E-1,8.914396E-2,-9.292003E-3],"categories":[],"categories_nodes":[],"categories_segments":[],"categories_sizes":[],"default_left":[0,0,0,0,0,0,0],"id":70,"left_children":[1,3,5,-1,-1,-1,-1],"loss_changes":[6.3489098E1,2.0990072E1,5.9116123E1,0E0,0E0,0E0,0E0],"parents":[2147483647,0,0,1,1,2,2],"right_children":[2,4,6,-1,-1,-1,-1],"split_conditions":[5.5532897E-1,6.682417E-1,-1.2562889E-1,-3.489316E-2,1.14017464E-1,8.914396E-2,-9.292003E-3],"split_indices":[1513,1430,321,0,0,0,0],"split_type":[0,0,0,0,0,0,0],"sum_hessian":[5.4812695E2,3.0511298E2,2.4301395E2,2.9629193E2,8.8210535E0,1.1670124E2,1.263127E2],"tree_param":{"num_deleted":"0","num_feature":"1536","num_nodes":"7","size_leaf_vector":"1"}},{"base_weights":[-2.8531365E-3,6.346814E-1,-2.4428765E-1,1.4334887E-1,1.7659038E-2,-4.218399E-2,4.3949798E-2],"categories":[],"categories_nodes":[],"categories_segments":[],"categories_sizes":[],"default_left":[0,0,0,0,0,0,0],"id":71,"left_children":[1,3,5,-1,-1,-1,-1],"loss_changes":[8.413602E1,5.468856E1,4.831872E1,0E0,0E0,0E0,0E0],"parents":[2147483647,0,0,1,1,2,2],"right_children":[2,4,6,-1,-1,-1,-1],"split_conditions":[-3.9426965E-1,5.187865E-1,-2.3964819E-2,1.4334887E-1,1.7659038E-2,-4.218399E-2,4.3949798E-2],"split_indices":[98,1067,682,0,0,0,0],"split_type":[0,0,0,0,0,0,0],"sum_hessian":[5.446044E2,1.4914409E2,3.9546027E2,5.3581238E1,9.556285E1,3.14246E2,8.121426E1],"tree_param":{"num_deleted":"0","num_feature":"1536","num_nodes":"7","size_leaf_vector":"1"}},{"base_weights":[-3.3814257E-3,-4.565159E-1,5.2980715E-1,1.6216831E-1,-4.8715893E-2,8.7935835E-2,-1.3403726E-2],"categories":[],"categories_nodes":[],"categories_segments":[],"categories_sizes":[],"default_left":[0,0,0,0,0,0,0],"id":72,"left_children":[1,3,5,-1,-1,-1,-1],"loss_changes":[7.084285E1,1.0883881E1,3.1377407E1,0E0,0E0,0E0,0E0],"parents":[2147483647,0,0,1,1,2,2],"right_children":[2,4,6,-1,-1,-1,-1],"split_conditions":[3.772159E-1,-1.6897418E-1,-1.1446529E-1,1.6216831E-1,-4.8715893E-2,8.7935835E-2,-1.3403726E-2],"split_indices":[469,309,307,0,0,0,0],"split_type":[0,0,0,0,0,0,0],"sum_hessian":[2.912152E2,1.5750346E2,1.3371175E2,1.5341779E0,1.5596928E2,8.737781E1,4.6333946E1],"tree_param":{"num_deleted":"0","num_feature":"1536","num_nodes":"7","size_leaf_vector":"1"}},{"base_weights":[-3.2521004E-3,-4.1013294E-1,5.1918083E-1,4.69083E-2,-5.0618824E-2,7.449093E-2,-1.3123023E-2],"categories":[],"categories_nodes":[],"categories_segments":[],"categories_sizes":[],"default_left":[0,0,0,0,0,0,0],"id":73,"left_children":[1,3,5,-1,-1,-1,-1],"loss_changes":[1.1382194E2,2.5659267E1,3.451787E1,0E0,0E0,0E0,0E0],"parents":[2147483647,0,0,1,1,2,2],"right_children":[2,4,6,-1,-1,-1,-1],"split_conditions":[-3.7058836E-1,-4.3004295E-1,4.606243E-2,4.69083E-2,-5.0618824E-2,7.449093E-2,-1.3123023E-2],"split_indices":[114,173,221,0,0,0,0],"split_type":[0,0,0,0,0,0,0],"sum_hessian":[5.334597E2,3.0001624E2,2.3344348E2,2.916637E1,2.7084988E2,1.7319128E2,6.0252197E1],"tree_param":{"num_deleted":"0","num_feature":"1536","num_nodes":"7","size_leaf_vector":"1"}},{"base_weights":[5.574317E-3,-1.2895352E-1,4.914914E-1,-1.8986942E-2,1.0364137E-1,-2.7034039E-2,7.637122E-2],"categories":[],"categories_nodes":[],"categories_segments":[],"categories_sizes":[],"default_left":[0,0,0,0,0,0,0],"id":74,"left_children":[1,3,5,-1,-1,-1,-1],"loss_changes":[3.6234955E1,3.1017212E1,2.5131405E1,0E0,0E0,0E0,0E0],"parents":[2147483647,0,0,1,1,2,2],"right_children":[2,4,6,-1,-1,-1,-1],"split_conditions":[7.979044E-1,4.7264054E-1,2.748733E-1,-1.8986942E-2,1.0364137E-1,-2.7034039E-2,7.637122E-2],"split_indices":[1261,529,40,0,0,0,0],"split_type":[0,0,0,0,0,0,0],"sum_hessian":[5.523413E2,4.3315536E2,1.1918594E2,4.1243375E2,2.0721607E1,3.1378263E1,8.780768E1],"tree_param":{"num_deleted":"0","num_feature":"1536","num_nodes":"7","size_leaf_vector":"1"}},{"base_weights":[4.119611E-3,3.8152984E-1,-2.0788716E-1,-3.3802267E-2,5.885554E-2,1.6287808E-1,-2.446222E-2],"categories":[],"categories_nodes":[],"categories_segments":[],"categories_sizes":[],"default_left":[0,0,0,0,0,0,0],"id":75,"left_children":[1,3,5,-1,-1,-1,-1],"loss_changes":[4.419942E1,2.9796665E1,2.4263939E1,0E0,0E0,0E0,0E0],"parents":[2147483647,0,0,1,1,2,2],"right_children":[2,4,6,-1,-1,-1,-1],"split_conditions":[-3.4850442E-1,-4.5578608E-1,7.3300916E-1,-3.3802267E-2,5.885554E-2,1.6287808E-1,-2.446222E-2],"split_indices":[86,114,1167,0,0,0,0],"split_type":[0,0,0,0,0,0,0],"sum_hessian":[5.504081E2,1.9768808E2,3.5272E2,4.402812E1,1.5365996E2,6.0665708E0,3.4665344E2],"tree_param":{"num_deleted":"0","num_feature":"1536","num_nodes":"7","size_leaf_vector":"1"}},{"base_weights":[-1.7218995E-3,4.9676478E-1,-3.3270937E-1,8.624725E-2,-3.945161E-2,5.8075953E-2,-4.1119393E-2],"categories":[],"categories_nodes":[],"categories_segments":[],"categories_sizes":[],"default_left":[0,0,0,0,0,0,0],"id":76,"left_children":[1,3,5,-1,-1,-1,-1],"loss_changes":[8.822033E1,6.988491E1,2.3275917E1,0E0,0E0,0E0,0E0],"parents":[2147483647,0,0,1,1,2,2],"right_children":[2,4,6,-1,-1,-1,-1],"split_conditions":[-3.2625258E-1,-5.541135E-1,6.191505E-1,8.624725E-2,-3.945161E-2,5.8075953E-2,-4.1119393E-2],"split_indices":[11,453,472,0,0,0,0],"split_type":[0,0,0,0,0,0,0],"sum_hessian":[5.326901E2,2.1236102E2,3.203291E2,1.5059972E2,6.1761303E1,2.4838478E1,2.9549063E2],"tree_param":{"num_deleted":"0","num_feature":"1536","num_nodes":"7","size_leaf_vector":"1"}},{"base_weights":[-1.1328093E-3,4.8004103E-1,-2.840284E-1,7.594712E-2,-1.35468915E-2,5.8275886E-2,-3.8568642E-2],"categories":[],"categories_nodes":[],"categories_segments":[],"categories_sizes":[],"default_left":[0,0,0,0,0,0,0],"id":77,"left_children":[1,3,5,-1,-1,-1,-1],"loss_changes":[7.397344E1,3.470888E1,3.0380331E1,0E0,0E0,0E0,0E0],"parents":[2147483647,0,0,1,1,2,2],"right_children":[2,4,6,-1,-1,-1,-1],"split_conditions":[-2.2632584E-1,7.021101E-1,-9.9248014E-2,7.594712E-2,-1.35468915E-2,5.8275886E-2,-3.8568642E-2],"split_indices":[195,1260,218,0,0,0,0],"split_type":[0,0,0,0,0,0,0],"sum_hessian":[5.4143335E2,2.002069E2,3.4122647E2,1.3753476E2,6.267214E1,3.532186E1,3.059046E2],"tree_param":{"num_deleted":"0","num_feature":"1536","num_nodes":"7","size_leaf_vector":"1"}},{"base_weights":[1.2462549E-3,-2.7181616E-1,3.9188793E-1,7.7916965E-2,-3.5243154E-2,1.2528896E-1,1.1399972E-2],"categories":[],"categories_nodes":[],"categories_segments":[],"categories_sizes":[],"default_left":[0,0,0,0,0,0,0],"id":78,"left_children":[1,3,5,-1,-1,-1,-1],"loss_changes":[5.834909E1,2.755283E1,5.3703064E1,0E0,0E0,0E0,0E0],"parents":[2147483647,0,0,1,1,2,2],"right_children":[2,4,6,-1,-1,-1,-1],"split_conditions":[1.0945394E0,7.7438615E-2,1.1387817E0,7.7916965E-2,-3.5243154E-2,1.2528896E-1,1.1399972E-2],"split_indices":[1082,666,1193,0,0,0,0],"split_type":[0,0,0,0,0,0,0],"sum_hessian":[5.450093E2,3.2095956E2,2.2404974E2,2.2247877E1,2.9871167E2,5.3811855E1,1.7023788E2],"tree_param":{"num_deleted":"0","num_feature":"1536","num_nodes":"7","size_leaf_vector":"1"}},{"base_weights":[-3.281531E-3,-4.072761E-1,3.405272E-1,2.1621576E-2,-4.934393E-2,-2.2438024E-3,8.0602296E-2],"categories":[],"categories_nodes":[],"categories_segments":[],"categories_sizes":[],"default_left":[0,0,0,0,0,0,0],"id":79,"left_children":[1,3,5,-1,-1,-1,-1],"loss_changes":[7.534924E1,1.3505375E1,4.953608E1,0E0,0E0,0E0,0E0],"parents":[2147483647,0,0,1,1,2,2],"right_children":[2,4,6,-1,-1,-1,-1],"split_conditions":[-5.048361E-2,6.063706E-1,-3.475022E-1,2.1621576E-2,-4.934393E-2,-2.2438024E-3,8.0602296E-2],"split_indices":[682,1147,82,0,0,0,0],"split_type":[0,0,0,0,0,0,0],"sum_hessian":[5.404849E2,2.4840753E2,2.920774E2,2.9977295E1,2.1843024E2,1.6464728E2,1.27430115E2],"tree_param":{"num_deleted":"0","num_feature":"1536","num_nodes":"7","size_leaf_vector":"1"}},{"base_weights":[-2.730877E-3,-3.9121315E-1,5.7401896E-1,-4.6172287E-2,1.1951804E-1,8.26108E-2,-4.030898E-2],"categories":[],"categories_nodes":[],"categories_segments":[],"categories_sizes":[],"default_left":[0,0,0,0,0,0,0],"id":80,"left_children":[1,3,5,-1,-1,-1,-1],"loss_changes":[6.5088036E1,1.9967295E1,2.913256E1,0E0,0E0,0E0,0E0],"parents":[2147483647,0,0,1,1,2,2],"right_children":[2,4,6,-1,-1,-1,-1],"split_conditions":[1.3909903E-1,7.8921413E-1,-2.1300402E-1,-4.6172287E-2,1.1951804E-1,8.26108E-2,-4.030898E-2],"split_indices":[569,965,246,0,0,0,0],"split_type":[0,0,0,0,0,0,0],"sum_hessian":[2.884953E2,1.7257523E2,1.1592007E2,1.6591005E2,6.6651783E0,9.226954E1,2.3650524E1],"tree_param":{"num_deleted":"0","num_feature":"1536","num_nodes":"7","size_leaf_vector":"1"}},{"base_weights":[-3.1427601E-3,-3.4303144E-1,5.864298E-1,3.0543609E-2,-4.939973E-2,9.373609E-2,-1.2494321E-2],"categories":[],"categories_nodes":[],"categories_segments":[],"categories_sizes":[],"default_left":[0,0,0,0,0,0,0],"id":81,"left_children":[1,3,5,-1,-1,-1,-1],"loss_changes":[1.06091E2,3.3026196E1,4.844899E1,0E0,0E0,0E0,0E0],"parents":[2147483647,0,0,1,1,2,2],"right_children":[2,4,6,-1,-1,-1,-1],"split_conditions":[7.4848115E-2,-4.2945752E-1,5.652307E-1,3.0543609E-2,-4.939973E-2,9.373609E-2,-1.2494321E-2],"split_indices":[724,173,107,0,0,0,0],"split_type":[0,0,0,0,0,0,0],"sum_hessian":[5.274214E2,3.348173E2,1.9260406E2,6.303403E1,2.7178326E2,1.2876477E2,6.38393E1],"tree_param":{"num_deleted":"0","num_feature":"1536","num_nodes":"7","size_leaf_vector":"1"}},{"base_weights":[6.221283E-3,3.0101457E-1,-2.0104754E-1,-1.467977E-2,6.2302377E-2,2.26626E-2,-3.7446164E-2],"categories":[],"categories_nodes":[],"categories_segments":[],"categories_sizes":[],"default_left":[0,0,0,0,0,0,0],"id":82,"left_children":[1,3,5,-1,-1,-1,-1],"loss_changes":[3.3719604E1,3.2942978E1,2.4118078E1,0E0,0E0,0E0,0E0],"parents":[2147483647,0,0,1,1,2,2],"right_children":[2,4,6,-1,-1,-1,-1],"split_conditions":[-2.1043556E0,6.171993E-1,4.6192575E-1,-1.467977E-2,6.2302377E-2,2.26626E-2,-3.7446164E-2],"split_indices":[521,1253,51,0,0,0,0],"split_type":[0,0,0,0,0,0,0],"sum_hessian":[5.49872E2,2.268197E2,3.230523E2,9.510417E1,1.3171553E2,9.3112236E1,2.2994008E2],"tree_param":{"num_deleted":"0","num_feature":"1536","num_nodes":"7","size_leaf_vector":"1"}},{"base_weights":[4.8402064E-3,-3.8594437E-1,2.014485E-1,6.6664587E-3,-5.357873E-2,3.9308283E-2,-2.4180448E-2],"categories":[],"categories_nodes":[],"categories_segments":[],"categories_sizes":[],"default_left":[0,0,0,0,0,0,0],"id":83,"left_children":[1,3,5,-1,-1,-1,-1],"loss_changes":[4.223903E1,1.2515795E1,3.1161324E1,0E0,0E0,0E0,0E0],"parents":[2147483647,0,0,1,1,2,2],"right_children":[2,4,6,-1,-1,-1,-1],"split_conditions":[6.351902E-1,-1.9072725E-1,-6.077533E-1,6.6664587E-3,-5.357873E-2,3.9308283E-2,-2.4180448E-2],"split_indices":[969,181,674,0,0,0,0],"split_type":[0,0,0,0,0,0,0],"sum_hessian":[5.4775E2,1.8301697E2,3.6473303E2,4.5658375E1,1.373586E2,2.5472107E2,1.10011955E2],"tree_param":{"num_deleted":"0","num_feature":"1536","num_nodes":"7","size_leaf_vector":"1"}},{"base_weights":[-2.0320476E-3,-2.2677049E-1,6.842578E-1,-4.0992927E-2,2.5602436E-2,1.0982497E-1,-2.435014E-2],"categories":[],"categories_nodes":[],"categories_segments":[],"categories_sizes":[],"default_left":[0,0,0,0,0,0,0],"id":84,"left_children":[1,3,5,-1,-1,-1,-1],"loss_changes":[8.154267E1,3.532246E1,5.03602E1,0E0,0E0,0E0,0E0],"parents":[2147483647,0,0,1,1,2,2],"right_children":[2,4,6,-1,-1,-1,-1],"split_conditions":[7.492019E-2,6.234234E-1,-3.1149876E-1,-4.0992927E-2,2.5602436E-2,1.0982497E-1,-2.435014E-2],"split_indices":[196,949,11,0,0,0,0],"split_type":[0,0,0,0,0,0,0],"sum_hessian":[5.266826E2,3.972615E2,1.2942114E2,2.8811118E2,1.0915032E2,8.93617E1,4.0059437E1],"tree_param":{"num_deleted":"0","num_feature":"1536","num_nodes":"7","size_leaf_vector":"1"}},{"base_weights":[-1.6102261E-3,5.0674534E-1,-2.5196865E-1,7.526255E-2,-4.1358273E-2,5.3150058E-2,-3.801782E-2],"categories":[],"categories_nodes":[],"categories_segments":[],"categories_sizes":[],"default_left":[0,0,0,0,0,0,0],"id":85,"left_children":[1,3,5,-1,-1,-1,-1],"loss_changes":[6.8649315E1,4.0588467E1,3.6504272E1,0E0,0E0,0E0,0E0],"parents":[2147483647,0,0,1,1,2,2],"right_children":[2,4,6,-1,-1,-1,-1],"split_conditions":[6.649681E-1,7.1669036E-1,-3.0864155E-1,7.526255E-2,-4.1358273E-2,5.3150058E-2,-3.801782E-2],"split_indices":[1040,1260,635,0,0,0,0],"split_type":[0,0,0,0,0,0,0],"sum_hessian":[5.373912E2,1.7698898E2,3.6040216E2,1.3981691E2,3.7172073E1,5.0241055E1,3.101611E2],"tree_param":{"num_deleted":"0","num_feature":"1536","num_nodes":"7","size_leaf_vector":"1"}},{"base_weights":[1.0315041E-3,-2.8936937E-1,3.4054875E-1,-4.9262777E-2,4.4481135E-3,7.646924E-2,-8.787427E-3],"categories":[],"categories_nodes":[],"categories_segments":[],"categories_sizes":[],"default_left":[0,0,0,0,0,0,0],"id":86,"left_children":[1,3,5,-1,-1,-1,-1],"loss_changes":[5.3601974E1,1.9905838E1,4.5609833E1,0E0,0E0,0E0,0E0],"parents":[2147483647,0,0,1,1,2,2],"right_children":[2,4,6,-1,-1,-1,-1],"split_conditions":[5.5532897E-1,1.3685784E0,-1.2562889E-1,-4.9262777E-2,4.4481135E-3,7.646924E-2,-8.787427E-3],"split_indices":[1513,1285,321,0,0,0,0],"split_type":[0,0,0,0,0,0,0],"sum_hessian":[5.416526E2,2.9202295E2,2.4962964E2,1.8121693E2,1.1080601E2,1.2504689E2,1.2458274E2],"tree_param":{"num_deleted":"0","num_feature":"1536","num_nodes":"7","size_leaf_vector":"1"}},{"base_weights":[-4.1923453E-3,3.9895788E-1,-3.2833365E-1,-9.498568E-4,1.0286342E-1,6.1686885E-2,-4.0837735E-2],"categories":[],"categories_nodes":[],"categories_segments":[],"categories_sizes":[],"default_left":[0,0,0,0,0,0,0],"id":87,"left_children":[1,3,5,-1,-1,-1,-1],"loss_changes":[7.034126E1,6.1712784E1,2.2825943E1,0E0,0E0,0E0,0E0],"parents":[2147483647,0,0,1,1,2,2],"right_children":[2,4,6,-1,-1,-1,-1],"split_conditions":[4.8792717E-1,-4.676591E-1,-4.2049462E-1,-9.498568E-4,1.0286342E-1,6.1686885E-2,-4.0837735E-2],"split_indices":[932,552,98,0,0,0,0],"split_type":[0,0,0,0,0,0,0],"sum_hessian":[5.3627844E2,2.3890718E2,2.9737125E2,1.4550583E2,9.340135E1,2.269296E1,2.7467828E2],"tree_param":{"num_deleted":"0","num_feature":"1536","num_nodes":"7","size_leaf_vector":"1"}},{"base_weights":[-2.0555276E-3,-4.3495044E-1,4.893908E-1,1.0283226E-1,-4.9228188E-2,9.7349145E-2,-5.381146E-3],"categories":[],"categories_nodes":[],"categories_segments":[],"categories_sizes":[],"default_left":[0,0,0,0,0,0,0],"id":88,"left_children":[1,3,5,-1,-1,-1,-1],"loss_changes":[6.1142506E1,1.3324791E1,3.54471E1,0E0,0E0,0E0,0E0],"parents":[2147483647,0,0,1,1,2,2],"right_children":[2,4,6,-1,-1,-1,-1],"split_conditions":[8.2653224E-1,2.0548894E-1,-2.4474548E-1,1.0283226E-1,-4.9228188E-2,9.7349145E-2,-5.381146E-3],"split_indices":[1006,342,383,0,0,0,0],"split_type":[0,0,0,0,0,0,0],"sum_hessian":[2.8539804E2,1.5179926E2,1.3359879E2,5.08474E0,1.4671452E2,7.0223564E1,6.337522E1],"tree_param":{"num_deleted":"0","num_feature":"1536","num_nodes":"7","size_leaf_vector":"1"}},{"base_weights":[-3.3151875E-3,-5.029213E-1,3.714527E-1,-5.201155E-2,1.2551884E-1,8.5569516E-2,8.490442E-3],"categories":[],"categories_nodes":[],"categories_segments":[],"categories_sizes":[],"default_left":[0,0,0,0,0,0,0],"id":89,"left_children":[1,3,5,-1,-1,-1,-1],"loss_changes":[9.791632E1,7.428528E0,4.139061E1,0E0,0E0,0E0,0E0],"parents":[2147483647,0,0,1,1,2,2],"right_children":[2,4,6,-1,-1,-1,-1],"split_conditions":[-6.951701E-1,7.555871E-1,-4.3740153E-1,-5.201155E-2,1.2551884E-1,8.5569516E-2,8.490442E-3],"split_indices":[47,1135,173,0,0,0,0],"split_type":[0,0,0,0,0,0,0],"sum_hessian":[5.2095807E2,2.2314273E2,2.9781534E2,2.216789E2,1.4638456E0,1.09977104E2,1.8783824E2],"tree_param":{"num_deleted":"0","num_feature":"1536","num_nodes":"7","size_leaf_vector":"1"}},{"base_weights":[6.8817823E-3,2.4258967E-1,-2.4091846E-1,9.790434E-3,9.592327E-2,1.0627989E-2,-4.57709E-2],"categories":[],"categories_nodes":[],"categories_segments":[],"categories_sizes":[],"default_left":[0,0,0,0,0,0,0],"id":90,"left_children":[1,3,5,-1,-1,-1,-1],"loss_changes":[3.2092293E1,2.9102385E1,2.0210752E1,0E0,0E0,0E0,0E0],"parents":[2147483647,0,0,1,1,2,2],"right_children":[2,4,6,-1,-1,-1,-1],"split_conditions":[6.35946E-1,8.0977863E-1,1.16833396E-1,9.790434E-3,9.592327E-2,1.0627989E-2,-4.57709E-2],"split_indices":[969,1174,531,0,0,0,0],"split_type":[0,0,0,0,0,0,0],"sum_hessian":[5.4744525E2,2.805791E2,2.6686615E2,2.3439331E2,4.6185795E1,1.02776085E2,1.6409007E2],"tree_param":{"num_deleted":"0","num_feature":"1536","num_nodes":"7","size_leaf_vector":"1"}},{"base_weights":[5.3627016E-3,-2.382672E-1,2.997993E-1,1.15533434E-1,-2.9463893E-2,-1.7751267E-2,5.8435418E-2],"categories":[],"categories_nodes":[],"categories_segments":[],"categories_sizes":[],"default_left":[0,0,0,0,0,0,0],"id":91,"left_children":[1,3,5,-1,-1,-1,-1],"loss_changes":[3.925799E1,2.3868109E1,3.3759113E1,0E0,0E0,0E0,0E0],"parents":[2147483647,0,0,1,1,2,2],"right_children":[2,4,6,-1,-1,-1,-1],"split_conditions":[6.575711E-1,-1.0080321E-2,-2.9958943E-1,1.15533434E-1,-2.9463893E-2,-1.7751267E-2,5.8435418E-2],"split_indices":[969,204,11,0,0,0,0],"split_type":[0,0,0,0,0,0,0],"sum_hessian":[5.4527936E2,2.9848795E2,2.467914E2,1.0846632E1,2.8764133E2,9.231631E1,1.5447508E2],"tree_param":{"num_deleted":"0","num_feature":"1536","num_nodes":"7","size_leaf_vector":"1"}},{"base_weights":[-2.271918E-3,4.2601296E-1,-3.3488747E-1,7.642793E-2,-1.2920062E-2,-4.49133E-2,2.5034113E-2],"categories":[],"categories_nodes":[],"categories_segments":[],"categories_sizes":[],"default_left":[0,0,0,0,0,0,0],"id":92,"left_children":[1,3,5,-1,-1,-1,-1],"loss_changes":[7.439431E1,4.297358E1,1.9765411E1,0E0,0E0,0E0,0E0],"parents":[2147483647,0,0,1,1,2,2],"right_children":[2,4,6,-1,-1,-1,-1],"split_conditions":[-3.179767E-1,7.034395E-1,6.3045305E-1,7.642793E-2,-1.2920062E-2,-4.49133E-2,2.5034113E-2],"split_indices":[723,1373,107,0,0,0,0],"split_type":[0,0,0,0,0,0,0],"sum_hessian":[5.202316E2,2.2728825E2,2.9294336E2,1.4100424E2,8.6284004E1,2.4529132E2,4.7652042E1],"tree_param":{"num_deleted":"0","num_feature":"1536","num_nodes":"7","size_leaf_vector":"1"}},{"base_weights":[-2.1087017E-3,-3.3756718E-1,3.5140342E-1,4.8473176E-2,-4.3757644E-2,3.064914E-3,9.527915E-2],"categories":[],"categories_nodes":[],"categories_segments":[],"categories_sizes":[],"default_left":[0,0,0,0,0,0,0],"id":93,"left_children":[1,3,5,-1,-1,-1,-1],"loss_changes":[6.340866E1,2.2773922E1,5.019068E1,0E0,0E0,0E0,0E0],"parents":[2147483647,0,0,1,1,2,2],"right_children":[2,4,6,-1,-1,-1,-1],"split_conditions":[1.5828483E-1,-2.3698858E1,6.713341E-1,4.8473176E-2,-4.3757644E-2,3.064914E-3,9.527915E-2],"split_indices":[601,97,571,0,0,0,0],"split_type":[0,0,0,0,0,0,0],"sum_hessian":[5.326939E2,2.733494E2,2.593445E2,2.9223152E1,2.4412625E2,1.6982057E2,8.952396E1],"tree_param":{"num_deleted":"0","num_feature":"1536","num_nodes":"7","size_leaf_vector":"1"}},{"base_weights":[1.3125384E-3,-3.8908517E-1,2.4168731E-1,-4.2838905E-2,8.233368E-2,4.9809556E-2,-3.3521324E-2],"categories":[],"categories_nodes":[],"categories_segments":[],"categories_sizes":[],"default_left":[0,0,0,0,0,0,0],"id":94,"left_children":[1,3,5,-1,-1,-1,-1],"loss_changes":[5.0674625E1,1.0158947E1,4.9604576E1,0E0,0E0,0E0,0E0],"parents":[2147483647,0,0,1,1,2,2],"right_children":[2,4,6,-1,-1,-1,-1],"split_conditions":[9.6783966E-1,-2.3992095E-2,3.571009E-1,-4.2838905E-2,8.233368E-2,4.9809556E-2,-3.3521324E-2],"split_indices":[1042,485,120,0,0,0,0],"split_type":[0,0,0,0,0,0,0],"sum_hessian":[5.3799866E2,2.0478477E2,3.332139E2,1.9898094E2,5.803829E0,2.307789E2,1.02435E2],"tree_param":{"num_deleted":"0","num_feature":"1536","num_nodes":"7","size_leaf_vector":"1"}},{"base_weights":[-5.216621E-3,5.51123E-1,-2.2277242E-1,1.17606975E-1,1.6948244E-2,-4.018874E-2,3.4788784E-2],"categories":[],"categories_nodes":[],"categories_segments":[],"categories_sizes":[],"default_left":[0,0,0,0,0,0,0],"id":95,"left_children":[1,3,5,-1,-1,-1,-1],"loss_changes":[6.468377E1,3.563329E1,3.940725E1,0E0,0E0,0E0,0E0],"parents":[2147483647,0,0,1,1,2,2],"right_children":[2,4,6,-1,-1,-1,-1],"split_conditions":[-3.9766642E-1,5.1845264E-1,-2.3964819E-2,1.17606975E-1,1.6948244E-2,-4.018874E-2,3.4788784E-2],"split_indices":[98,1067,682,0,0,0,0],"split_type":[0,0,0,0,0,0,0],"sum_hessian":[5.32408E2,1.4923837E2,3.8316968E2,5.5793457E1,9.3444916E1,2.9185876E2,9.131091E1],"tree_param":{"num_deleted":"0","num_feature":"1536","num_nodes":"7","size_leaf_vector":"1"}},{"base_weights":[-2.4163635E-3,4.8787913E-1,-4.0250835E-1,7.720567E-2,-1.2469246E-2,1.0825838E-1,-4.5516122E-2],"categories":[],"categories_nodes":[],"categories_segments":[],"categories_sizes":[],"default_left":[0,0,0,0,0,0,0],"id":96,"left_children":[1,3,5,-1,-1,-1,-1],"loss_changes":[5.5802166E1,2.2348228E1,1.2741125E1,0E0,0E0,0E0,0E0],"parents":[2147483647,0,0,1,1,2,2],"right_children":[2,4,6,-1,-1,-1,-1],"split_conditions":[3.910262E-1,4.731778E-1,-1.7387442E-1,7.720567E-2,-1.2469246E-2,1.0825838E-1,-4.5516122E-2],"split_indices":[434,1492,165,0,0,0,0],"split_type":[0,0,0,0,0,0,0],"sum_hessian":[2.8246686E2,1.2682673E2,1.556401E2,8.645781E1,4.0368923E1,4.6594E0,1.5098071E2],"tree_param":{"num_deleted":"0","num_feature":"1536","num_nodes":"7","size_leaf_vector":"1"}},{"base_weights":[-4.265782E-3,4.914792E-1,-3.519268E-1,-2.3618338E-3,8.255964E-2,5.6277793E-2,-4.5381498E-2],"categories":[],"categories_nodes":[],"categories_segments":[],"categories_sizes":[],"default_left":[0,0,0,0,0,0,0],"id":97,"left_children":[1,3,5,-1,-1,-1,-1],"loss_changes":[8.910392E1,3.6696804E1,2.8575737E1,0E0,0E0,0E0,0E0],"parents":[2147483647,0,0,1,1,2,2],"right_children":[2,4,6,-1,-1,-1,-1],"split_conditions":[2.1548556E-2,2.0632951E0,5.6715176E-2,-2.3618338E-3,8.255964E-2,5.6277793E-2,-4.5381498E-2],"split_indices":[169,1220,511,0,0,0,0],"split_type":[0,0,0,0,0,0,0],"sum_hessian":[5.149869E2,2.1211261E2,3.0287424E2,8.381974E1,1.2829286E2,2.9902239E1,2.7297202E2],"tree_param":{"num_deleted":"0","num_feature":"1536","num_nodes":"7","size_leaf_vector":"1"}},{"base_weights":[7.0432597E-3,1.2610464E-1,-4.652702E-1,7.723339E-2,-4.5362907E-4,-5.1799674E-2,7.481455E-2],"categories":[],"categories_nodes":[],"categories_segments":[],"categories_sizes":[],"default_left":[0,0,0,0,0,0,0],"id":98,"left_children":[1,3,5,-1,-1,-1,-1],"loss_changes":[3.0777807E1,3.6903263E1,7.437649E0,0E0,0E0,0E0,0E0],"parents":[2147483647,0,0,1,1,2,2],"right_children":[2,4,6,-1,-1,-1,-1],"split_conditions":[-2.0157983E0,3.4750003E-1,6.348928E-1,7.723339E-2,-4.5362907E-4,-5.1799674E-2,7.481455E-2],"split_indices":[521,505,525,0,0,0,0],"split_type":[0,0,0,0,0,0,0],"sum_hessian":[5.452705E2,4.3607672E2,1.0919377E2,7.2506035E1,3.6357068E2,1.0519581E2,3.9979649E0],"tree_param":{"num_deleted":"0","num_feature":"1536","num_nodes":"7","size_leaf_vector":"1"}},{"base_weights":[5.5986913E-3,-2.7256685E-1,2.5018418E-1,1.2620494E-1,-3.1289835E-2,-1.9075558E-2,5.9485227E-2],"categories":[],"categories_nodes":[],"categories_segments":[],"categories_sizes":[],"default_left":[0,0,0,0,0,0,0],"id":99,"left_children":[1,3,5,-1,-1,-1,-1],"loss_changes":[3.7073627E1,1.6175636E1,4.4179306E1,0E0,0E0,0E0,0E0],"parents":[2147483647,0,0,1,1,2,2],"right_children":[2,4,6,-1,-1,-1,-1],"split_conditions":[8.412014E-1,-2.9935943E-2,1.4137435E0,1.2620494E-1,-3.1289835E-2,-1.9075558E-2,5.9485227E-2],"split_indices":[836,204,73,0,0,0,0],"split_type":[0,0,0,0,0,0,0],"sum_hessian":[5.4291565E2,2.539666E2,2.8894904E2,5.7278967E0,2.4823871E2,1.2696593E2,1.6198311E2],"tree_param":{"num_deleted":"0","num_feature":"1536","num_nodes":"7","size_leaf_vector":"1"}},{"base_weights":[-1.8204576E-3,3.7434453E-1,-3.6307958E-1,8.391907E-2,-1.3817345E-2,5.797583E-2,-4.2910423E-2],"categories":[],"categories_nodes":[],"categories_segments":[],"categories_sizes":[],"default_left":[0,0,0,0,0,0,0],"id":100,"left_children":[1,3,5,-1,-1,-1,-1],"loss_changes":[7.011235E1,6.0333244E1,1.6631916E1,0E0,0E0,0E0,0E0],"parents":[2147483647,0,0,1,1,2,2],"right_children":[2,4,6,-1,-1,-1,-1],"split_conditions":[-3.151682E-1,7.3662007E-1,4.8640188E-2,8.391907E-2,-1.3817345E-2,5.797583E-2,-4.2910423E-2],"split_indices":[11,1211,91,0,0,0,0],"split_type":[0,0,0,0,0,0,0],"sum_hessian":[5.1393756E2,2.5175682E2,2.6218076E2,1.31684E2,1.20072815E2,1.6649107E1,2.4553166E2],"tree_param":{"num_deleted":"0","num_feature":"1536","num_nodes":"7","size_leaf_vector":"1"}},{"base_weights":[-1.8929739E-3,3.8977677E-1,-2.8648674E-1,5.880723E-2,-4.2451274E-2,3.606094E-2,-4.004469E-2],"categories":[],"categories_nodes":[],"categories_segments":[],"categories_sizes":[],"default_left":[0,0,0,0,0,0,0],"id":101,"left_children":[1,3,5,-1,-1,-1,-1],"loss_changes":[5.907459E1,3.6262737E1,2.2779158E1,0E0,0E0,0E0,0E0],"parents":[2147483647,0,0,1,1,2,2],"right_children":[2,4,6,-1,-1,-1,-1],"split_conditions":[6.3814193E-1,7.195551E-1,-3.1302655E-1,5.880723E-2,-4.2451274E-2,3.606094E-2,-4.004469E-2],"split_indices":[1088,1260,635,0,0,0,0],"split_type":[0,0,0,0,0,0,0],"sum_hessian":[5.2797314E2,2.220328E2,3.0594034E2,1.7877531E2,4.3257492E1,4.5487247E1,2.604531E2],"tree_param":{"num_deleted":"0","num_feature":"1536","num_nodes":"7","size_leaf_vector":"1"}},{"base_weights":[1.1060123E-3,-3.809586E-1,2.2552302E-1,-4.345077E-2,4.884952E-2,4.3967675E-2,-3.6819693E-2],"categories":[],"categories_nodes":[],"categories_segments":[],"categories_sizes":[],"default_left":[0,0,0,0,0,0,0],"id":102,"left_children":[1,3,5,-1,-1,-1,-1],"loss_changes":[4.599034E1,9.453133E0,4.3125076E1,0E0,0E0,0E0,0E0],"parents":[2147483647,0,0,1,1,2,2],"right_children":[2,4,6,-1,-1,-1,-1],"split_conditions":[9.6783966E-1,1.0980824E-1,3.625464E-1,-4.345077E-2,4.884952E-2,4.3967675E-2,-3.6819693E-2],"split_indices":[1042,365,120,0,0,0,0],"split_type":[0,0,0,0,0,0,0],"sum_hessian":[5.343798E2,1.97479E2,3.3690085E2,1.8649326E2,1.098575E1,2.4778477E2,8.9116066E1],"tree_param":{"num_deleted":"0","num_feature":"1536","num_nodes":"7","size_leaf_vector":"1"}},{"base_weights":[-5.0371876E-3,4.8689044E-1,-2.388592E-1,7.9337426E-2,-1.8813273E-2,-4.2602472E-2,1.6004052E-2],"categories":[],"categories_nodes":[],"categories_segments":[],"categories_sizes":[],"default_left":[0,0,0,0,0,0,0],"id":103,"left_children":[1,3,5,-1,-1,-1,-1],"loss_changes":[6.085878E1,3.5416378E1,2.6842787E1,0E0,0E0,0E0,0E0],"parents":[2147483647,0,0,1,1,2,2],"right_children":[2,4,6,-1,-1,-1,-1],"split_conditions":[4.8952746E-1,2.6212916E-1,-3.409289E-1,7.9337426E-2,-1.8813273E-2,-4.2602472E-2,1.6004052E-2],"split_indices":[1299,423,82,0,0,0,0],"split_type":[0,0,0,0,0,0,0],"sum_hessian":[5.270875E2,1.6946837E2,3.5761917E2,1.1642986E2,5.30385E1,2.4336382E2,1.1425536E2],"tree_param":{"num_deleted":"0","num_feature":"1536","num_nodes":"7","size_leaf_vector":"1"}},{"base_weights":[-1.8340346E-3,3.6015126E-1,-5.1914025E-2,-2.670508E-2,6.406789E-2],"categories":[],"categories_nodes":[],"categories_segments":[],"categories_sizes":[],"default_left":[0,0,0,0,0],"id":104,"left_children":[1,3,-1,-1,-1],"loss_changes":[5.2716557E1,2.931275E1,0E0,0E0,0E0],"parents":[2147483647,0,0,1,1],"right_children":[2,4,-1,-1,-1],"split_conditions":[2.8840753E-1,8.2653224E-1,-5.1914025E-2,-2.670508E-2,6.406789E-2],"split_indices":[15,1006,0,0,0],"split_type":[0,0,0,0,0],"sum_hessian":[2.7952097E2,1.6462695E2,1.1489401E2,5.089168E1,1.13735275E2],"tree_param":{"num_deleted":"0","num_feature":"1536","num_nodes":"5","size_leaf_vector":"1"}},{"base_weights":[-3.8062877E-3,-3.89876E-1,4.1814676E-1,3.5861325E-2,-4.7625165E-2,-3.9701518E-3,7.008924E-2],"categories":[],"categories_nodes":[],"categories_segments":[],"categories_sizes":[],"default_left":[0,0,0,0,0,0,0],"id":105,"left_children":[1,3,5,-1,-1,-1,-1],"loss_changes":[8.3101906E1,1.7393059E1,3.158139E1,0E0,0E0,0E0,0E0],"parents":[2147483647,0,0,1,1,2,2],"right_children":[2,4,6,-1,-1,-1,-1],"split_conditions":[1.9989239E-1,-4.2804125E-1,7.4848115E-2,3.5861325E-2,-4.7625165E-2,-3.9701518E-3,7.008924E-2],"split_indices":[328,173,724,0,0,0,0],"split_type":[0,0,0,0,0,0,0],"sum_hessian":[5.081295E2,2.6538715E2,2.4274232E2,2.7131044E1,2.3825612E2,9.3002884E1,1.4973944E2],"tree_param":{"num_deleted":"0","num_feature":"1536","num_nodes":"7","size_leaf_vector":"1"}},{"base_weights":[7.6190364E-3,-2.2602512E-1,2.3630828E-1,3.110223E-2,-3.519304E-2,9.302344E-2,1.305408E-4],"categories":[],"categories_nodes":[],"categories_segments":[],"categories_sizes":[],"default_left":[0,0,0,0,0,0,0],"id":106,"left_children":[1,3,5,-1,-1,-1,-1],"loss_changes":[2.9120998E1,1.833916E1,4.4911156E1,0E0,0E0,0E0,0E0],"parents":[2147483647,0,0,1,1,2,2],"right_children":[2,4,6,-1,-1,-1,-1],"split_conditions":[6.378042E-2,-6.357387E-2,5.644689E-1,3.110223E-2,-3.519304E-2,9.302344E-2,1.305408E-4],"split_indices":[204,326,1062,0,0,0,0],"split_type":[0,0,0,0,0,0,0],"sum_hessian":[5.4301184E2,2.686019E2,2.7440994E2,5.073255E1,2.1786935E2,6.8672516E1,2.0573743E2],"tree_param":{"num_deleted":"0","num_feature":"1536","num_nodes":"7","size_leaf_vector":"1"}},{"base_weights":[6.369031E-3,-1.9457845E-1,3.3780482E-1,-2.6790207E-2,6.308948E-2,1.2728998E-2,1.0408317E-1],"categories":[],"categories_nodes":[],"categories_segments":[],"categories_sizes":[],"default_left":[0,0,0,0,0,0,0],"id":107,"left_children":[1,3,5,-1,-1,-1,-1],"loss_changes":[3.612723E1,2.060994E1,3.0168074E1,0E0,0E0,0E0,0E0],"parents":[2147483647,0,0,1,1,2,2],"right_children":[2,4,6,-1,-1,-1,-1],"split_conditions":[3.572662E-2,3.596315E-1,2.5058871E-2,-2.6790207E-2,6.308948E-2,1.2728998E-2,1.0408317E-1],"split_indices":[657,127,121,0,0,0,0],"split_type":[0,0,0,0,0,0,0],"sum_hessian":[5.4045435E2,3.3671753E2,2.0373683E2,3.0986856E2,2.6848976E1,1.5769699E2,4.603984E1],"tree_param":{"num_deleted":"0","num_feature":"1536","num_nodes":"7","size_leaf_vector":"1"}},{"base_weights":[-2.414692E-3,-2.130814E-1,6.0195696E-1,-3.7420888E-2,3.0623902E-2,9.304527E-2,-2.183301E-2],"categories":[],"categories_nodes":[],"categories_segments":[],"categories_sizes":[],"default_left":[0,0,0,0,0,0,0],"id":108,"left_children":[1,3,5,-1,-1,-1,-1],"loss_changes":[6.4820526E1,3.1703445E1,3.5662388E1,0E0,0E0,0E0,0E0],"parents":[2147483647,0,0,1,1,2,2],"right_children":[2,4,6,-1,-1,-1,-1],"split_conditions":[7.492019E-2,2.549729E-1,-3.1149876E-1,-3.7420888E-2,3.0623902E-2,9.304527E-2,-2.183301E-2],"split_indices":[196,518,11,0,0,0,0],"split_type":[0,0,0,0,0,0,0],"sum_hessian":[5.0710364E2,3.765103E2,1.3059332E2,2.8756738E2,8.8942955E1,9.315411E1,3.743921E1],"tree_param":{"num_deleted":"0","num_feature":"1536","num_nodes":"7","size_leaf_vector":"1"}},{"base_weights":[-2.3889064E-3,3.978215E-1,-2.630076E-1,6.6137455E-2,-1.7892428E-2,-4.332668E-2,2.2769481E-2],"categories":[],"categories_nodes":[],"categories_segments":[],"categories_sizes":[],"default_left":[0,0,0,0,0,0,0],"id":109,"left_children":[1,3,5,-1,-1,-1,-1],"loss_changes":[5.4816296E1,3.1624062E1,2.6689741E1,0E0,0E0,0E0,0E0],"parents":[2147483647,0,0,1,1,2,2],"right_children":[2,4,6,-1,-1,-1,-1],"split_conditions":[6.983925E-1,6.9968504E-1,4.898329E0,6.6137455E-2,-1.7892428E-2,-4.332668E-2,2.2769481E-2],"split_indices":[785,1260,1365,0,0,0,0],"split_type":[0,0,0,0,0,0,0],"sum_hessian":[5.235489E2,2.0627031E2,3.1727856E2,1.4147456E2,6.4795746E1,2.3563667E2,8.164189E1],"tree_param":{"num_deleted":"0","num_feature":"1536","num_nodes":"7","size_leaf_vector":"1"}},{"base_weights":[6.5982423E-4,-3.3983606E-1,2.4064344E-1,-4.2611368E-2,5.3470325E-2,-3.3016067E-2,5.2305635E-2],"categories":[],"categories_nodes":[],"categories_segments":[],"categories_sizes":[],"default_left":[0,0,0,0,0,0,0],"id":110,"left_children":[1,3,5,-1,-1,-1,-1],"loss_changes":[4.353066E1,1.6845715E1,5.0545486E1,0E0,0E0,0E0,0E0],"parents":[2147483647,0,0,1,1,2,2],"right_children":[2,4,6,-1,-1,-1,-1],"split_conditions":[1.3615273E0,1.0008792E0,2.5674996E-1,-4.2611368E-2,5.3470325E-2,-3.3016067E-2,5.2305635E-2],"split_indices":[1285,787,370,0,0,0,0],"split_type":[0,0,0,0,0,0,0],"sum_hessian":[5.3072253E2,2.1924092E2,3.1148163E2,2.0002066E2,1.9220263E1,1.0304374E2,2.0843788E2],"tree_param":{"num_deleted":"0","num_feature":"1536","num_nodes":"7","size_leaf_vector":"1"}},{"base_weights":[-5.7503306E-3,2.9475543E-1,-3.731886E-1,-2.9246644E-3,8.705835E-2,2.6975011E-2,-4.69476E-2],"categories":[],"categories_nodes":[],"categories_segments":[],"categories_sizes":[],"default_left":[0,0,0,0,0,0,0],"id":111,"left_children":[1,3,5,-1,-1,-1,-1],"loss_changes":[5.7943085E1,5.3885353E1,1.4741791E1,0E0,0E0,0E0,0E0],"parents":[2147483647,0,0,1,1,2,2],"right_children":[2,4,6,-1,-1,-1,-1],"split_conditions":[6.3074416E-1,6.333661E-1,-3.9843932E-1,-2.9246644E-3,8.705835E-2,2.6975011E-2,-4.69476E-2],"split_indices":[1288,881,98,0,0,0,0],"split_type":[0,0,0,0,0,0,0],"sum_hessian":[5.2276825E2,2.876854E2,2.3508286E2,1.8470587E2,1.0297953E2,3.0385895E1,2.0469696E2],"tree_param":{"num_deleted":"0","num_feature":"1536","num_nodes":"7","size_leaf_vector":"1"}},{"base_weights":[-1.5581818E-3,5.405203E-1,-3.2513338E-1,-3.4113392E-2,8.159172E-2,5.2302856E-2,-4.768902E-2],"categories":[],"categories_nodes":[],"categories_segments":[],"categories_sizes":[],"default_left":[0,0,0,0,0,0,0],"id":112,"left_children":[1,3,5,-1,-1,-1,-1],"loss_changes":[4.8855713E1,2.5557972E1,2.269938E1,0E0,0E0,0E0,0E0],"parents":[2147483647,0,0,1,1,2,2],"right_children":[2,4,6,-1,-1,-1,-1],"split_conditions":[-1.2689114E-1,-2.6346074E-2,-3.249375E-1,-3.4113392E-2,8.159172E-2,5.2302856E-2,-4.768902E-2],"split_indices":[165,315,354,0,0,0,0],"split_type":[0,0,0,0,0,0,0],"sum_hessian":[2.7653192E2,1.0311506E2,1.7341687E2,2.4486237E1,7.862882E1,2.594803E1,1.4746884E2],"tree_param":{"num_deleted":"0","num_feature":"1536","num_nodes":"7","size_leaf_vector":"1"}},{"base_weights":[-3.6966335E-3,-4.9175832E-1,3.1392595E-1,-5.108527E-2,1.138994E-1,6.2216204E-2,-3.2176417E-3],"categories":[],"categories_nodes":[],"categories_segments":[],"categories_sizes":[],"default_left":[0,0,0,0,0,0,0],"id":113,"left_children":[1,3,5,-1,-1,-1,-1],"loss_changes":[7.8032684E1,6.7609215E0,3.2551094E1,0E0,0E0,0E0,0E0],"parents":[2147483647,0,0,1,1,2,2],"right_children":[2,4,6,-1,-1,-1,-1],"split_conditions":[-6.951701E-1,7.555871E-1,2.9031232E-1,-5.108527E-2,1.138994E-1,6.2216204E-2,-3.2176417E-3],"split_indices":[47,1135,127,0,0,0,0],"split_type":[0,0,0,0,0,0,0],"sum_hessian":[5.013778E2,1.9744058E2,3.0393723E2,1.9583432E2,1.6062689E0,1.6034108E2,1.4359615E2],"tree_param":{"num_deleted":"0","num_feature":"1536","num_nodes":"7","size_leaf_vector":"1"}},{"base_weights":[8.488624E-3,1.1973923E-1,-4.573587E-1,5.176111E-4,7.397271E-2,-4.9414884E-2,1.2269702E-1],"categories":[],"categories_nodes":[],"categories_segments":[],"categories_sizes":[],"default_left":[0,0,0,0,0,0,0],"id":114,"left_children":[1,3,5,-1,-1,-1,-1],"loss_changes":[2.8106693E1,3.1086535E1,7.0850525E0,0E0,0E0,0E0,0E0],"parents":[2147483647,0,0,1,1,2,2],"right_children":[2,4,6,-1,-1,-1,-1],"split_conditions":[-2.0157983E0,6.114339E-1,8.5894746E-1,5.176111E-4,7.397271E-2,-4.9414884E-2,1.2269702E-1],"split_indices":[521,1126,1189,0,0,0,0],"split_type":[0,0,0,0,0,0,0],"sum_hessian":[5.4027344E2,4.3672144E2,1.0355199E2,3.6945993E2,6.7261505E1,1.0203001E2,1.5219836E0],"tree_param":{"num_deleted":"0","num_feature":"1536","num_nodes":"7","size_leaf_vector":"1"}},{"base_weights":[7.1826275E-3,-3.2079312E-1,1.9724461E-1,9.279584E-2,-3.867618E-2,1.1261089E-1,7.148714E-3],"categories":[],"categories_nodes":[],"categories_segments":[],"categories_sizes":[],"default_left":[0,0,0,0,0,0,0],"id":115,"left_children":[1,3,5,-1,-1,-1,-1],"loss_changes":[3.3658985E1,1.6679264E1,3.9849617E1,0E0,0E0,0E0,0E0],"parents":[2147483647,0,0,1,1,2,2],"right_children":[2,4,6,-1,-1,-1,-1],"split_conditions":[-4.5578608E-1,1.7138103E-1,7.625732E-1,9.279584E-2,-3.867618E-2,1.1261089E-1,7.148714E-3],"split_indices":[114,109,1167,0,0,0,0],"split_type":[0,0,0,0,0,0,0],"sum_hessian":[5.3794794E2,1.9711444E2,3.408335E2,9.23496E0,1.8787949E2,3.9693863E1,3.0113965E2],"tree_param":{"num_deleted":"0","num_feature":"1536","num_nodes":"7","size_leaf_vector":"1"}},{"base_weights":[-3.4991254E-3,3.6845472E-1,-3.1663346E-1,7.037071E-2,-8.775383E-3,-4.358394E-2,2.4627412E-2],"categories":[],"categories_nodes":[],"categories_segments":[],"categories_sizes":[],"default_left":[0,0,0,0,0,0,0],"id":116,"left_children":[1,3,5,-1,-1,-1,-1],"loss_changes":[5.8467484E1,3.5154915E1,1.8395193E1,0E0,0E0,0E0,0E0],"parents":[2147483647,0,0,1,1,2,2],"right_children":[2,4,6,-1,-1,-1,-1],"split_conditions":[-3.179767E-1,6.8627506E-1,6.3045305E-1,7.037071E-2,-8.775383E-3,-4.358394E-2,2.4627412E-2],"split_indices":[723,472,107,0,0,0,0],"split_type":[0,0,0,0,0,0,0],"sum_hessian":[4.9998785E2,2.2844948E2,2.7153836E2,1.3136859E2,9.7080894E1,2.2427069E2,4.7267685E1],"tree_param":{"num_deleted":"0","num_feature":"1536","num_nodes":"7","size_leaf_vector":"1"}},{"base_weights":[-2.556357E-3,-3.0867E-1,3.1921786E-1,1.06470205E-1,-3.6128324E-2,7.7434264E-2,2.2547245E-3],"categories":[],"categories_nodes":[],"categories_segments":[],"categories_sizes":[],"default_left":[0,0,0,0,0,0,0],"id":117,"left_children":[1,3,5,-1,-1,-1,-1],"loss_changes":[5.127749E1,1.9661596E1,3.4251827E1,0E0,0E0,0E0,0E0],"parents":[2147483647,0,0,1,1,2,2],"right_children":[2,4,6,-1,-1,-1,-1],"split_conditions":[1.6323446E-1,4.4096735E-1,6.603099E-1,1.06470205E-1,-3.6128324E-2,7.7434264E-2,2.2547245E-3],"split_indices":[601,1051,1040,0,0,0,0],"split_type":[0,0,0,0,0,0,0],"sum_hessian":[5.1858606E2,2.657811E2,2.5280496E2,9.096521E0,2.5668457E2,9.912556E1,1.536794E2],"tree_param":{"num_deleted":"0","num_feature":"1536","num_nodes":"7","size_leaf_vector":"1"}},{"base_weights":[-1.8833784E-4,-3.6496124E-1,2.1226972E-1,-4.170282E-2,9.150752E-2,8.668728E-2,3.0690657E-3],"categories":[],"categories_nodes":[],"categories_segments":[],"categories_sizes":[],"default_left":[0,0,0,0,0,0,0],"id":118,"left_children":[1,3,5,-1,-1,-1,-1],"loss_changes":[4.1008938E1,1.3362087E1,3.9720016E1,0E0,0E0,0E0,0E0],"parents":[2147483647,0,0,1,1,2,2],"right_children":[2,4,6,-1,-1,-1,-1],"split_conditions":[5.4363966E-1,6.879224E-1,6.136639E-1,-4.170282E-2,9.150752E-2,8.668728E-2,3.0690657E-3],"split_indices":[1513,1050,1081,0,0,0,0],"split_type":[0,0,0,0,0,0,0],"sum_hessian":[5.2715515E2,1.9376276E2,3.333924E2,1.8683714E2,6.925614E0,7.157745E1,2.6181494E2],"tree_param":{"num_deleted":"0","num_feature":"1536","num_nodes":"7","size_leaf_vector":"1"}},{"base_weights":[-5.7688137E-3,-3.8478556E-1,2.6946115E-1,6.897747E-2,-4.3481078E-2,4.959422E-2,-2.9135412E-2],"categories":[],"categories_nodes":[],"categories_segments":[],"categories_sizes":[],"default_left":[0,0,0,0,0,0,0],"id":119,"left_children":[1,3,5,-1,-1,-1,-1],"loss_changes":[5.4269875E1,1.2064228E1,3.8426178E1,0E0,0E0,0E0,0E0],"parents":[2147483647,0,0,1,1,2,2],"right_children":[2,4,6,-1,-1,-1,-1],"split_conditions":[-5.048361E-2,2.0408341E-1,3.7053862E-1,6.897747E-2,-4.3481078E-2,4.959422E-2,-2.9135412E-2],"split_indices":[682,275,711,0,0,0,0],"split_type":[0,0,0,0,0,0,0],"sum_hessian":[5.182472E2,2.1784995E2,3.0039728E2,9.1218E0,2.0872813E2,2.1406458E2,8.6332695E1],"tree_param":{"num_deleted":"0","num_feature":"1536","num_nodes":"7","size_leaf_vector":"1"}},